{"layers":[{"out_depth":3,"out_sx":32,"out_sy":32,"layer_type":"input"},{"sx":5,"sy":5,"stride":1,"in_depth":3,"out_depth":16,"out_sx":32,"out_sy":32,"layer_type":"conv","l1_decay_mul":0,"l2_decay_mul":1,"pad":2,"filters":[{"sx":5,"sy":5,"depth":3,"w":{"0":0.009272166704234931,"1":0.006974411192610134,"2":0.11028154500854649,"3":0.3692085287727812,"4":0.15152332297352505,"5":0.012569193749991703,"6":0.020853069671658758,"7":0.0038133109635731825,"8":0.03715527979026661,"9":-0.1464525383869485,"10":0.07391494694084191,"11":0.1544170009750391,"12":0.1006222811590251,"13":-0.2358855333162525,"14":0.0792239780300214,"15":0.014193407393697607,"16":-0.05477350592829846,"17":0.25160892935007356,"18":-0.09591259519399492,"19":0.2316322994033141,"20":-0.08106570829205116,"21":0.13520264548548128,"22":0.07132911889594032,"23":-0.00035681940948645643,"24":-0.005029759508014446,"25":-0.03758229916592529,"26":-0.024568014173338634,"27":-0.09064745239731894,"28":0.20178596882416644,"29":0.04535807608870049,"30":-0.06506394797699637,"31":-0.07585629108060035,"32":-0.2001460577275222,"33":0.07068191692626537,"34":-0.003505942891338279,"35":0.014486101160363219,"36":-0.2521588015292458,"37":-0.034996911248342595,"38":0.323675941552837,"39":0.11855511574079289,"40":0.09210626235001562,"41":-0.0032549587386599826,"42":0.0004368877110349813,"43":0.21915281595952588,"44":0.1392889604766911,"45":-0.01659173086553981,"46":-0.11650413101174568,"47":0.21960593784006827,"48":0.06402296380362298,"49":-0.07619064955184975,"50":0.12188927011123314,"51":-0.20321982838678693,"52":0.025477641634355893,"53":0.09480909243185953,"54":-0.0742308007273753,"55":-0.08491132271666008,"56":0.034323732117061544,"57":0.010087361153810396,"58":-0.2199528789086313,"59":0.034879307771216256,"60":0.1629250088708249,"61":-0.05765898393426412,"62":-0.025292450905182298,"63":0.05735455818420919,"64":0.21085182850898423,"65":-0.14700878760417008,"66":0.006461803374010849,"67":0.1614947167093535,"68":0.018595977177107332,"69":-0.012522038036701176,"70":0.0002476607878558585,"71":0.10858662279315419,"72":-0.16143338996469914,"73":-0.014635473114877388,"74":-0.26109913874733676}},{"sx":5,"sy":5,"depth":3,"w":{"0":0.019704279180786554,"1":0.08778146669091945,"2":0.030379766386772568,"3":0.06565207806001254,"4":0.19386599253836365,"5":-0.13468910791405087,"6":-0.02472047683896026,"7":0.026648000479707862,"8":0.13485066153927053,"9":-0.09182114738041822,"10":0.07429373402930214,"11":-0.22629886378184197,"12":-0.10193053547856296,"13":-0.08406452153276152,"14":0.023643558895384113,"15":-0.1386673293754706,"16":-0.12356409595045556,"17":0.030694062550231573,"18":-0.12695542776456123,"19":-0.07474797274628722,"20":-0.019499944425858822,"21":0.2076495743376231,"22":0.07374923299826219,"23":-0.08508486878273044,"24":0.12964378137415913,"25":0.033765320637149265,"26":-0.07020131241822998,"27":-0.3380891684614961,"28":0.18150874635111355,"29":0.01710969985124306,"30":-0.11542016278181028,"31":0.20497592695247488,"32":0.018391227275950328,"33":-0.0028241200910813966,"34":-0.002018480974319673,"35":-0.032140688625763233,"36":-0.20067268893669762,"37":0.054297608968162304,"38":0.06473860653290354,"39":0.076760245722161,"40":-0.13262707874955576,"41":-0.052319035802727946,"42":0.012324737149392636,"43":0.01356403394625287,"44":0.08476061605334528,"45":0.07610266936286479,"46":0.11983980988470999,"47":0.02783175495225325,"48":0.03384630698134197,"49":0.11554373800825044,"50":0.2743233861760262,"51":-0.059926861311855685,"52":0.04623770648670171,"53":-0.25799875969853,"54":0.0005508236637502004,"55":0.03913996336232014,"56":-0.021678630141476984,"57":-0.02708086074815172,"58":-0.023725820479506148,"59":-0.11553430027802739,"60":-0.04534932105788584,"61":0.12552999540334905,"62":0.08659500161712048,"63":0.039229040886129385,"64":0.0012561395949166627,"65":0.10110194332623385,"66":0.09621176820984743,"67":-0.017406451324781275,"68":-0.015406643870369855,"69":-0.21700433263413,"70":0.1972163303980142,"71":-0.27138288738875066,"72":-0.08525151837142735,"73":0.2177118882614006,"74":0.1604285694622375}},{"sx":5,"sy":5,"depth":3,"w":{"0":-0.03779799974926907,"1":-0.12858934860448765,"2":-0.06154045297647492,"3":0.12693718013404534,"4":-0.027355585813579122,"5":0.16464086453614088,"6":0.13693659969606436,"7":-0.04209845388703336,"8":-0.13166634344191033,"9":-0.08167733072690203,"10":0.032950151951400206,"11":0.016334826765838712,"12":-0.07083298233025635,"13":0.3252174340928544,"14":0.0036563046493734144,"15":-0.23647106084954267,"16":0.0016550346176826118,"17":0.14438381887100915,"18":0.12195733700012093,"19":-0.07695412185231355,"20":0.0892216328197398,"21":-0.0813498417433244,"22":-0.00018480972601812038,"23":0.1713764447764618,"24":-0.09365691579908722,"25":0.022199735746838405,"26":-0.24816241668633932,"27":0.007706207175623945,"28":0.11613287229712839,"29":0.15645979169748822,"30":0.1620748562162792,"31":0.03592249800096137,"32":-0.09034533090729502,"33":-0.09208245887322827,"34":-0.14155766298779593,"35":-0.20796296006564938,"36":-0.05478745021417993,"37":0.05327899099654133,"38":-0.25335623000197893,"39":-0.13998439251703781,"40":-0.08214121485704658,"41":-0.0126561310234133,"42":0.17527209893416856,"43":-0.055118542872023724,"44":-0.1867428247422306,"45":0.04148275691328505,"46":0.07668252115827433,"47":0.04676387246556104,"48":-0.08644814600825657,"49":0.12292660006876999,"50":-0.03548469205796364,"51":0.16074545874588375,"52":0.005204136511379375,"53":-0.01820127880571853,"54":-0.08219172238618079,"55":-0.15146495862976236,"56":0.28651163768085175,"57":0.029988413909942384,"58":-0.08579052816733838,"59":-0.17114574808108352,"60":0.10426379569489583,"61":0.04766689551257866,"62":-0.08532292762410815,"63":0.041043381261552006,"64":-0.0009611614418100017,"65":-0.1703766697877195,"66":-0.02012214760510834,"67":-0.1536960457315819,"68":-0.04331579930823643,"69":0.11287487946523113,"70":-0.08640774568775918,"71":-0.10190866970061219,"72":0.11004594973791708,"73":-0.04473121675539561,"74":0.1185824075842315}},{"sx":5,"sy":5,"depth":3,"w":{"0":-0.054325599622585825,"1":0.08196027268081578,"2":-0.015854867273971975,"3":0.06688889884416155,"4":-0.11710585413357774,"5":0.19282475300752958,"6":-0.2551463313404948,"7":-0.06610802321556469,"8":0.002478409073998814,"9":-0.042095895322184204,"10":0.02734439818845131,"11":-0.01836121699878322,"12":0.10042606600638129,"13":-0.14529119812834437,"14":-0.008796437162130192,"15":0.10740807939501959,"16":-0.06540542447279525,"17":-0.013210255561006204,"18":0.027932712493366253,"19":-0.0526334600588504,"20":0.11807798769471343,"21":-0.02478070498179147,"22":-0.014095429287107216,"23":0.19498766114027594,"24":-0.07650910979186895,"25":-0.24794713378522723,"26":-0.0379953449275926,"27":0.1441444843544493,"28":0.01883747741358256,"29":-0.09414493678246226,"30":-0.17299887009623705,"31":-0.1131594753118705,"32":0.10029624035864736,"33":-0.04656733713146133,"34":0.1356200232004212,"35":0.0005505769943347245,"36":-0.02184236995259438,"37":0.05296518447812956,"38":0.018350348595554882,"39":-0.12004407221437473,"40":-0.08041043378611122,"41":-0.022164846583829202,"42":0.053869232409090625,"43":-0.0467530953789305,"44":0.012923718870856388,"45":0.037789035176522025,"46":-0.042866646861995546,"47":0.17459012731279944,"48":-0.019201204976668648,"49":-0.1648596929283465,"50":0.013214597984660235,"51":0.025233367690731295,"52":-0.08426142109753793,"53":-0.03870552794767013,"54":-0.038831511382402074,"55":-0.039314654735663236,"56":0.09027875698203439,"57":0.019879300977031868,"58":-0.16297830448909992,"59":-0.024942927347725526,"60":-0.07992026591581534,"61":-0.1525962485731566,"62":-0.12297789863715985,"63":-0.12100911025084556,"64":0.13504083069926234,"65":-0.07621691060830972,"66":0.047243604691775395,"67":0.016898328666461425,"68":0.02968537706028125,"69":-0.0004291635487770973,"70":0.12817524916728545,"71":-0.14397742887761383,"72":0.0785381197362178,"73":-0.16678843128306317,"74":-0.04170637306965476}},{"sx":5,"sy":5,"depth":3,"w":{"0":0.003116231085758763,"1":0.01786374852746022,"2":0.03577715542088428,"3":-0.21486213574484808,"4":-0.16594052411392476,"5":0.16210503394196285,"6":0.06767793273748728,"7":-0.12609813970131248,"8":0.09966659072814517,"9":0.07552635762480091,"10":-0.03367598680748867,"11":-0.005093319798784592,"12":0.023012909347025996,"13":-0.05894568077318061,"14":-0.14432019488400555,"15":-0.020683450183544227,"16":0.011751107290148166,"17":-0.12352097731986969,"18":0.017743149476528837,"19":0.18139525602457032,"20":0.2556306735379522,"21":0.0792187641993087,"22":-0.12544734446004296,"23":0.08205730984210818,"24":0.039116061061320505,"25":0.11243214788606586,"26":0.10439497492827038,"27":-0.043083601245919007,"28":-0.2179683952214614,"29":0.02939168359568388,"30":0.18668495958615355,"31":-0.15094952944030135,"32":0.0568782660352166,"33":0.0951199345622484,"34":-0.022104632641026425,"35":0.05074336262190992,"36":0.04194951929724059,"37":0.12222742029199295,"38":-0.31454430933734173,"39":-0.04257016301426271,"40":-0.2098595869969742,"41":0.011351182568480717,"42":0.13535018626424333,"43":0.131654958152065,"44":-0.2487297515876236,"45":0.017502073676359833,"46":-0.0643773937547223,"47":0.10048953172836103,"48":0.1341368362472532,"49":-0.1398926210091292,"50":0.014077952045764147,"51":-0.02457466558300525,"52":-0.1687323236702331,"53":-0.04936786711608482,"54":-0.013707759178129539,"55":-0.008328355003916092,"56":0.023190053214740578,"57":0.05368074234132302,"58":-0.15537769360493145,"59":-0.05594305795206781,"60":-0.15950379249998928,"61":-0.0865647763476901,"62":-0.029158967154890632,"63":0.06365174501070545,"64":-0.03572530825409221,"65":-0.05355631104389909,"66":-0.13768560495720514,"67":0.026443031874252263,"68":0.025612086166332957,"69":-0.08742160925549759,"70":0.08294676304674693,"71":-0.022448241255859373,"72":-0.21847507249421458,"73":-0.05646827518308204,"74":0.09181459124224077}},{"sx":5,"sy":5,"depth":3,"w":{"0":0.07709894137137695,"1":0.05693879048000233,"2":0.02700287074138393,"3":-0.12857397086775504,"4":0.06708336017867729,"5":0.004289805469125553,"6":-0.028174591898319164,"7":-0.06989181668224413,"8":0.19174552190321253,"9":-0.03524528979813669,"10":0.04464945871923941,"11":-0.07665456061483568,"12":0.00023615799004242334,"13":-0.13631013321003804,"14":-0.0877351720884279,"15":0.019546482817313655,"16":0.0465885698218892,"17":-0.15282018747417309,"18":0.03964808523764038,"19":0.016563146440012264,"20":0.06722127824578315,"21":-0.007496886427668178,"22":-0.15342647141983012,"23":0.019282148446980816,"24":0.015271425065921093,"25":0.04708191806200961,"26":-0.19647940974894615,"27":0.0923376723252374,"28":0.025752679234009864,"29":0.0695785507674898,"30":0.05220425449045326,"31":-0.019375490768001727,"32":-0.07238547857536774,"33":0.10498857455727681,"34":-0.21244682675412369,"35":0.18301968741113644,"36":0.06846670096235657,"37":-0.18555096317914743,"38":0.03654176783737895,"39":-0.03227717883730818,"40":0.014591176982760006,"41":0.08830580315300157,"42":0.013527740994177823,"43":0.09320166513998365,"44":0.12867054800535757,"45":-0.11713376011386906,"46":0.16081862818366255,"47":-0.03321261167111225,"48":0.11892154371987103,"49":-0.1616124253493327,"50":0.04805303897219468,"51":0.06665406248009279,"52":-0.004850666722903617,"53":-0.10943542403121209,"54":-0.0027032396944289615,"55":0.12449468850621648,"56":-0.019752078737492594,"57":0.14187445683842612,"58":-0.15556938773088175,"59":0.041435304612868734,"60":0.19688286370344335,"61":-0.05451817305815224,"62":-0.08529450367326208,"63":-0.24489049615563185,"64":0.11743772990194946,"65":-0.2237530446353733,"66":-0.016854356004919007,"67":0.002864732776320011,"68":-0.07478220387309857,"69":0.04895477501769335,"70":0.3063846257959077,"71":-0.020366209769586766,"72":0.16927742165368181,"73":0.03366371630254605,"74":-0.2138170234133672}},{"sx":5,"sy":5,"depth":3,"w":{"0":-0.14964222546573142,"1":-0.14027595281598038,"2":0.19507179289928944,"3":0.07176977250686722,"4":-0.08580104657159567,"5":0.03800669917327567,"6":0.16470916691650542,"7":0.021366953582959872,"8":-0.09502133572908099,"9":0.031009107289003447,"10":-0.20679752701556267,"11":0.04758573257174592,"12":0.10107396634485365,"13":-0.030728671377053523,"14":-0.06840312515205986,"15":-0.08837558280016013,"16":0.18176932864537657,"17":0.04211555835918728,"18":0.08054463539130069,"19":-0.047209973482351,"20":-0.019110865490543454,"21":-0.10487437195323109,"22":-0.008500441986454102,"23":-0.007444462699177044,"24":-0.08695600949861507,"25":-0.09572429650935427,"26":-0.20711153219042117,"27":0.1474156651153502,"28":-0.04323053116060247,"29":-0.043050270948890405,"30":0.03980878694079003,"31":-0.06758302492886742,"32":-0.010747665029039507,"33":0.011406230070086723,"34":-0.0018719208054781532,"35":-0.04241826497594847,"36":0.14668768168495175,"37":-0.06861032188544815,"38":-0.10273802340465761,"39":0.05463961995399382,"40":-0.08741798777116956,"41":0.10980499221593855,"42":0.07010611859075838,"43":-0.0566224547635663,"44":0.006984469083022071,"45":0.030524830815344434,"46":-0.07754462005256421,"47":-0.015918327011901025,"48":0.07473316093687578,"49":-0.14483429028887904,"50":0.13348136435632746,"51":-0.25742663969849244,"52":-0.021662940984072412,"53":0.011212961034687231,"54":-0.14216692263869443,"55":0.0924178492768334,"56":0.03381668050080998,"57":-0.10936085384112029,"58":-0.14155518819134072,"59":-0.04675602322797187,"60":0.0022570566901094556,"61":0.04944736581450147,"62":-0.02895152373870609,"63":-0.1352125586556416,"64":-0.030099722780543615,"65":0.10462544710984577,"66":-0.01422728059115825,"67":0.250979591116369,"68":-0.1376173342121078,"69":0.035855532687700954,"70":0.09933307587143436,"71":-0.06856922806182808,"72":0.024098308875021443,"73":-0.059656751766890885,"74":-0.04174731233670466}},{"sx":5,"sy":5,"depth":3,"w":{"0":0.0080108252253874,"1":-0.08051685408566885,"2":0.06955735689896983,"3":-0.08900749155535313,"4":-0.03630691400247218,"5":-0.008993397801694638,"6":-0.021754597436688505,"7":-0.11258406819059703,"8":-0.14441488452297757,"9":-0.016931961241628855,"10":0.02498817606036577,"11":0.03260580663915793,"12":-0.06432466796647737,"13":0.0027890792446485157,"14":0.3043128807645685,"15":0.17498812524498564,"16":0.11249143354909544,"17":-0.10424844856923735,"18":0.040601900663431535,"19":-0.010568556617473976,"20":0.058206490910416395,"21":0.15665234814987317,"22":0.022609898231215113,"23":0.009749394636946426,"24":-0.051336037013155936,"25":-0.11513258104116612,"26":0.05816179261013242,"27":-0.11281096392002125,"28":0.000491028341838954,"29":0.004229540387141134,"30":0.11708245970224017,"31":-0.01358926675159614,"32":0.06620332809001811,"33":0.02268732489341021,"34":0.010288806819660216,"35":0.04132219368671841,"36":-0.3626955710028977,"37":0.034814071598523455,"38":0.008016538923075649,"39":-0.0021238789740425194,"40":0.12364600891604278,"41":0.21405685408274314,"42":0.07388574990624841,"43":-0.09990807618990521,"44":0.01650962982790162,"45":0.16059735542874073,"46":0.026119321588114773,"47":0.0031652628205659293,"48":0.04783855909847954,"49":-0.08669274048888219,"50":0.0950719502167787,"51":0.09373225499729368,"52":0.026143232593957955,"53":-0.004765030359197182,"54":0.011521227317765404,"55":0.18452415255533156,"56":-0.019216526750796332,"57":-0.07108297794717604,"58":0.10510385331045217,"59":0.07172985844373028,"60":-0.023291640744573947,"61":0.12838438288655613,"62":0.11154957317976763,"63":-0.13987365947988653,"64":-0.012746416968135797,"65":0.14714324355394187,"66":0.08971929232250972,"67":-0.13097659421597443,"68":0.1910244598891906,"69":-0.04324068582081068,"70":0.19793265641312507,"71":0.06856100151232991,"72":-0.25171525755758273,"73":-0.2196705727144562,"74":-0.05269852198380647}},{"sx":5,"sy":5,"depth":3,"w":{"0":-0.22081261824955137,"1":0.05891093467042616,"2":0.11090349399184908,"3":-0.003294974144683372,"4":-0.06260859885741386,"5":0.07205750577168138,"6":-0.05249399539586077,"7":-0.08021651326377197,"8":-0.08745773109577352,"9":-0.02160613439918073,"10":-0.22461210668199086,"11":-0.006120677433396298,"12":-0.03193613481385019,"13":-0.1860884174257621,"14":-0.06554918348309845,"15":0.27387514836559684,"16":0.16051877887003801,"17":-0.08775116455615022,"18":-0.10617695259127809,"19":-0.17857470992323385,"20":-0.02319556877665773,"21":0.001307286127076452,"22":0.1345588987704772,"23":-0.16821342293461447,"24":0.1340839818777723,"25":-0.0630141905818346,"26":-0.035345555728885605,"27":0.03257128204309078,"28":0.15010363694477788,"29":-0.043189593666940584,"30":-0.11514387729857144,"31":0.0532109761867332,"32":-0.10917820861855847,"33":-0.0347765137017721,"34":0.032210410135065516,"35":0.013162109795912988,"36":-0.15548350634623934,"37":0.07935169856756188,"38":0.08984025704507213,"39":0.18052184538897295,"40":-0.08318507839646498,"41":0.15068886095415596,"42":0.04445861022399452,"43":-0.16639214958105772,"44":0.029905277006371786,"45":-0.10143034313419794,"46":-0.10900601615531119,"47":-0.06658426749736567,"48":-0.00508941092284227,"49":-0.069173645214722,"50":0.10069006665392179,"51":0.05030269322602604,"52":0.05647355259195353,"53":-0.07148654444178608,"54":-0.1035113612404639,"55":-0.05305027294878774,"56":-0.06545389694645061,"57":0.241027677164449,"58":-0.0010316887186283099,"59":-0.06636803042235558,"60":0.02212433559282679,"61":0.1111766546679354,"62":0.10863426012910114,"63":-0.0162781872210523,"64":0.07752744923513495,"65":-0.12491701847632568,"66":0.06865514662663745,"67":0.02225065604298171,"68":-0.132291963939654,"69":0.12036151208016427,"70":-0.007095501790028784,"71":-0.11139466108604157,"72":-0.1008405767161369,"73":0.02216063757496064,"74":0.09330152056997952}},{"sx":5,"sy":5,"depth":3,"w":{"0":-0.2248954110837112,"1":0.07512810231335995,"2":0.21532365165477046,"3":-0.06362360961405623,"4":0.1917266150669481,"5":0.05799525725231709,"6":-0.09262707876896283,"7":-0.03061105154702435,"8":0.05671814469745101,"9":-0.12256792062295137,"10":0.052727499300526046,"11":-0.10936182686945897,"12":-0.14680302007542745,"13":-0.0003431313175083807,"14":-0.05733531163982549,"15":0.16434531747109696,"16":-0.07626944292605678,"17":-0.1497653158890611,"18":0.17762700354061048,"19":0.019049666274584005,"20":-0.018911455907599725,"21":-0.02390574123284525,"22":0.14252947795449816,"23":-0.150041292058098,"24":-0.18010593594975205,"25":-0.11636254279454679,"26":0.07589832234950082,"27":0.03047939093841971,"28":0.04524308476250833,"29":0.08992007812923823,"30":0.0005373750733375865,"31":-0.23014138282864383,"32":-0.13327007280262224,"33":0.1281294136704103,"34":-0.15297763368203,"35":-0.08542038262791503,"36":0.08080611498139992,"37":0.007085493527856308,"38":-0.10249645248632658,"39":0.16547420240269073,"40":-0.15094102596616335,"41":0.08483017007508219,"42":0.20250623546735375,"43":0.06355616062618805,"44":-0.059235331270191295,"45":0.03956619062707606,"46":0.09344091267925975,"47":-0.03238409466454265,"48":-0.04003565772163532,"49":0.005816183962010524,"50":0.0983601868961002,"51":-0.28048876562211833,"52":0.08366526329111464,"53":-0.017171059622238822,"54":0.2944122909682457,"55":-0.03018212277779513,"56":0.07256300475806136,"57":0.040877521759150326,"58":0.022817303520609757,"59":-0.0037159449684968865,"60":-0.04525929232035942,"61":0.01568793996376622,"62":-0.2704641384756079,"63":0.07267941558433905,"64":-0.011871615406816787,"65":0.1450467166286636,"66":0.1694755773485184,"67":0.17442524198863668,"68":-0.036666816400950736,"69":0.1292949576585967,"70":0.05720367942120561,"71":0.023758276555550285,"72":0.02088779730897874,"73":-0.15674951086467406,"74":0.04837592145507479}},{"sx":5,"sy":5,"depth":3,"w":{"0":-0.051028118842588725,"1":0.12549678093360356,"2":0.11590190823831366,"3":0.16053342949061872,"4":0.025251604885950442,"5":0.028813052865492066,"6":0.0912808050654273,"7":0.07114815975116773,"8":-0.06979050640618976,"9":-0.13362310886430748,"10":0.07689318770168117,"11":0.10438969219251197,"12":0.10086997959146499,"13":0.15759216604383325,"14":-0.2016778493686926,"15":-0.16311749736942804,"16":0.007393691731193689,"17":0.04528151933016192,"18":0.05527579825014242,"19":-0.09997826019625483,"20":-0.07114277195301269,"21":0.08458352947115289,"22":0.13153963002532995,"23":0.02228350112833793,"24":-0.13173850126833003,"25":-0.20028376287794725,"26":-0.14341884622948628,"27":0.04955908263088702,"28":-0.0016823438477119256,"29":0.01528157946193591,"30":0.20084520863159738,"31":0.009486602025790814,"32":0.06800447436942346,"33":-0.0033801781680640615,"34":0.18665881941212964,"35":0.1373925866468785,"36":-0.01387527001277031,"37":0.13100756918180625,"38":0.07666701103665766,"39":0.05859291476671794,"40":0.1141120849099469,"41":0.05164901719995765,"42":0.06942639160820605,"43":-0.05678584346868617,"44":-0.2798845211672653,"45":-0.06493057625252184,"46":0.11981309687019295,"47":-0.24084413113597217,"48":0.024076065474678398,"49":0.21838988455106892,"50":-0.19826307365957938,"51":0.24303333225880672,"52":0.16157681385119416,"53":0.13153004446019115,"54":-0.01499778603579377,"55":0.13879373045970847,"56":-0.024603971847938038,"57":0.17653647501177072,"58":-0.026892560063128696,"59":-0.04615741378845656,"60":0.05018193085142461,"61":0.1288193201393794,"62":0.011256390558458706,"63":0.10781205914272547,"64":0.04929828913212756,"65":0.14810584621632109,"66":0.011277834151774668,"67":-0.2540903006646405,"68":-0.008715397630870153,"69":-0.2658152255689906,"70":0.11950577526630593,"71":0.13900614762639077,"72":-0.10328765060993271,"73":0.0043416690183203915,"74":-0.0869260928268593}},{"sx":5,"sy":5,"depth":3,"w":{"0":-0.020036371780317273,"1":0.15104863708084454,"2":0.007260822405805823,"3":-0.12288997275162238,"4":-0.16731375339406052,"5":0.04154251269086588,"6":0.019318489524577646,"7":0.08452117034404845,"8":-0.10649546389699627,"9":0.04074836615054639,"10":-0.07692892002973811,"11":0.21148166594415338,"12":0.13506216909748747,"13":0.0428582330080379,"14":0.04576590814445386,"15":0.09088044004430075,"16":-0.06453598932405852,"17":-0.054602903288901446,"18":0.020618152118053578,"19":0.07459021954884137,"20":0.15960748728450486,"21":0.06961478901921894,"22":-0.09890236893664843,"23":-0.029089618845852896,"24":-0.11080037475514688,"25":0.0011096836343056637,"26":0.02315229613979763,"27":0.031573015978176494,"28":0.13786694404321198,"29":-0.13301977853434474,"30":0.08764314702380384,"31":-0.16911921785447445,"32":-0.15544708840614235,"33":0.21087310896700356,"34":-0.17284550818542346,"35":-0.14626267533326795,"36":-0.022439182610349065,"37":0.08609314436361148,"38":-0.058874383798727344,"39":0.09569741390372681,"40":0.13501606043398431,"41":0.006025646494669138,"42":0.06944263350440594,"43":0.08671082832935734,"44":-0.22549558246851445,"45":0.2006782151588338,"46":-0.07817861293740576,"47":-0.10078006907504353,"48":0.03717863531707906,"49":-0.07603320093943444,"50":-0.14145650165692045,"51":-0.1338383154519341,"52":-0.1098945840122309,"53":-0.09547483859937052,"54":0.0871293649306627,"55":-0.04607460009629247,"56":-0.0811259978318966,"57":0.08972875192841175,"58":-0.2010560441565849,"59":-0.06958958320811144,"60":-0.06903801378142294,"61":0.011495084758413245,"62":-0.05416517961809415,"63":0.10892018363856715,"64":-0.003460899450641585,"65":0.10194756661381654,"66":0.0667349815775668,"67":0.06126815499814749,"68":-0.14384659639085695,"69":-0.07216255615410834,"70":0.030334746152826837,"71":0.0939115655451847,"72":0.126790639346962,"73":0.1220724628223139,"74":-0.17228652446580858}},{"sx":5,"sy":5,"depth":3,"w":{"0":-0.00004275785512863287,"1":0.05101950574972412,"2":0.060693659787207845,"3":-0.038573778541933126,"4":-0.028997545078852424,"5":0.008296205507184115,"6":0.20580736723125034,"7":0.0461466544000866,"8":-0.013181538396105216,"9":-0.04377159381626371,"10":0.09691039552178055,"11":0.18847472004007948,"12":0.030237981017161176,"13":-0.17761895739243094,"14":0.08222514851224,"15":-0.08003724854495753,"16":0.09303833143924516,"17":-0.021044637149505444,"18":0.30448273089004807,"19":-0.02791843354045235,"20":0.10108980835619596,"21":0.023711349315842914,"22":-0.18383216821910942,"23":0.0949364993481166,"24":-0.005612131434513229,"25":-0.2638791621707331,"26":0.14281293839100814,"27":-0.020381389547400233,"28":-0.056722943170446544,"29":-0.02258450860810349,"30":0.03839233371624955,"31":-0.12966663545264873,"32":0.15445953643075927,"33":0.09521909418595087,"34":0.04741475863543927,"35":-0.20347655035936119,"36":-0.039777549435969825,"37":0.0599912227985022,"38":-0.03861260291407586,"39":0.051276248169030175,"40":0.10520581927739293,"41":0.007097808127019385,"42":-0.1378369228923798,"43":0.09888885610328323,"44":-0.06544698615793731,"45":0.07789992655087578,"46":-0.05312257043719442,"47":0.0025657851999408964,"48":-0.0059253302392515,"49":-0.1143916135795771,"50":-0.11988634233656849,"51":-0.11417043995158405,"52":0.3919655361926112,"53":0.02104808881051082,"54":0.13549333514969852,"55":-0.08265764695941862,"56":0.15589903376590733,"57":-0.08697452765681693,"58":-0.1290343337965544,"59":0.08834974775785887,"60":0.2291591290534814,"61":0.02391178271970476,"62":-0.1143514248961302,"63":-0.08632763068313805,"64":-0.10186452733567312,"65":0.016296582208148665,"66":0.03430340039356039,"67":0.3381957503537198,"68":-0.04899712258361543,"69":0.058473261868049735,"70":-0.024998164327575182,"71":-0.043086330829372764,"72":0.011684578280624403,"73":-0.10772092803136969,"74":0.022136041406765797}},{"sx":5,"sy":5,"depth":3,"w":{"0":0.02014959502679942,"1":-0.16165539755523986,"2":0.11545962477558463,"3":-0.09207288484412225,"4":-0.058800836181426876,"5":-0.093399107689765,"6":-0.07384470806713332,"7":0.05769905262813778,"8":0.11966580059966272,"9":-0.06055301037443546,"10":-0.11122626045292831,"11":-0.047377650432168385,"12":0.2350086480655012,"13":0.10583051484578271,"14":-0.12396883254581781,"15":0.12382340457769651,"16":-0.17460483205348296,"17":-0.08934902557052099,"18":-0.011688655294851639,"19":0.23005871852822263,"20":0.014003930634757156,"21":-0.03202429390609712,"22":0.18465630410083772,"23":-0.07562974934950768,"24":0.018677992876326825,"25":0.002276937942677442,"26":0.07522968640893396,"27":-0.045187600209888205,"28":0.13649265636180255,"29":-0.00429506020733064,"30":0.20012335408888068,"31":-0.13755913720782428,"32":-0.18756607630144712,"33":0.047846768267945296,"34":0.11476198338216793,"35":0.04662225759969076,"36":0.01182749734570465,"37":-0.03057133427539009,"38":0.015452415176117168,"39":-0.06610520462125424,"40":-0.15636838880620807,"41":0.01334083205408104,"42":-0.006704800355279745,"43":0.12947339607599656,"44":0.41835619083265885,"45":-0.02337450747000062,"46":-0.15319811039983813,"47":0.16155108524127115,"48":0.03259255810163292,"49":0.0032774071421115274,"50":0.03326168091150695,"51":0.04086555679793086,"52":0.04481440385331771,"53":0.006238022695124429,"54":-0.09544612425627712,"55":0.028920893818835315,"56":0.04653904824818026,"57":0.07073515110409312,"58":-0.07095442517014343,"59":-0.19466838534646608,"60":-0.00694410218457003,"61":-0.05312986722582467,"62":-0.06761302144015516,"63":0.05889442602702695,"64":-0.0756282954021492,"65":-0.022441260200771505,"66":0.0059990697375280145,"67":0.28558639550835674,"68":-0.07202761818848998,"69":-0.007174952717886436,"70":0.1599737252444736,"71":-0.014613383778898745,"72":-0.07599703849114982,"73":0.03753035958791062,"74":0.08284605677463533}},{"sx":5,"sy":5,"depth":3,"w":{"0":-0.05465530990018104,"1":-0.14052970662955738,"2":0.11834366166948122,"3":-0.051726183222986354,"4":0.020615474029895595,"5":-0.1602466377629289,"6":-0.02281300100139167,"7":0.10954873118980327,"8":-0.06110847912931692,"9":0.08687980886367616,"10":0.05409907076660454,"11":-0.07151624670624804,"12":-0.0820560037148468,"13":0.05286591999759724,"14":0.0596856531842151,"15":0.030279489350775873,"16":0.18231826621220468,"17":0.15552619530811013,"18":-0.03468361921930945,"19":-0.018950241638037844,"20":-0.06051600160814457,"21":-0.057140612977549896,"22":-0.15782976503627572,"23":-0.13482321507592843,"24":0.07298711101614337,"25":0.09520068989750384,"26":-0.0805029841306209,"27":-0.12839499463120868,"28":-0.11908001009441498,"29":-0.03946938326200303,"30":0.07021018505609758,"31":-0.2810672559814997,"32":-0.009064535575944267,"33":-0.18312843860628417,"34":0.006905573447396849,"35":0.00895375514661642,"36":-0.12528271125146992,"37":-0.038821592867190016,"38":-0.19230458474332823,"39":-0.0033930614570251297,"40":0.06348860645710418,"41":0.038567208515267015,"42":-0.1667790603885641,"43":-0.12767460412425682,"44":0.07725748874857187,"45":-0.17334834768155663,"46":0.07641909529220049,"47":-0.11413661417129825,"48":-0.033342907169667396,"49":0.01412962219623166,"50":0.12662844324748354,"51":-0.028517064493415466,"52":0.1267201904761647,"53":0.04088396077451588,"54":0.03699219599858613,"55":0.14159214319213198,"56":-0.08376287177737775,"57":0.1536241011467417,"58":-0.06514159414333183,"59":0.03081580042245836,"60":-0.00425423861567441,"61":0.005099424861079021,"62":-0.032600857390823246,"63":-0.06106244185696926,"64":0.1300339872298464,"65":-0.018876577749059095,"66":-0.13440980348886225,"67":0.027844417399556638,"68":-0.03078296430175897,"69":-0.10361280501927837,"70":0.01794807020755364,"71":0.13269866896138482,"72":0.04221409203915702,"73":-0.06967875743972475,"74":-0.031070301363725794}},{"sx":5,"sy":5,"depth":3,"w":{"0":0.13933418775571538,"1":-0.041134011375110864,"2":0.11772713838214179,"3":-0.02417111254243454,"4":0.10764233858555214,"5":0.04704482322153436,"6":0.14521659031417394,"7":-0.036887770842703484,"8":-0.14860120393183573,"9":0.1260713738796348,"10":-0.015383747875595637,"11":-0.20107115095810732,"12":-0.08124622334942581,"13":-0.17677326191653864,"14":0.06760733355999704,"15":-0.1275493134354031,"16":0.11728771675175594,"17":0.03714180184589476,"18":0.02794514337430143,"19":0.13400125956991968,"20":0.1459992663785582,"21":-0.012404091524741893,"22":-0.031728486570537597,"23":0.12012647596573833,"24":0.06745465957034996,"25":-0.007744453653513297,"26":0.09023793934035756,"27":0.06970240108193429,"28":-0.17081446862217547,"29":-0.06712018622344286,"30":0.07004321061270027,"31":-0.0017406618962674265,"32":-0.18354351842669087,"33":0.04232358945692795,"34":0.05742370180620677,"35":-0.16343762378667318,"36":-0.019871447259990946,"37":-0.010557376834543712,"38":-0.031092128322683855,"39":-0.17571087635012358,"40":0.31004562673824776,"41":0.018257460293394007,"42":-0.12782446276587486,"43":0.007494804153160272,"44":-0.2210976476044557,"45":0.1548625412643606,"46":0.01717815270382751,"47":0.16907469591732538,"48":0.001110839749169537,"49":0.014634944524331846,"50":-0.2937430107529998,"51":0.1538810401317457,"52":0.14828083617841167,"53":-0.061414428907957876,"54":0.20090635443592997,"55":0.20561797445401048,"56":0.0740629750346335,"57":0.024497830709337483,"58":-0.10598796551670302,"59":-0.006576844518455943,"60":-0.12306432116831426,"61":-0.08502727759302275,"62":0.04515990303113426,"63":-0.2508160648362237,"64":-0.051564818492342415,"65":-0.22162972387295324,"66":-0.08093064563633848,"67":-0.06570380429640349,"68":-0.09142642868844718,"69":-0.031776537523585446,"70":0.07774568357764566,"71":-0.07410782606605154,"72":0.1478552847579415,"73":-0.23671345250262618,"74":-0.0017460232165169708}}],"biases":{"sx":1,"sy":1,"depth":16,"w":{"0":0.09754572212566552,"1":0.09062547661600893,"2":0.09460150967683588,"3":0.08545742625307232,"4":0.0942050631775978,"5":0.0696843345281334,"6":0.10854689315686519,"7":0.08957022648322667,"8":0.08943559771643446,"9":0.08435036483078082,"10":0.08412757104734624,"11":0.1063597268065894,"12":0.08700665632470173,"13":0.09595443254989888,"14":0.09285228299156988,"15":0.09401333788311945}}},{"out_depth":16,"out_sx":32,"out_sy":32,"layer_type":"relu"},{"sx":2,"sy":2,"stride":2,"in_depth":16,"out_depth":16,"out_sx":16,"out_sy":16,"layer_type":"pool","pad":0},{"sx":5,"sy":5,"stride":1,"in_depth":16,"out_depth":20,"out_sx":16,"out_sy":16,"layer_type":"conv","l1_decay_mul":0,"l2_decay_mul":1,"pad":2,"filters":[{"sx":5,"sy":5,"depth":16,"w":{"0":-0.014884359420016813,"1":0.07995109323770841,"2":0.03364772795400654,"3":-0.03620469467913384,"4":-0.032770948227707694,"5":0.0002580190374333774,"6":-0.005270436310415444,"7":-0.05763839788674385,"8":-0.004346835318100435,"9":-0.03903299253976404,"10":0.03601836818359637,"11":0.054333094331983904,"12":-0.0849469132001689,"13":0.003381532181756632,"14":0.014744147609996212,"15":0.054746348536271236,"16":0.051181894996823,"17":0.030754280556293378,"18":-0.0015305874651289262,"19":-0.09298033892768147,"20":0.0009303276466276572,"21":-0.06479411752620937,"22":-0.037727730064882184,"23":-0.024781291457018222,"24":0.0079482509148429,"25":0.06578755968069376,"26":0.0485245695349639,"27":-0.11974540222105172,"28":0.05310428474960629,"29":0.01874808308334818,"30":-0.0370479312071137,"31":-0.02623436539240137,"32":-0.01704786318231806,"33":-0.06001168297395591,"34":-0.024074659056601392,"35":0.07538751241154328,"36":-0.009756204826204547,"37":-0.06293766746859866,"38":-0.026144351543695474,"39":-0.0004482070239081859,"40":0.02498960925077837,"41":0.018325995095911738,"42":0.01557721415499492,"43":-0.062114630061918225,"44":0.05882217875215761,"45":-0.047361136268548515,"46":-0.0388984940896034,"47":0.03751261878676225,"48":0.049108988053581756,"49":0.06515086565272765,"50":-0.046301602797379084,"51":-0.08088728534794003,"52":0.029067031395929522,"53":-0.03158196902895691,"54":0.01592110405072244,"55":-0.019186690178832868,"56":0.05120506830894327,"57":-0.06755543416645224,"58":-0.03822074531926396,"59":-0.0984419988094338,"60":0.04065222625895886,"61":-0.04716650028671774,"62":-0.07078514160877813,"63":0.010065117565945487,"64":-0.0062424741330095205,"65":0.021235804138389394,"66":0.0398025428169124,"67":-0.004336173840186562,"68":-0.01974012547110136,"69":0.05527762667147077,"70":-0.0690442075440192,"71":-0.07962041756441324,"72":-0.03685079519329412,"73":0.06990237454029845,"74":0.021492563311062692,"75":-0.04501991286158787,"76":0.006548110488166653,"77":-0.10354990896390193,"78":-0.017829901515546354,"79":-0.03918209075551618,"80":-0.0380532409313132,"81":-0.040101085509071835,"82":-0.020724329094315652,"83":0.09544233809626847,"84":0.05749136442084646,"85":0.0003419323180029931,"86":0.012015615330372344,"87":0.000624540864167583,"88":-0.003932069742769126,"89":-0.0060073759105884455,"90":-0.055903030713670435,"91":-0.014800700488299273,"92":-0.012803845553328417,"93":0.016929818307177727,"94":-0.06707521445067406,"95":-0.04180252777455848,"96":0.07789931491109758,"97":-0.08402798124206498,"98":0.006469061142955014,"99":0.015021264711993807,"100":-0.031160242599132096,"101":0.02434938536596625,"102":-0.030143897247133525,"103":-0.13905300772949292,"104":-0.05437219718760699,"105":-0.05233888746547152,"106":-0.10900606914203562,"107":-0.06470395612755561,"108":0.0010456323293045896,"109":-0.11391905819852348,"110":0.02859919520101505,"111":-0.0075903910659359565,"112":-0.013195907527513685,"113":-0.013624730862545498,"114":-0.09672817647108907,"115":-0.06946281821747272,"116":-0.043411924759542204,"117":0.03822069999399367,"118":0.04608374936886367,"119":-0.01759679833461052,"120":-0.01258136246825918,"121":-0.04611105137043806,"122":0.03973369786529129,"123":-0.0017795440694765201,"124":0.03599115244214677,"125":0.03560540129315729,"126":-0.06486822649575089,"127":0.02978731453522249,"128":-0.01605921173837182,"129":-0.0381498734810444,"130":0.08571836718341147,"131":0.007069224565251468,"132":0.0020314901658867236,"133":0.053819583350378654,"134":0.08820806029412688,"135":-0.07205389731708015,"136":0.0636681635297881,"137":-0.05647687832506749,"138":0.035454109278165544,"139":-0.0470434402769198,"140":-0.03423170684567522,"141":0.034101316542051605,"142":-0.026862183832667492,"143":-0.024786234208413933,"144":-0.04507299434877615,"145":-0.0005142835863121172,"146":-0.021730233150757675,"147":-0.04222607837175885,"148":0.04291450156654772,"149":-0.07075580161463547,"150":-0.02550458648765078,"151":-0.00929361856498507,"152":-0.03512555813888957,"153":-0.00989165626464389,"154":0.09710778971249012,"155":-0.045951374807354756,"156":-0.05557763041715691,"157":-0.022938655708464206,"158":-0.04679885494254078,"159":-0.05070053918170556,"160":0.02661266995805082,"161":-0.027778171994504136,"162":0.14369907165378895,"163":0.0770964228955764,"164":0.06162875151724947,"165":-0.060778825452333325,"166":0.023488606376357475,"167":0.00439062783847591,"168":0.0005838265105147442,"169":-0.03814613946842636,"170":0.05966295595229549,"171":-0.02470219570426748,"172":0.003472501115252927,"173":0.024462064805490187,"174":0.037951502580018205,"175":-0.00997695734223182,"176":-0.018974670985008827,"177":0.025828856110281014,"178":-0.02628742958735156,"179":0.017439914856980387,"180":-0.11363563549399154,"181":0.014081522323608878,"182":-0.004861763940004232,"183":-0.023681331950611038,"184":0.060383107838655886,"185":-0.009570511538726878,"186":-0.033984164743806396,"187":-0.007715656994752157,"188":0.022429802035266348,"189":-0.004340719273742206,"190":0.032902974566954915,"191":0.006268941517849067,"192":0.07324546758656962,"193":-0.019926384747079647,"194":-0.02116558595056726,"195":-0.027763306167204738,"196":0.04515112441860034,"197":-0.004675236954172667,"198":-0.04271443389105138,"199":0.04358041766614044,"200":0.011040203872338856,"201":-0.02641399280411297,"202":0.016610066139626827,"203":-0.07916986195014958,"204":0.004526075499778574,"205":0.022410776861528932,"206":-0.0020041347556248226,"207":-0.020346345185038167,"208":-0.09402310123990723,"209":-0.04218776188673032,"210":-0.05056010324200384,"211":0.030185760610989314,"212":-0.065909475134379,"213":-0.05361753021042365,"214":-0.01263573663060205,"215":0.07440756242997355,"216":-0.0656829142183508,"217":-0.017127227882557466,"218":0.040622067783031186,"219":0.037096378940629754,"220":0.03036898687816815,"221":-0.04371720520681333,"222":-0.05352693502380888,"223":-0.0913662401841087,"224":-0.006015846098496735,"225":-0.1243439380563576,"226":-0.01994280099943987,"227":0.12489053204645076,"228":-0.13781928272703417,"229":0.01943754211166973,"230":-0.05841141213955485,"231":-0.045955249182068864,"232":-0.02704615788166622,"233":-0.04981790929861622,"234":0.004494877277060211,"235":0.02905713221644522,"236":-0.07729649535223788,"237":-0.007342694188286963,"238":-0.020267731731252004,"239":-0.06679477249707991,"240":-0.003003605125399808,"241":-0.03100103023398636,"242":0.023116490399457467,"243":0.011889437370070751,"244":-0.025350536589543907,"245":0.03807788780299982,"246":-0.07530292276179054,"247":-0.07489416315704783,"248":0.004436131082676462,"249":0.08956988222322053,"250":0.01380393593776157,"251":-0.05077321692522379,"252":-0.044380518956998086,"253":-0.020881054299349527,"254":0.013520921380113272,"255":0.03518093217029758,"256":-0.10550964751562529,"257":-0.027127447452615444,"258":-0.061768132088422814,"259":-0.04066728390079589,"260":-0.0010714841407460708,"261":0.0346706431061239,"262":0.02806670705301203,"263":-0.060653787765019784,"264":0.018758355348247203,"265":0.02128130537470215,"266":0.06900024142727132,"267":-0.02280136365084261,"268":0.028987552048080335,"269":-0.04358266114339708,"270":0.0030734327113886763,"271":-0.07172345314944698,"272":-0.03392227055966388,"273":-0.015267686522479005,"274":0.028592627442160057,"275":-0.03163751279379394,"276":0.006737153053880508,"277":-0.08495323449627688,"278":0.06890745297177173,"279":-0.05363096429225271,"280":-0.03789461709634589,"281":0.07839248380095319,"282":-0.0026530572745669685,"283":0.013753301198943493,"284":-0.02818202013767647,"285":0.04132763047247606,"286":-0.021756041003987217,"287":0.026501770617391833,"288":-0.06454342171558768,"289":-0.1222759251068952,"290":-0.013205528694064257,"291":0.056706671797195976,"292":-0.04094491288934672,"293":-0.053862378982135764,"294":-0.08127525722272051,"295":-0.03229345748063875,"296":-0.009785337402420848,"297":-0.02727344349112475,"298":-0.03654765819096144,"299":0.005446061105250402,"300":0.0582416342162499,"301":0.029237059668785915,"302":0.04607099146350061,"303":-0.06878809868196746,"304":0.058408684481041105,"305":0.013012709650859296,"306":0.006273458866416149,"307":-0.034129026040596665,"308":-0.040889476268387875,"309":-0.06094624597704786,"310":-0.003132753564395344,"311":-0.01568224308850754,"312":-0.010543553723886153,"313":0.13512127961654413,"314":0.03854726301503742,"315":-0.021898680701100025,"316":-0.049678954595589825,"317":-0.03783162545881776,"318":-0.010563112212304738,"319":-0.005395602488926817,"320":-0.022851398467696862,"321":0.022934909587184117,"322":-0.003220813762311722,"323":-0.004791212474644845,"324":-0.07041428792486465,"325":-0.07182985113206244,"326":-0.09911611348922929,"327":-0.05304222540515651,"328":0.03809221961582876,"329":0.015455384944424595,"330":-0.018000579106193605,"331":-0.021762830526361493,"332":0.006471978193981016,"333":0.05024860091026952,"334":0.0269291263607143,"335":-0.025002343259619596,"336":-0.05001085851817044,"337":0.01739853395451016,"338":0.05905954772559007,"339":-0.0077619683073268135,"340":-0.01201466531760696,"341":-0.040506663715195006,"342":0.016257387089862917,"343":0.03367862120435095,"344":0.00659317316603987,"345":0.051755723366166094,"346":0.07150445080903559,"347":0.049380437018646604,"348":-0.05087795021511062,"349":-0.004060373249953607,"350":-0.05491633558279209,"351":-0.0804378326652457,"352":-0.047487834168401924,"353":0.08696293330174219,"354":0.009264960574042105,"355":-0.007190252647580988,"356":-0.02153382907999383,"357":0.01974878685444572,"358":0.0005154191285590671,"359":-0.018179535410161762,"360":-0.005271615567741105,"361":-0.07008957990066202,"362":-0.018583917289069926,"363":-0.01046839699738239,"364":0.05288805057546131,"365":-0.043878365966550946,"366":-0.03535408857976582,"367":0.006112528664613989,"368":0.028743189787979045,"369":0.008545438877570527,"370":-0.06476198104810602,"371":-0.005435167442721283,"372":0.011280078153565912,"373":-0.07661254795209338,"374":0.08400775402146836,"375":-0.08455662829110998,"376":-0.06533489158701886,"377":-0.0029594895264885577,"378":-0.04363557203270937,"379":-0.007821407027459058,"380":0.012432773064210714,"381":0.008618424780589015,"382":-0.029055405665955682,"383":0.0505659671142634,"384":0.0015404315846648628,"385":-0.013125903034981333,"386":-0.004354173121142302,"387":0.04700915764199629,"388":0.021251740702583,"389":-0.005223711683042354,"390":-0.012139564174993603,"391":0.05638456250363933,"392":0.08436155294570294,"393":-0.047381118203473585,"394":0.009075538434697118,"395":-0.05060985350249465,"396":0.0076331067906556275,"397":0.1083726190318979,"398":-0.03219279102940908,"399":0.05106916992906873}},{"sx":5,"sy":5,"depth":16,"w":{"0":-0.009825224122047265,"1":0.055047004413743474,"2":0.06202699732257269,"3":-0.009663466389670926,"4":-0.04013809912212918,"5":-0.02561709785249932,"6":-0.02186561173157195,"7":0.024014667809879736,"8":-0.030781676818035005,"9":-0.11902984505958328,"10":-0.12243117584589132,"11":-0.023682018889670448,"12":-0.09208155746230477,"13":-0.05854690960898234,"14":-0.04525682947530704,"15":-0.03195988705920159,"16":0.033501223447092845,"17":-0.07224007531166823,"18":0.020515020847701754,"19":-0.09830795690279912,"20":0.056712983755787205,"21":-0.08867009973056733,"22":0.0031458735481658035,"23":0.01640664393574288,"24":-0.018302687802079533,"25":-0.00825910539057173,"26":-0.021460445726585505,"27":0.010096019398987697,"28":-0.048939239306372825,"29":-0.01344416479898577,"30":-0.025459942302410856,"31":0.08135095033623672,"32":-0.07484540744505778,"33":-0.020086938123891188,"34":-0.012287606531985996,"35":0.005311876633698755,"36":-0.00585638835141382,"37":0.016606597472395856,"38":-0.08842446202898985,"39":-0.03264157969582827,"40":0.07916183029777957,"41":0.018293448556783637,"42":-0.01989689711335696,"43":-0.030691449628407627,"44":-0.09255326051608255,"45":0.03084706929554154,"46":-0.08451585268175067,"47":0.09916635983691069,"48":-0.16436088718386288,"49":-0.019665409029874407,"50":-0.06956434557212028,"51":-0.0623686522183079,"52":-0.06759665211289113,"53":0.02893569646485034,"54":-0.021872992059136398,"55":-0.07807166822452784,"56":-0.008285355563880485,"57":0.06246410142250963,"58":0.0005257999998334057,"59":0.026634167581741183,"60":-0.012386732049220172,"61":0.11744767900635034,"62":-0.046176363866124344,"63":0.031069579276871536,"64":0.034717439520455216,"65":0.08239861607496722,"66":0.026050455158848844,"67":-0.004238932403549821,"68":-0.009331996678452132,"69":0.002995362267033256,"70":-0.04760979300120185,"71":-0.03372232283445545,"72":-0.02294379090359764,"73":-0.058600463141928634,"74":-0.06936566437254096,"75":0.03754484800706649,"76":0.029596199166188157,"77":-0.047702918098309434,"78":0.060674213549428,"79":0.019598994300532826,"80":0.08560826834580078,"81":0.030672029418294684,"82":-0.048796902440179694,"83":0.10393975517016285,"84":-0.05553550780449946,"85":0.048082589771707714,"86":0.023592925025365346,"87":-0.003842694694928573,"88":0.014956512947175144,"89":-0.024345123962197086,"90":0.02704270172225329,"91":-0.10632586323906847,"92":0.0146748782283761,"93":-0.04136601108564963,"94":0.02817748207162043,"95":0.03035743716958539,"96":-0.05063576776840208,"97":0.06432040827947394,"98":0.03303466922380948,"99":-0.03556863888689515,"100":0.029651384661976983,"101":0.07718223963755118,"102":-0.04182317366677567,"103":-0.004581869869632152,"104":0.059788071245856445,"105":0.0077796483415359914,"106":-0.025867233428351982,"107":-0.0770164230940505,"108":-0.023755801873448393,"109":0.051835573106500984,"110":0.05969146396113599,"111":0.07089932513718016,"112":0.0027028044524891764,"113":-0.06978155717679994,"114":-0.0036038941710718367,"115":-0.037729808440887816,"116":-0.10747627502740816,"117":0.04489635910819796,"118":-0.02012840931753427,"119":-0.0015500199023279068,"120":0.05459190710649543,"121":0.005115563710307913,"122":-0.027148183215812006,"123":-0.026205483656798246,"124":0.01966872655526073,"125":0.018104598157945812,"126":-0.05435603541216311,"127":-0.07503547398397975,"128":-0.09407409011804979,"129":-0.05487467566431196,"130":-0.054515044350332977,"131":-0.07347813557669873,"132":0.09187745317150064,"133":-0.01293883708518107,"134":0.00018908293704176761,"135":0.011740423501763641,"136":-0.021791167708966008,"137":0.04804287443598601,"138":-0.010704196636040868,"139":-0.021945705219310985,"140":-0.05809240576231524,"141":0.04317657455787911,"142":-0.07470968509413072,"143":0.020846895168459487,"144":-0.024147809835054223,"145":-0.020514134049350697,"146":-0.017609842348079083,"147":0.02667736178227171,"148":-0.02401502241023838,"149":0.019722531178124156,"150":0.015598410573828046,"151":-0.0007106885756208648,"152":0.011211936547953024,"153":-0.004920444239629575,"154":0.04064788016795242,"155":-0.1253735169162913,"156":-0.004499846844329943,"157":-0.07699740354497919,"158":0.09150973122701425,"159":0.04924235911844396,"160":-0.04418455443855354,"161":-0.055113263677967456,"162":0.01084439308389601,"163":-0.03348740938775529,"164":0.015162734325817662,"165":-0.04292862416171431,"166":0.02105416122953517,"167":0.01060261559456911,"168":-0.03406557845224832,"169":0.01628413802198035,"170":-0.06410570776524334,"171":-0.05441571137001106,"172":-0.05278076089871081,"173":-0.10797973954738084,"174":-0.07482753516385451,"175":0.06011195911795438,"176":0.09026406023342676,"177":0.008532090797519336,"178":0.004562598231826343,"179":0.08048831099060424,"180":-0.03965750097698126,"181":-0.04924102396983489,"182":0.0016799134808517812,"183":-0.06247186343104093,"184":-0.014536960445463553,"185":0.03630145948063571,"186":-0.0025565676553376314,"187":0.015999819968934962,"188":0.07778826446832575,"189":-0.000626873207811721,"190":0.03394169503523813,"191":0.02349521036991111,"192":-0.03286880881777557,"193":-0.005225940951383936,"194":-0.057484742731412936,"195":-0.0399558940739728,"196":0.014863905988543327,"197":-0.04252713787876131,"198":-0.00005774331037566549,"199":-0.12325739883715947,"200":-0.014582326980420285,"201":-0.051761505487947224,"202":0.0023624811399546187,"203":0.017341638333458382,"204":0.0004708763498288159,"205":0.0005253767276875704,"206":-0.03614622876550719,"207":-0.09687046621343154,"208":0.056837154756282954,"209":0.010186790216141968,"210":-0.02137594630972106,"211":0.046927245674369705,"212":-0.06323772169334216,"213":0.054484220485027594,"214":-0.027842992445065346,"215":0.050786529222872946,"216":-0.05965403021480667,"217":-0.005030398055118232,"218":0.04245182210767592,"219":0.014287027854092242,"220":-0.06220475332303569,"221":-0.04787479597272712,"222":0.028817891143625624,"223":0.0313762424286113,"224":-0.0026072678950431706,"225":0.14252500538093338,"226":0.012264755301793481,"227":-0.06279603472850318,"228":0.07969990827649086,"229":0.02915023795036914,"230":0.029931537837702155,"231":-0.07082544388649585,"232":0.019926863477919866,"233":0.027351903433211075,"234":-0.10094192341763902,"235":-0.02959878191431121,"236":0.04902542805960024,"237":0.02870230411753591,"238":-0.01806857455991748,"239":0.08434190894342025,"240":-0.05777292690743904,"241":0.02437148374300556,"242":-0.03542207730635226,"243":-0.04827160923314365,"244":0.01548395429562356,"245":-0.0021151886800535647,"246":0.018622959297411045,"247":0.04393987136435562,"248":-0.04776239657623623,"249":-0.0115728556961784,"250":-0.07488023741088135,"251":-0.023616536219747547,"252":-0.07009208722161744,"253":0.03842705131287892,"254":-0.0621375455515464,"255":-0.009954660702488082,"256":0.030127969385544583,"257":-0.00011598961606502407,"258":-0.04642303113093728,"259":-0.10474692926301543,"260":-0.07168567737839818,"261":0.012913794800191971,"262":-0.07539267669937835,"263":-0.049958306529349746,"264":-0.022428407310531175,"265":0.04626703543788152,"266":-0.011610942885949991,"267":-0.008786558480830474,"268":-0.054335456827116345,"269":-0.08449418275906445,"270":-0.02347099138482491,"271":-0.08682517283155738,"272":0.02824082246509077,"273":0.015242092498602557,"274":-0.10413135074202104,"275":0.005071375248273178,"276":0.0037188497184671,"277":0.01849078387944896,"278":-0.09656369431574932,"279":-0.08999667231796483,"280":0.05836765137219545,"281":-0.06414765008047979,"282":0.09556447204010042,"283":-0.013478341550692627,"284":0.05730522984871972,"285":0.055743261895430746,"286":-0.024044738435055536,"287":0.006577722714311926,"288":0.07388069393387674,"289":-0.051308481816653206,"290":0.0005437997044744207,"291":-0.02386557952479313,"292":0.06744899104133698,"293":-0.02229675748520805,"294":-0.019199966089678788,"295":-0.029229956030798667,"296":-0.07939651946316488,"297":0.013210734105115855,"298":0.04244542416853226,"299":-0.039155657304568804,"300":0.017027519735599426,"301":-0.04373322681806413,"302":-0.019918527784708307,"303":-0.04527553649876956,"304":0.007457819406148022,"305":0.017816508064223757,"306":-0.006085878977976305,"307":-0.04221158608240113,"308":-0.007995511235021666,"309":0.04274341705279139,"310":-0.07222835045107809,"311":-0.022394472620269085,"312":-0.06811198033723073,"313":0.017279079429117324,"314":-0.04828839011319248,"315":0.02247085723855367,"316":-0.034739946026778754,"317":-0.04613484986232976,"318":-0.007950659363738401,"319":0.06677941766855902,"320":-0.0035491306475360146,"321":-0.0007810966640158152,"322":-0.11151884819812173,"323":-0.020195056695570975,"324":-0.0415686355278783,"325":-0.04771397877831694,"326":-0.045265964640246494,"327":-0.05055944369601034,"328":0.00500509846017644,"329":-0.07021662802167726,"330":0.03031496764804295,"331":0.07276758109353039,"332":-0.015694278212057624,"333":0.036242039197986145,"334":-0.02621802072486735,"335":-0.0552040760182524,"336":0.06578903664387124,"337":-0.0656240554046443,"338":0.04359001178978096,"339":0.010556282447829609,"340":-0.01058572472656076,"341":0.05889548380115251,"342":0.01093600688155245,"343":0.020675675839140227,"344":0.0004256236897498199,"345":-0.0010601877761399964,"346":-0.013109292002731665,"347":-0.014550710517812638,"348":0.05400485353235536,"349":0.057690681863231334,"350":-0.10465436708450798,"351":-0.009606504122612885,"352":0.002718010911382673,"353":-0.004345013213868061,"354":-0.05710468671362806,"355":-0.025206705099718334,"356":0.028694988164331636,"357":0.05256035123960094,"358":0.015042805007802532,"359":-0.060706934835919234,"360":0.04032456987270332,"361":-0.037915315998568386,"362":-0.0032007505647871767,"363":0.015106606973043607,"364":0.06236841776940689,"365":0.014630643943013149,"366":-0.00034717422420966625,"367":0.035221751166069855,"368":-0.06784374313031115,"369":-0.05266359504246477,"370":0.0634926742831147,"371":0.00014744900722123995,"372":-0.03817859161149307,"373":-0.09808309096149109,"374":-0.01995553466419426,"375":0.06334448711603395,"376":-0.12115365130796009,"377":0.05324241448497351,"378":-0.02393485105506491,"379":0.01649386381373909,"380":-0.01205233167222692,"381":-0.06602436937875039,"382":-0.05305240158788511,"383":0.0411887012380766,"384":0.01590705878994804,"385":0.08640063929773974,"386":-0.06341603458432331,"387":-0.058245003349773776,"388":-0.07724114166920343,"389":-0.051890643003609696,"390":-0.0358218717079853,"391":0.0140769208502462,"392":-0.03926624593138259,"393":0.07442799244352062,"394":-0.026728187955444273,"395":-0.014772062808593485,"396":-0.011228492199965218,"397":0.023130333149377746,"398":-0.029722995881999188,"399":-0.003619234050999813}},{"sx":5,"sy":5,"depth":16,"w":{"0":0.07441702791512313,"1":-0.025138388109198585,"2":-0.1109054473879018,"3":-0.02523848810768822,"4":0.04412891423404055,"5":0.013801521472866592,"6":0.01962281259965812,"7":0.0023158494791720025,"8":0.011479201478947473,"9":-0.004346381482186063,"10":-0.003258754183918432,"11":0.005342874854992355,"12":-0.052151882118083075,"13":0.008100454342378965,"14":0.021836732895479338,"15":-0.014169205481659685,"16":-0.007971290140048362,"17":-0.07891714392602764,"18":0.023410974858968845,"19":-0.00042936905130080613,"20":-0.04612579466361456,"21":0.0034668110055848587,"22":-0.059964511683045035,"23":-0.032624029969732356,"24":-0.09021747365279208,"25":-0.07430092248449129,"26":-0.06802029545520538,"27":0.05465380888675832,"28":0.07519195255256361,"29":-0.027628480888774468,"30":0.016434181076289432,"31":-0.07263529273349903,"32":0.018060817657087946,"33":-0.07487471135110357,"34":-0.0037865284567614767,"35":-0.0843271448678627,"36":-0.10858788650203226,"37":-0.021544205706191102,"38":-0.014235966101190033,"39":-0.05085179920354807,"40":-0.055640617418761584,"41":0.03039648820057313,"42":0.04433128629680795,"43":0.028674880925307317,"44":0.01740263348969534,"45":-0.012659375351106922,"46":-0.0646479306501081,"47":0.051087536290558434,"48":0.08271633488194342,"49":-0.0006782120154346276,"50":-0.018978838830051425,"51":-0.0035641273424435503,"52":0.026681334967677516,"53":0.0218707556571315,"54":-0.010733663670999979,"55":0.031284528398297234,"56":0.03388052733480361,"57":-0.06287176107895771,"58":0.05526140402508251,"59":-0.07454025037511117,"60":0.05053384960097129,"61":-0.04262030223092189,"62":-0.011947581879089599,"63":-0.03716911308832779,"64":0.055655397118738716,"65":-0.0035068435076018234,"66":-0.046026194164856905,"67":-0.029160213722957844,"68":0.0055493193044768244,"69":0.04742841034961188,"70":-0.06400135584374043,"71":0.05198260131062843,"72":0.04045787922507933,"73":-0.04452107934918969,"74":0.14115519143269176,"75":0.0850203662027343,"76":0.03621883597337237,"77":-0.020479765157211168,"78":-0.12309277015930559,"79":0.035267007330073596,"80":-0.10917934738262301,"81":-0.013339842459974546,"82":-0.05047158426655102,"83":-0.012691013425158207,"84":-0.06383040059486977,"85":-0.04606260661762687,"86":-0.04758271345667634,"87":-0.06668474100164122,"88":0.07399915007755364,"89":0.021264435899442914,"90":-0.0757959380515337,"91":0.05446743524217627,"92":-0.07044392683600785,"93":0.018624318622894098,"94":-0.039653073281894796,"95":-0.0016503882774485772,"96":0.03439640683683352,"97":-0.004408647960762458,"98":-0.0006071912845199519,"99":-0.015198983609116885,"100":-0.027770444102351133,"101":-0.027649677095900077,"102":0.03354471827352147,"103":0.00010034141819796169,"104":-0.000296201920227941,"105":-0.033296718079811216,"106":0.04812517898810394,"107":0.009656966338323397,"108":-0.022434634876298203,"109":0.02008386555613166,"110":-0.07311228773117026,"111":-0.05021535795339804,"112":-0.030056518436505704,"113":0.02781120460338401,"114":0.09212807603060827,"115":-0.02550672274704828,"116":-0.07873051969522539,"117":-0.038340570771835863,"118":-0.052893294464061505,"119":-0.03695602306702736,"120":0.034581518012855174,"121":0.03714724018418182,"122":-0.004200980030461167,"123":-0.00410059325945977,"124":0.0014454164734877192,"125":-0.13049532803620473,"126":-0.0588122997449948,"127":-0.06104860419573187,"128":-0.003512431503889488,"129":-0.015569929049404642,"130":0.0055279332124506045,"131":-0.054547798694646335,"132":-0.04995491230426011,"133":0.02573036234670715,"134":-0.02986118198837839,"135":0.018927358979782424,"136":-0.04290921028065251,"137":-0.01573561128149269,"138":-0.016865549322312556,"139":-0.023396053120017454,"140":0.06037715448104949,"141":-0.02230052182800543,"142":-0.037899227406377876,"143":0.0761117216141039,"144":-0.089876897597012,"145":-0.06205188009678068,"146":0.07995564113907384,"147":0.03414775390772445,"148":-0.013618799167196351,"149":0.001547272942958637,"150":-0.0338460149089344,"151":-0.046465206069191745,"152":-0.017127633152783043,"153":0.024541811745532112,"154":0.11852847281839222,"155":-0.030455541450915547,"156":-0.003781384751979985,"157":-0.03487305186969547,"158":-0.029547146459230605,"159":0.022800216044437376,"160":-0.01734810184860076,"161":-0.03807166280547646,"162":0.06197351179799871,"163":-0.02089605325868835,"164":0.04041964808336909,"165":-0.017934543662736856,"166":-0.0433418897579028,"167":0.011260165998476316,"168":0.07977772729406576,"169":0.051221190379784676,"170":0.016799048240147513,"171":-0.013808691669111035,"172":-0.08117890881148682,"173":-0.03963491067933189,"174":0.03782461341457932,"175":-0.004205855568517077,"176":0.01111761310863513,"177":-0.007292870357386318,"178":0.0601468693275463,"179":-0.028279861553894076,"180":-0.03895074426618993,"181":-0.0572978767839043,"182":0.053052273686276,"183":-0.14266410512831623,"184":-0.02610625378394219,"185":0.0017474323723229424,"186":-0.06365005315139483,"187":-0.055713534205285714,"188":-0.01853967166857183,"189":0.011042433271987288,"190":0.008892889424859449,"191":0.03984234863785992,"192":-0.05637891522828005,"193":0.05421105777093837,"194":-0.01775175199542309,"195":-0.031646108748047984,"196":-0.10743029759203157,"197":-0.00822426082310011,"198":-0.00019932102536820637,"199":-0.03430248042846745,"200":-0.05252328565785316,"201":-0.010684088085021005,"202":0.010682733717239089,"203":0.05524310786355848,"204":-0.03420111366664979,"205":-0.03302752076212802,"206":-0.009723403156434784,"207":-0.037430032444293236,"208":-0.06355456359770144,"209":0.016694000264384275,"210":0.002790285970913624,"211":-0.0741488211712218,"212":-0.015484018772024714,"213":0.014089651352891733,"214":0.02783345259031575,"215":-0.017014599607787444,"216":-0.08879817251292205,"217":0.02932338836708932,"218":-0.06624993476792025,"219":-0.08048318759255023,"220":0.08613027872873161,"221":-0.04299922463442922,"222":-0.12598923953405763,"223":0.009184994859353372,"224":0.023198246853418193,"225":0.00476430472992498,"226":0.042347638066779214,"227":0.06830111845111071,"228":0.11509955878555048,"229":0.011006506384622583,"230":-0.0862896376543614,"231":-0.012141803007817057,"232":0.009751087351711282,"233":-0.053682338604997736,"234":-0.05775005751651778,"235":0.0934097431543461,"236":0.04495266048431748,"237":-0.014453599143086266,"238":0.005355256348334872,"239":-0.06570393735936507,"240":-0.005837210914195971,"241":-0.08555165730631643,"242":-0.012452347819875649,"243":-0.04454027681714107,"244":0.003949751444295773,"245":0.051230250521434165,"246":0.011801005705683904,"247":-0.08942491044463227,"248":0.05339993132918304,"249":-0.03447495179007879,"250":-0.011634350542475212,"251":0.05433461562272005,"252":-0.010755014143407616,"253":-0.07186442474273352,"254":0.12335331737392576,"255":-0.004714794865291109,"256":0.08055203150831784,"257":-0.024806266906404858,"258":-0.14193636793504344,"259":0.05851607801442151,"260":-0.07041985116944521,"261":-0.04404989567992664,"262":0.11015792795785431,"263":-0.07080985802827605,"264":0.03096393124423626,"265":0.02575679600605147,"266":0.01779112276498727,"267":0.011050548621528985,"268":0.002742071460128946,"269":-0.025819939549713997,"270":0.14426732090134567,"271":-0.08003977704799839,"272":0.057550462297658006,"273":-0.13152850495176946,"274":-0.020623701751278443,"275":0.09563218490987907,"276":0.07204402004195436,"277":-0.07375088336904809,"278":0.09211676361802512,"279":-0.0051252511847042805,"280":0.05717871370206767,"281":-0.06422897308383957,"282":-0.02127819330745513,"283":0.01739812136828275,"284":0.0946353882981075,"285":-0.032791845792986066,"286":0.04881325260268256,"287":-0.08019251448064256,"288":-0.04705950896982495,"289":0.023041675426122288,"290":0.04050599407107752,"291":0.07277198743543756,"292":0.1351808274453245,"293":0.02433018648216059,"294":0.038165900071794386,"295":0.05306385924384147,"296":0.07206225168104126,"297":-0.10674336638217345,"298":0.008144251853128717,"299":-0.011921712035956726,"300":0.019639928464389035,"301":0.07630496157164643,"302":-0.014742542990665344,"303":0.05310004965771412,"304":-0.06826888546659583,"305":-0.021135306812459023,"306":-0.02214832032781041,"307":-0.024518615976463234,"308":0.006217243947056939,"309":-0.0314996867746438,"310":0.09752298828597268,"311":-0.05125245893229423,"312":-0.05554111039961293,"313":-0.05819876047647415,"314":0.06522174043377436,"315":0.06361852318133733,"316":-0.07785927104376635,"317":-0.03132533445388937,"318":-0.04242534279191183,"319":0.06335764058093389,"320":-0.04538283633919732,"321":0.09046567488545872,"322":0.0016857193727619537,"323":0.02572796271706676,"324":-0.05472361615868143,"325":-0.02054355587323614,"326":0.11748308062379392,"327":-0.0987830695044719,"328":0.08482151157022942,"329":0.08402000594476113,"330":0.03478148805721105,"331":-0.014346321299551351,"332":0.05034696030760251,"333":-0.011498373138252109,"334":0.034162816143435075,"335":0.004077015257227971,"336":-0.03429970207350122,"337":0.07314763364545021,"338":-0.04645620624480424,"339":-0.04703705544937649,"340":0.034123406304651924,"341":-0.01157486287065017,"342":0.033804564141053546,"343":-0.0857114275963732,"344":0.06223864081862519,"345":-0.011518349455773659,"346":-0.0024899719156210435,"347":0.025715744415773605,"348":-0.07944020094873723,"349":-0.12250782160354497,"350":-0.009580916372423715,"351":-0.037475909225426256,"352":-0.009459517844443075,"353":-0.04898718932038106,"354":0.04820581619421266,"355":0.03229983826500661,"356":-0.013418260630095503,"357":-0.03934287055291846,"358":0.03864847715031376,"359":0.02126471819298512,"360":0.03535184541394824,"361":-0.002864919299084041,"362":-0.015072675394665261,"363":0.041340342984262424,"364":-0.02576556543269238,"365":0.0724366312065276,"366":-0.028490480571921953,"367":-0.028310803451751618,"368":-0.04462387707413183,"369":-0.07179232916434394,"370":0.015034719095415077,"371":-0.03798200366962194,"372":0.10055664260777747,"373":-0.045577045350596174,"374":-0.08127422759416869,"375":0.023565605485665785,"376":0.07046067567825175,"377":-0.1145921596406457,"378":0.012620104053967556,"379":-0.027110758847482517,"380":0.042784917590700446,"381":0.09166417011168916,"382":0.04604207123461316,"383":-0.10300755433546586,"384":-0.030911229094222108,"385":0.05252653961426273,"386":-0.01621560131172701,"387":0.029014487266480583,"388":-0.03276997760505767,"389":-0.048902149392397835,"390":0.0906689644027602,"391":0.018406900453554514,"392":0.0012489048600397437,"393":0.02228079542313073,"394":-0.06971526382507906,"395":-0.03730883648462809,"396":0.04640998358000173,"397":-0.05149457142153835,"398":-0.05066103842670754,"399":-0.059304228868997534}},{"sx":5,"sy":5,"depth":16,"w":{"0":-0.019964856282236338,"1":-0.05341617391389916,"2":-0.04870010447071767,"3":0.03303404898604584,"4":-0.016289879571506877,"5":0.027031723081501372,"6":0.052412710116133424,"7":0.09598274314566761,"8":-0.09576354031548183,"9":-0.023254566446123857,"10":0.008836395009391677,"11":-0.009031643214708241,"12":0.031653966554774225,"13":0.0316887014097186,"14":-0.028987512883353973,"15":-0.02078701572158621,"16":-0.007751496985212856,"17":-0.003578323609303084,"18":-0.12370842440514992,"19":-0.05121243478235307,"20":-0.016340747595307164,"21":0.013122417729062691,"22":0.014037148695473532,"23":-0.00924854838731505,"24":0.006112883744039812,"25":0.08063550023009992,"26":-0.04705507733590021,"27":0.003780414970381736,"28":0.0000522277950656372,"29":-0.027309687035514577,"30":-0.02937764669628641,"31":0.033039369003610514,"32":0.009939537935935622,"33":-0.003974024338085936,"34":-0.02981915086678794,"35":0.034671607413970705,"36":-0.05850662197208585,"37":-0.03201116062218454,"38":-0.008325068830170514,"39":0.03999992226192603,"40":0.00416278883367515,"41":-0.05575104461254465,"42":0.005850413039818838,"43":-0.03737870363383045,"44":0.02672984838417605,"45":-0.05627516172593802,"46":0.05942033755791437,"47":0.10486733255317778,"48":-0.09152505508940159,"49":0.0005767872648659079,"50":-0.026632506129842644,"51":-0.007207913472836682,"52":0.0004930273461049768,"53":-0.04940390529052895,"54":-0.04471068062603447,"55":-0.023961534311278804,"56":-0.07049791816109684,"57":0.003990931505854385,"58":-0.05223710796023695,"59":-0.007515235938844685,"60":-0.10399301163651223,"61":-0.01685386057465395,"62":0.004739050051584977,"63":0.09188949856474957,"64":-0.04758348107712901,"65":-0.013639751991847773,"66":0.011696855437522002,"67":0.016109746819060577,"68":-0.05708250002351853,"69":-0.05041006222815724,"70":-0.06886089736464622,"71":-0.039669133569454965,"72":0.028760412063059577,"73":0.016398829404003903,"74":-0.04877023929421115,"75":-0.014622537385503802,"76":0.017312274080709438,"77":0.0630271202714297,"78":0.05603141927138375,"79":0.03716312151853811,"80":-0.046829682194418715,"81":-0.023239990632499454,"82":0.0870579760728078,"83":0.029976365538256073,"84":-0.019491574851319828,"85":0.020905324356541945,"86":-0.04923200376284262,"87":-0.01014083641550715,"88":-0.07876915991265243,"89":-0.013233561415770763,"90":0.0069630665095727386,"91":-0.07745878205107988,"92":-0.08220795387206552,"93":0.024990947212106866,"94":0.06322520619406097,"95":-0.014700668490247266,"96":-0.026680332728805416,"97":0.009414226627165945,"98":-0.006831547594236417,"99":0.005447002232682044,"100":-0.0756207986849586,"101":-0.047519085858231884,"102":-0.0937090862644098,"103":0.04514732397855559,"104":0.0864458230869602,"105":0.02665207740670616,"106":-0.06767963643193409,"107":-0.11919909022811202,"108":-0.05063175443073839,"109":0.01897397373086383,"110":0.02154326061285993,"111":0.025166888670472044,"112":-0.028657061535192707,"113":0.030895871570938527,"114":-0.05748638055590292,"115":0.060930530974948535,"116":-0.00031234742895228356,"117":-0.028541547854714047,"118":0.004121601903500647,"119":-0.004017802122276649,"120":-0.05228408904248217,"121":-0.03206463475321476,"122":-0.025100415257680888,"123":0.054673257468901455,"124":-0.0874668580528765,"125":-0.012860081157386894,"126":0.03964719495222611,"127":-0.05918961583000776,"128":-0.060282487580542984,"129":-0.08078227937362702,"130":0.12011284694497337,"131":-0.0738657525158902,"132":0.06509429738149676,"133":0.07836564369738828,"134":0.03932092888082577,"135":-0.04114482017843954,"136":-0.004956631652261266,"137":0.014633024672115701,"138":-0.05175638990253666,"139":-0.012485874410167455,"140":0.000922265880105261,"141":-0.003408503137938922,"142":-0.06733241092368789,"143":0.1257699785832312,"144":-0.04016377371077144,"145":-0.010202347513086074,"146":-0.026238866200708245,"147":0.04711150321312138,"148":0.009792646246483303,"149":0.051246182365107806,"150":-0.03963200916538657,"151":0.044152947073242604,"152":-0.01813813471228703,"153":0.09733002956596551,"154":0.010170271367023628,"155":0.0002720011330717199,"156":0.03344476639739333,"157":0.0035905136476442373,"158":0.05439853458027392,"159":0.031922203058195715,"160":-0.024601958959275697,"161":0.0481768030869718,"162":-0.020176421675597758,"163":0.04718940976746906,"164":-0.014826634975529647,"165":-0.008674558969679998,"166":0.05506269688290556,"167":0.042181019060967995,"168":-0.062038000230244694,"169":-0.02923914858300678,"170":-0.04099307198037822,"171":-0.042848413556805895,"172":0.005890521849512364,"173":0.0001784004094459923,"174":-0.013701088941925201,"175":-0.0598608864416554,"176":-0.10129094668748462,"177":0.04221901702804122,"178":0.039803036942497885,"179":-0.006475446590029141,"180":0.018363672390154042,"181":-0.045292710666756116,"182":-0.005184036673079456,"183":-0.01403025339677241,"184":-0.023927934937123613,"185":0.06448129430687383,"186":-0.06187916269911894,"187":0.08535275362076165,"188":-0.12914707571188547,"189":0.0016848988347986948,"190":0.019559913517599867,"191":-0.047424090702569734,"192":-0.013885230146926083,"193":-0.004607316833496996,"194":-0.004350052353474962,"195":-0.010218475054024132,"196":-0.01880734703997356,"197":-0.05601240489884878,"198":0.00713258305263268,"199":0.04447546277055797,"200":0.014224262609143851,"201":0.013741129837751456,"202":-0.014129928074363973,"203":-0.013849137204590549,"204":-0.024175837211405544,"205":-0.03183610464039174,"206":-0.029442598434737326,"207":-0.05283369242734705,"208":-0.04470081508404799,"209":0.024321029975865036,"210":0.00044296740612784213,"211":-0.05672129125780112,"212":0.07147906448482076,"213":0.030453885045194362,"214":-0.08723529863385435,"215":0.001338473150994876,"216":-0.0590480670445162,"217":0.0823871627270908,"218":-0.037453736740891905,"219":0.002918641134603185,"220":-0.008890033637220568,"221":0.09524078124465797,"222":-0.012187001287262205,"223":0.0018692592281435228,"224":-0.07831165833747325,"225":0.14830152969672322,"226":-0.007278952984567498,"227":0.08381294874314492,"228":-0.037828930542233165,"229":0.02574163358940643,"230":0.0007090799087003585,"231":-0.05534346712371389,"232":-0.013446453625505757,"233":0.0626212478012219,"234":-0.014367115118798797,"235":-0.10307212865940422,"236":0.08321107153374999,"237":-0.08025110423814136,"238":0.013217840768903394,"239":0.003371588252200964,"240":-0.03547532484320459,"241":0.08092552959853269,"242":0.08202175870149087,"243":0.0114852911286952,"244":0.007974016957233735,"245":-0.05328066832305505,"246":-0.02917061449020468,"247":-0.014735620989775582,"248":0.01280467457208063,"249":0.053913315302518285,"250":-0.02043285927195184,"251":-0.06182751376836025,"252":0.04866388911815375,"253":-0.11467822802021121,"254":-0.03433599670368394,"255":-0.02742416225511953,"256":-0.010968313400806732,"257":0.07195328550930519,"258":-0.0660214041570771,"259":0.015036157228141668,"260":0.06720346892151766,"261":0.034473827727290456,"262":-0.010902181177644509,"263":-0.0022655872152635473,"264":-0.06677263494081088,"265":-0.09296567895443081,"266":0.09355970154438904,"267":0.015045338045624673,"268":0.029099729598002853,"269":-0.023809815780794306,"270":0.04800873601516177,"271":-0.052828856855918066,"272":0.060530516760155965,"273":0.026084576127118644,"274":-0.015920714227677497,"275":0.06605001348028845,"276":-0.12205656751527232,"277":-0.00954270831681505,"278":0.03140079813523154,"279":0.008648336849465223,"280":-0.11743651041316532,"281":-0.03683680062187515,"282":0.0031316840702260715,"283":-0.031390556361842445,"284":0.0020287665018925245,"285":-0.03198579601135081,"286":-0.04581027875612025,"287":-0.0040896144908687156,"288":-0.005865940669133892,"289":-0.010869956891987477,"290":-0.008472218121981812,"291":0.03558078858332067,"292":-0.04971846644023011,"293":0.04958651307328361,"294":-0.01179208059095383,"295":0.029395501532216345,"296":0.013579044479236121,"297":-0.056769090912989525,"298":0.07135279817715395,"299":-0.07390875418052414,"300":0.0019623316592981394,"301":0.05446230540228532,"302":-0.033336538560243816,"303":0.025991382002700434,"304":0.0560882777858181,"305":-0.058433131908629816,"306":0.005806857013114644,"307":-0.07362426307588674,"308":-0.001743563204269029,"309":0.04209276807148468,"310":0.06269163999438068,"311":-0.050884300757545554,"312":-0.05512879545451026,"313":0.0015352076673297334,"314":0.06700878244146938,"315":-0.05637635129369565,"316":-0.047945342715978,"317":0.030242930483210827,"318":0.021347995639567952,"319":-0.0302733778498105,"320":-0.10261201718408546,"321":-0.015559475086689076,"322":0.04059564853408208,"323":-0.10595730784806111,"324":0.07953002459069727,"325":-0.004285686258715222,"326":0.09381295630973269,"327":0.04747958677267645,"328":0.04965245348984768,"329":-0.026035355888445022,"330":-0.042109492806406225,"331":0.053447141685009705,"332":0.09011292521950703,"333":-0.06777945331736597,"334":0.06193806759114573,"335":-0.051637235466191526,"336":-0.019177474063629383,"337":0.04925016048964889,"338":0.02426026446367364,"339":0.048483315819442485,"340":-0.06838525081499443,"341":0.08989090789688399,"342":-0.08115969461276437,"343":-0.06275722288042941,"344":0.07593580287743258,"345":-0.01218402970434109,"346":-0.021756446355365795,"347":-0.046346861055151886,"348":0.006362415244426567,"349":0.019300769816449126,"350":-0.005421244490716869,"351":-0.0031086370530524826,"352":0.004959452897615441,"353":0.03435843165235696,"354":-0.010219384585187567,"355":0.044412300753667644,"356":0.014968837440513045,"357":-0.016447875391735062,"358":-0.020491984580740676,"359":-0.013612968296446426,"360":0.04237265125481377,"361":0.10221455949459722,"362":0.019900250214158498,"363":0.044979619521208374,"364":0.02159879371454301,"365":0.0008304719877776506,"366":-0.01824510709395928,"367":-0.029294145142876774,"368":-0.04512004918553517,"369":0.05134581098124086,"370":0.059199810391041406,"371":0.0685635772324801,"372":-0.08481389801960781,"373":0.002308239453674818,"374":-0.047912804142207555,"375":0.08296101305909817,"376":0.02609671858635825,"377":0.06858827349120251,"378":-0.05362643630648449,"379":-0.00444973934553235,"380":-0.06526028980633278,"381":-0.013810525271331874,"382":-0.09898646430005714,"383":0.008736781279027286,"384":-0.018492183869973897,"385":-0.035261226812646214,"386":0.06702676313394913,"387":-0.10162441642337953,"388":-0.09924538367230347,"389":-0.016776681557202813,"390":-0.034062935412841576,"391":-0.044653506606138274,"392":-0.023200108744896464,"393":-0.0480617398989469,"394":0.04237267762497733,"395":0.00007907461640986255,"396":-0.01880405094094914,"397":0.029495335194765555,"398":0.018996561479953194,"399":0.015267613534271706}},{"sx":5,"sy":5,"depth":16,"w":{"0":0.011825904394426878,"1":-0.05893568238297808,"2":-0.018771101257164777,"3":-0.048228855089456034,"4":-0.08982074213997228,"5":0.01705876371693246,"6":-0.012231057688447318,"7":0.04524136725487092,"8":0.01704997805229695,"9":0.11355132089276532,"10":-0.014900809764775447,"11":-0.032178500799211286,"12":-0.05975335928338579,"13":0.00403150624337481,"14":-0.09062986546168668,"15":-0.02378725343640224,"16":0.06934617626659528,"17":0.09403282165475323,"18":0.0090428637874625,"19":-0.05058550729664977,"20":-0.018430718155952798,"21":-0.06042740953538936,"22":-0.018049004959944537,"23":0.012357052421897951,"24":-0.07675156692098381,"25":0.0012688709981178172,"26":0.08168171439239354,"27":-0.03943853915164079,"28":0.08740881728758605,"29":0.006344806141116077,"30":-0.006783349811224979,"31":0.07305970858356246,"32":0.049148056080628146,"33":-0.00869663573151061,"34":-0.03277486650184586,"35":-0.03222776481235828,"36":-0.019780025758187558,"37":-0.06581901302544489,"38":0.061575928845600626,"39":0.018347239468035494,"40":0.025838829296901147,"41":-0.081204453732878,"42":-0.10654550063106163,"43":0.0011127769303651406,"44":0.04154736139172386,"45":-0.13321194536505515,"46":-0.039421936899040076,"47":0.06880761593096126,"48":0.07979372032744028,"49":0.023246537069720213,"50":0.021221937018521597,"51":-0.028221667454745747,"52":-0.043173682511410585,"53":0.005254535331082442,"54":-0.09436761936927274,"55":0.0028562542973189927,"56":-0.054236838143277726,"57":-0.0512126535536055,"58":-0.027026951342746897,"59":-0.044864480011085714,"60":0.03507690464915456,"61":0.07517063146523922,"62":0.11706769888379735,"63":-0.0888121750419956,"64":0.08429703704147751,"65":-0.04186808597536508,"66":-0.11497635064200061,"67":-0.014485901042613937,"68":0.026055964607973974,"69":-0.05768187752451708,"70":0.015448405917743864,"71":0.015806192636654726,"72":-0.002031091238078675,"73":-0.020537437693690683,"74":-0.049117101227368024,"75":-0.01414843175750236,"76":0.04761515784803284,"77":-0.07830761774904871,"78":-0.04255744484983055,"79":0.028460624470191098,"80":0.031096186243460115,"81":0.059252837844653086,"82":-0.008230514017660007,"83":0.05379487466666627,"84":-0.01703191487582006,"85":-0.05361284776776123,"86":-0.03444682114850046,"87":-0.0037921084768237526,"88":0.014437136676673117,"89":-0.011452215293404126,"90":-0.08975148994627356,"91":-0.07069530653446453,"92":0.026571906028651036,"93":0.06442263200508146,"94":0.039081152915842875,"95":0.0381730644495648,"96":-0.031020984559476703,"97":-0.051867303252190584,"98":-0.1453816530876704,"99":-0.11639844286586153,"100":0.018699844106925826,"101":-0.009391770291285314,"102":-0.02478215583785735,"103":-0.006841889352662606,"104":0.0029051514130956266,"105":-0.049721422673949724,"106":0.0192730827227807,"107":0.0009707012291911907,"108":-0.03647734568778226,"109":0.0172927544477085,"110":-0.08294767222708496,"111":-0.0389150440528081,"112":-0.010702442518813382,"113":-0.006955403762262792,"114":0.025421899260778008,"115":0.03205765130732191,"116":-0.028149894228870462,"117":0.04154866399866849,"118":-0.009684967076018014,"119":0.013599816452305298,"120":-0.07618540254784771,"121":0.010644117237085063,"122":-0.019245467829700158,"123":-0.03137439935479957,"124":-0.04325111953610767,"125":0.06456192292864801,"126":0.10371093285867382,"127":0.08813873943488451,"128":-0.03995254494350224,"129":-0.028658867329059604,"130":-0.05408478194618005,"131":0.07240793929660472,"132":0.057737523611146285,"133":-0.04950096957159082,"134":-0.0016175136565436045,"135":-0.00418581029788242,"136":-0.04125379210665771,"137":-0.004322563615790906,"138":0.0002865928670966592,"139":0.005494859731520826,"140":-0.01138580048708093,"141":-0.05103295445622181,"142":-0.10125075841809764,"143":-0.021085766187526906,"144":0.0025925013335063632,"145":-0.06179296725818808,"146":-0.044764418927131226,"147":0.022332286558480966,"148":-0.029643813614065293,"149":-0.098666915454164,"150":0.047412105610485394,"151":-0.03789662503229003,"152":0.012342558617061856,"153":-0.0010827032306968225,"154":-0.10515577501834947,"155":-0.0644820612437582,"156":-0.01996070813394136,"157":-0.0908154262087428,"158":-0.004787243125381768,"159":-0.052910532392383476,"160":-0.055687524336665586,"161":-0.017874090059541253,"162":-0.0760873303731679,"163":0.03659826741002162,"164":0.030283083836392215,"165":-0.010442818604977205,"166":-0.02589238975558408,"167":-0.04133268454946656,"168":-0.07198226651840145,"169":-0.07614540497768214,"170":-0.01577789927545845,"171":-0.06881811178254285,"172":0.050723661309794305,"173":0.04595133887862101,"174":-0.006034536556971323,"175":-0.08693515214387512,"176":-0.020683729592839168,"177":0.04657121415547651,"178":0.022394505098730092,"179":0.026284203987436253,"180":-0.0699840435924665,"181":0.050637813273918114,"182":0.011772142245075676,"183":-0.002850346134722584,"184":0.042756732015002935,"185":-0.020301824272661445,"186":-0.02890269491918478,"187":-0.025330348931403648,"188":-0.0016205353097096642,"189":-0.0837060033014964,"190":-0.02773624748183899,"191":0.023182534200549783,"192":-0.03555496257858852,"193":-0.06507822315920908,"194":-0.09687076212845519,"195":0.030672739832348347,"196":-0.09312636086340967,"197":-0.016491221324709076,"198":-0.07031900138655779,"199":0.016167794630314824,"200":0.023218242031303776,"201":0.02545221474918405,"202":0.0880869906379155,"203":-0.09371489664101829,"204":-0.05783868358379003,"205":0.027071746120247788,"206":-0.015112847478023338,"207":0.029842817023074224,"208":-0.005004491282032262,"209":-0.02428590212295853,"210":0.02810149213304201,"211":-0.012195387649605633,"212":0.07680153511115019,"213":0.033349839092533744,"214":0.007682229880996027,"215":0.04377376245634986,"216":-0.03508076178439672,"217":0.031751897702263984,"218":-0.10701138878173846,"219":0.03282647752360803,"220":0.007904725983951144,"221":-0.006485096398197115,"222":0.02921627276841057,"223":0.022116484599505045,"224":-0.04181036770950763,"225":0.09740206760092629,"226":-0.01807671784215214,"227":-0.056011296491197717,"228":-0.028560739284716096,"229":0.023479523394976217,"230":-0.023333930613577702,"231":0.02220490049974046,"232":-0.059330342493402265,"233":-0.08213032205176483,"234":0.025212873072958615,"235":-0.03045009424939299,"236":0.05999022419057424,"237":-0.12264164166831709,"238":0.009057902079974544,"239":-0.008291610996872997,"240":-0.036488211071625976,"241":0.009266117504948016,"242":0.03488627860051162,"243":-0.04161305900601565,"244":0.015011920214502376,"245":0.06331006708948662,"246":0.04395829777635993,"247":0.015141414232918088,"248":0.010403112751493243,"249":0.009902873694105536,"250":-0.015037175478839388,"251":-0.0011060844712422987,"252":0.04751699357066588,"253":-0.01719353940192947,"254":-0.018200260080159014,"255":0.06357566531003199,"256":-0.03199793961715881,"257":-0.039589467195321026,"258":-0.017486848933566602,"259":0.0838922933008036,"260":-0.012788304956066901,"261":-0.0016552951618002466,"262":0.030541086805187218,"263":0.0067944067698563065,"264":-0.08112820487427422,"265":-0.03372820162192208,"266":-0.04961387990592716,"267":0.0478783029853426,"268":0.029962635010345993,"269":-0.00021870784311247605,"270":-0.08702312213437713,"271":0.01248367957691545,"272":0.06982667672643503,"273":0.06399810842326326,"274":-0.1444898813696722,"275":0.06482477060568848,"276":-0.018258099949385403,"277":-0.011071638398703032,"278":0.01917143629628459,"279":0.007261922668114514,"280":0.016654792665371655,"281":0.004336697420791915,"282":-0.0019646080794031846,"283":-0.06593123556946243,"284":-0.035146846175522446,"285":0.019352349162313903,"286":-0.004915143147583771,"287":-0.0010405259233288913,"288":0.028492780904851772,"289":-0.03546576106702327,"290":0.035730179347857854,"291":0.015393274874160992,"292":0.006613079585295572,"293":-0.03365648479833267,"294":-0.025168011591164177,"295":-0.06936587549793147,"296":0.051000726453731375,"297":-0.07137452914230122,"298":0.11376542895435221,"299":0.042529584278736175,"300":0.021848899298393558,"301":-0.011232728626786712,"302":-0.0035617328622992005,"303":-0.013521238697714476,"304":-0.04247824524568267,"305":0.013005489313922931,"306":-0.042243703600185686,"307":0.030519214328064422,"308":0.011089560711953633,"309":0.038545863311598504,"310":0.04015579228674638,"311":0.04204724036675652,"312":-0.0701017687032961,"313":0.02358579166329622,"314":0.03729137944038843,"315":-0.0012424458123012606,"316":-0.087398641563708,"317":0.053756496257587175,"318":-0.057732646864191446,"319":-0.0321790115457746,"320":-0.06778040330979666,"321":-0.03648008153580402,"322":0.025632352485290187,"323":-0.05716105827183107,"324":-0.003701739565721059,"325":0.06323988516067314,"326":0.03675557184980944,"327":-0.06079626940976048,"328":0.040726466104049314,"329":-0.005779218413877338,"330":-0.09180947238276023,"331":0.09035294299837666,"332":0.04775495385671652,"333":0.004562339372669327,"334":-0.03849868898398627,"335":-0.10417119078796248,"336":0.06163816961455252,"337":0.007634388423434175,"338":0.029606290186981105,"339":0.04648311824401631,"340":-0.07329814226660274,"341":0.002155051746425046,"342":0.002917473692416338,"343":0.01661795202195467,"344":-0.08798330512713917,"345":0.04734940021230799,"346":-0.013973095738638997,"347":0.06910268441780852,"348":0.020596247324729373,"349":-0.07338165056389005,"350":-0.07204636661142849,"351":0.044370172017644774,"352":0.04411683640020172,"353":0.007154689375444468,"354":0.05888022498768948,"355":0.046801336933420826,"356":0.026886713309591217,"357":0.04230714593063505,"358":0.06007091731341722,"359":0.054989804435880994,"360":-0.0805638117742379,"361":0.07424265667473245,"362":0.06241605306526869,"363":-0.005363435465997254,"364":-0.07271133209287751,"365":0.004167273994052043,"366":-0.0007175953877444968,"367":0.016058383652927482,"368":-0.032549655375307344,"369":0.03391838217244745,"370":0.015985340877522708,"371":0.095301203902102,"372":0.07467119872002086,"373":-0.11115063852992671,"374":-0.054446367106524264,"375":0.0062122968779118395,"376":0.08546929646311446,"377":0.040684395010861116,"378":0.049236839331553754,"379":0.008989658425223927,"380":-0.036659521742324015,"381":-0.05476717300876497,"382":-0.019453043097602013,"383":0.04243872735342906,"384":0.004680486528453395,"385":0.032400096954523935,"386":-0.014337191461114758,"387":0.03404445115433574,"388":0.004980119359609568,"389":0.028817197548684767,"390":0.04702168646015699,"391":0.05023410884875185,"392":0.05897995798875269,"393":-0.09499211026260265,"394":-0.028639588635128093,"395":-0.09953564321785502,"396":-0.07131916366164165,"397":0.010347517353745075,"398":-0.043528305536567814,"399":-0.04188034699359339}},{"sx":5,"sy":5,"depth":16,"w":{"0":0.10576860026750168,"1":-0.009825580716427315,"2":-0.006391598709678425,"3":-0.005341149924019506,"4":-0.0526984943388726,"5":0.06903224049079475,"6":-0.023097050061057927,"7":0.05561956395075141,"8":0.043434221920819575,"9":-0.004955534155076803,"10":-0.020867176515019917,"11":-0.04131923048031324,"12":0.016642394616084816,"13":0.08751420545150765,"14":-0.027043009231771782,"15":0.0850500429876851,"16":-0.03412221044940481,"17":-0.005570145138505276,"18":-0.00873536972916145,"19":0.060022547359640493,"20":-0.014987845199734494,"21":-0.03179834332314174,"22":0.013856849656386911,"23":-0.02316856222513923,"24":-0.022988825355853768,"25":-0.012635865342172769,"26":0.05834082869545916,"27":0.04395922210655226,"28":0.02227350606033299,"29":-0.0005741797761315438,"30":-0.0127789164066471,"31":0.01848942818338931,"32":-0.0200093869328353,"33":-0.03357810613373102,"34":-0.05482844463401064,"35":0.04546585684167352,"36":0.05047152827901,"37":0.0018405449482225792,"38":-0.042537930613806715,"39":0.0025896477890111754,"40":0.02455361870822677,"41":-0.03307383038519477,"42":-0.017769821707826934,"43":0.016717988369857335,"44":0.04103674197791459,"45":0.05366837498259617,"46":0.004634931383369764,"47":-0.12619277852278404,"48":-0.03850452614851309,"49":0.06981639976686205,"50":-0.029053269046483508,"51":-0.06464279617709688,"52":0.014707917651167185,"53":-0.07509306271130958,"54":-0.010987878760064946,"55":0.006108238988197963,"56":-0.008714701419932601,"57":-0.009164799734559454,"58":-0.058505050935589394,"59":-0.032316713207589505,"60":-0.025482956689545002,"61":-0.006790298335281266,"62":0.04696305876752637,"63":-0.00850599873097144,"64":-0.08293682196339157,"65":0.036787947375284256,"66":-0.05310081538391997,"67":0.02259713263241068,"68":-0.031159345605274412,"69":0.019749817913315655,"70":-0.01952096253532626,"71":-0.005176268827026812,"72":-0.03267689448647507,"73":-0.0395154984945972,"74":-0.00655546937008951,"75":0.016524463823234217,"76":0.002020806846912644,"77":-0.050312121172752314,"78":-0.07994386762068406,"79":0.011616953011318504,"80":-0.005010755939559119,"81":-0.005254028003901161,"82":0.025487975558789223,"83":0.08174607140735828,"84":-0.017369308211596567,"85":-0.01917933444870895,"86":0.03240611190954275,"87":0.04614451993385666,"88":-0.017783274724120016,"89":0.05578425639890571,"90":-0.023938336736485835,"91":-0.0003302326785405627,"92":-0.013669504336176695,"93":0.04190148094709189,"94":-0.032040893963486715,"95":0.015750493742404028,"96":-0.06451872192975343,"97":0.0361899581502959,"98":-0.0662857410874386,"99":0.06475333515394599,"100":0.005845690673124575,"101":-0.017016059101023953,"102":-0.0493578942796702,"103":0.006249652669860593,"104":-0.04532246486404824,"105":-0.035548716052656575,"106":0.004968361788508698,"107":-0.02193641900767495,"108":0.0046283787694252725,"109":-0.034435144653940326,"110":0.03583574181933106,"111":0.02498487424325029,"112":0.0552350185072714,"113":-0.10248627734391468,"114":0.02671002001823474,"115":-0.006846993348917681,"116":-0.031281713339130074,"117":0.05181661211813557,"118":0.017043153248600614,"119":-0.06581928119142115,"120":-0.025600202534469547,"121":0.08705415592031579,"122":0.10838800761876896,"123":0.03967041675582698,"124":-0.025159786663736788,"125":0.05176166466510395,"126":0.025816191801291397,"127":0.06925216328863253,"128":-0.049224109669576556,"129":0.0036069486975217986,"130":0.01712057062290368,"131":0.06126251835127202,"132":0.009594456046059886,"133":-0.027344563266117883,"134":0.0066356623662490784,"135":-0.02485673855473425,"136":-0.04136235521739884,"137":0.07729585670305937,"138":-0.09265131018952794,"139":0.0645902218514522,"140":0.09586134438576692,"141":-0.01808483756420815,"142":-0.032440452866683886,"143":-0.010003552168217737,"144":-0.08508815364801432,"145":-0.05975980419272132,"146":0.019618709600953733,"147":-0.01329437328662855,"148":0.0005262929065496852,"149":0.012628525124960712,"150":-0.0021731029462546997,"151":0.010272959577313575,"152":0.036809560192065445,"153":0.010743741303383082,"154":0.0607436025801342,"155":0.06991447067684062,"156":0.012273079774724712,"157":0.013217439737713794,"158":-0.008244469806038131,"159":-0.04507925866062832,"160":0.07886549643582472,"161":-0.03931350788448204,"162":-0.017416098355146032,"163":-0.004721621775628462,"164":-0.0730820132886838,"165":-0.05627166035259672,"166":-0.02259218040606677,"167":0.024182270756636183,"168":-0.055152233974498206,"169":-0.037312934527380215,"170":-0.050208202608958176,"171":-0.008617991360915645,"172":-0.024283142795152163,"173":-0.03359803555706121,"174":-0.007848157208984675,"175":-0.04329697736386314,"176":-0.025505842013466656,"177":-0.013241132589175418,"178":-0.02912053991521913,"179":0.09713920029553814,"180":-0.03788501150664331,"181":0.05609299337945871,"182":0.010910945611098195,"183":0.00268486304267358,"184":-0.010455034773738556,"185":0.025505656832946352,"186":-0.009428459446826345,"187":-0.02708218054129298,"188":-0.09707971374112874,"189":0.10541463890019177,"190":-0.1505253123308533,"191":0.06326978138855487,"192":-0.028099986775925807,"193":0.06379624297083528,"194":0.004593449403864502,"195":0.026406219956268896,"196":-0.0004587815905426315,"197":-0.03013919217311231,"198":-0.010157039628363548,"199":-0.006982517847063213,"200":0.005706254410203384,"201":-0.043427406021807016,"202":-0.036487122946913315,"203":-0.06255045592942217,"204":0.039512080691994286,"205":-0.026850024131873252,"206":-0.11673219193844675,"207":-0.007509061123445643,"208":0.04293042821566921,"209":-0.034378219099981094,"210":-0.04035274383593517,"211":-0.0651422159750191,"212":-0.08112547119868446,"213":0.04308654293969083,"214":-0.028904297052091778,"215":0.01120537220536284,"216":0.012754808594364456,"217":-0.020569389682798173,"218":-0.019573560663485784,"219":-0.04560739381253093,"220":0.08198300496437108,"221":0.04327777612765384,"222":0.03204118709796123,"223":-0.0911275482513225,"224":-0.04470115623426463,"225":0.03143756646613232,"226":0.025551803482276904,"227":-0.09189674939079581,"228":-0.06573814958248897,"229":-0.03464951882087785,"230":0.08536532540842519,"231":0.03722162158521236,"232":-0.011103175426332086,"233":0.008827816675391667,"234":-0.04495933457685678,"235":-0.11748838672805755,"236":0.009787456273862405,"237":-0.08391588261897452,"238":-0.1145898710860829,"239":-0.0038679901348564385,"240":-0.028322271692833346,"241":-0.050069429937914994,"242":-0.009802940475687175,"243":0.043102137391137746,"244":0.020017710088996332,"245":-0.060189102995856655,"246":-0.03800760322868169,"247":0.10284730961572322,"248":0.06350050548270392,"249":0.013595527835704831,"250":0.05365317770860481,"251":-0.014161138269139738,"252":0.020425105211208935,"253":-0.0252010235756204,"254":0.06555512728784102,"255":0.042048795383699274,"256":0.0618162269173931,"257":-0.13539623437939657,"258":-0.09070151203353244,"259":-0.08517700025999617,"260":0.09002434903136916,"261":0.039833495338560614,"262":-0.04920324655378334,"263":0.026775584802392883,"264":0.02530010446673606,"265":0.0031249274688335636,"266":-0.048470663107972635,"267":-0.0057681350304180905,"268":-0.10202083572054768,"269":0.05816652056556707,"270":-0.0424366897059924,"271":0.011483554503840926,"272":0.03400161559977929,"273":-0.0663049205849813,"274":-0.09394011516959569,"275":-0.0525293670512586,"276":0.03713488373534859,"277":0.023358063742332544,"278":0.024678620184468977,"279":0.00750068283212839,"280":-0.08672264450946951,"281":-0.0029507888949147055,"282":0.02718584097135304,"283":-0.0379449644865477,"284":-0.057272388490178204,"285":-0.09157835454145091,"286":-0.03845561955975534,"287":-0.002281111008019406,"288":-0.06277506219555722,"289":-0.04039666512572287,"290":0.01123580756313421,"291":0.02155277706316572,"292":-0.07042345071495644,"293":0.08663354742357432,"294":-0.022287863642870512,"295":-0.032342852974743354,"296":-0.023493017601884537,"297":0.0010553950123416032,"298":-0.02049324091276971,"299":-0.030532628008118193,"300":0.01628917890977068,"301":-0.043216010915340365,"302":0.014072195466579503,"303":0.006601869745826636,"304":0.030611331216640877,"305":-0.08382251033479597,"306":0.03193036185730279,"307":0.059999520092328625,"308":-0.04972286320580717,"309":-0.0431791925074001,"310":0.04848808931956057,"311":0.06809628623243538,"312":0.0005319873764342928,"313":0.002680686279701701,"314":-0.08811023063153141,"315":-0.07959518102259186,"316":0.04441005569431633,"317":-0.00919984202628719,"318":0.045649504762087706,"319":-0.006084552310066607,"320":0.018497382591602364,"321":0.04570210420604887,"322":-0.06619343439601295,"323":-0.04909179232246597,"324":-0.03213325021670452,"325":0.004939218537286236,"326":-0.015459668051572086,"327":-0.009107618453489997,"328":0.06652890411653378,"329":-0.059491190385518415,"330":-0.01446354127792078,"331":0.00013314427068474607,"332":-0.01749933886210564,"333":-0.03746737035272495,"334":0.0023084280968721027,"335":0.04284317059145297,"336":-0.04367645927603622,"337":0.01120164137277572,"338":0.005168703089154318,"339":0.04777522290676697,"340":0.018852980734314278,"341":0.04248410041472863,"342":0.06320411095180377,"343":-0.03143316779531278,"344":-0.019376689683529277,"345":0.07841533507698709,"346":0.06809958459803817,"347":0.0303944167844503,"348":-0.03649893448470494,"349":0.011745604131726085,"350":-0.05591126882087538,"351":-0.07819606400411093,"352":-0.026734259745254795,"353":0.06292407508755758,"354":-0.013783580297169553,"355":-0.05725387139180342,"356":0.03128586249925958,"357":-0.030975368047621344,"358":-0.045679176944807665,"359":-0.00040581933178191485,"360":0.04446608208624495,"361":-0.007687443252053761,"362":-0.04590044187300524,"363":-0.1105208355712196,"364":-0.01667605981729774,"365":-0.011030475262264142,"366":0.018581631314090966,"367":-0.018232286790091232,"368":-0.07022901822971785,"369":-0.00941986753617833,"370":0.03219349098007624,"371":0.03528462637694748,"372":0.06561924869604953,"373":0.0007166503610238592,"374":-0.02991801938828073,"375":-0.06310940568719844,"376":-0.007780897669915254,"377":-0.03299609296701279,"378":-0.03522905033580798,"379":0.006680945891914095,"380":0.026823169983180094,"381":0.015108667428789949,"382":-0.00718956766250193,"383":-0.07059691362850462,"384":0.00888261948873052,"385":-0.0738186986771159,"386":-0.036480042769610796,"387":-0.009960457608511528,"388":0.0018301313611904975,"389":-0.00011977434028779491,"390":-0.05426166130463993,"391":0.011590158267302463,"392":-0.006636341746557316,"393":-0.013780340819068787,"394":-0.047495642367856014,"395":0.10091654708785658,"396":0.02226383623249639,"397":-0.007216141708942102,"398":-0.03230104814300477,"399":0.02990737375950879}},{"sx":5,"sy":5,"depth":16,"w":{"0":-0.06906039541953599,"1":-0.03791507855128131,"2":-0.03358343257550806,"3":0.06627139023880056,"4":-0.0047788294415854705,"5":0.06885818276827158,"6":-0.0464266768648311,"7":0.0332239125744003,"8":-0.03115010096882371,"9":-0.04688161409209484,"10":-0.06266186708194597,"11":-0.0430029576272357,"12":-0.04878821588447963,"13":0.047339354578958937,"14":-0.014983514534856093,"15":0.052590418624298294,"16":-0.0028230171821554827,"17":0.07199788716933148,"18":-0.06591726742696782,"19":0.024089423949667503,"20":0.11086863606945771,"21":0.011985220828596344,"22":-0.0036602307215040314,"23":0.09110602419128426,"24":-0.08151063659953886,"25":0.051654466741694216,"26":0.048036938705147456,"27":0.032613125316105926,"28":0.05893510760796957,"29":-0.0652363756099312,"30":0.034698259207235876,"31":-0.038369928850085125,"32":0.030262497437911748,"33":-0.049924685877584966,"34":-0.05023014544377963,"35":0.039110130451329904,"36":-0.06817964517898363,"37":0.058295743878996706,"38":-0.033570555475103514,"39":-0.012014736314007122,"40":0.04819140647789069,"41":0.04853708742602727,"42":0.02827092161184507,"43":0.03288365678217481,"44":-0.04831805400146321,"45":-0.023581107936119224,"46":-0.07462552250566352,"47":-0.02934340094832496,"48":0.034382550583881316,"49":0.07320840395814157,"50":0.038040264461338305,"51":0.03810946354152986,"52":0.013137272807281768,"53":0.07504836868170897,"54":0.038351936003708044,"55":-0.07980087167798547,"56":-0.08425680686606253,"57":-0.05066734890794499,"58":0.10208571096910747,"59":-0.05953979888069486,"60":0.0068557734280808875,"61":-0.05334230976090604,"62":0.01585187839727687,"63":0.06778843605592984,"64":-0.009950434488791694,"65":-0.02206797071431796,"66":-0.07994668948482336,"67":-0.003554036891745201,"68":-0.016519817593730432,"69":-0.062338186622788117,"70":0.008824836002701357,"71":0.017386740371912592,"72":-0.06586422610531477,"73":0.03588781913880018,"74":-0.0048609023355573435,"75":0.10496178972397904,"76":0.00004673041364030504,"77":0.042992840659499175,"78":0.0031493417818964932,"79":-0.019933085505783783,"80":-0.057174859129415445,"81":-0.011284654885118019,"82":-0.043917115947568246,"83":-0.02564751378375402,"84":0.038443017639530744,"85":-0.02610959322162419,"86":0.04501202781072793,"87":-0.04849073943593822,"88":0.07790669193258927,"89":0.0024589334366460517,"90":0.04256036840908007,"91":-0.07066800724962677,"92":0.024147614017044974,"93":0.039578333666940455,"94":-0.026139808469992275,"95":0.04715050635963871,"96":-0.11013408608447606,"97":0.0636424032690502,"98":0.10199936906080512,"99":-0.0377352549299546,"100":-0.11043055749029008,"101":-0.08165267067051275,"102":0.01734893844497681,"103":0.09367133199423296,"104":0.024009294668288123,"105":-0.04015170775074278,"106":0.024017439357295545,"107":-0.0024423541563094557,"108":-0.04516769103417406,"109":-0.011364689090980441,"110":0.13334147436392832,"111":-0.061182676724128304,"112":-0.04497620510785584,"113":0.01889146178194406,"114":-0.019359056716423184,"115":0.04888613246011367,"116":0.0016271880258417416,"117":0.0464179694524563,"118":-0.03653493819676364,"119":0.039544849778012967,"120":-0.04980882204913601,"121":-0.0012150239992882992,"122":-0.0014000151024233215,"123":0.021783716864392386,"124":-0.008818255015434297,"125":-0.07484872808697471,"126":-0.1253158914002747,"127":0.04781092813966052,"128":0.0901688233954216,"129":-0.04960132533824088,"130":-0.033761236437412155,"131":-0.018469329886544716,"132":0.04779372758635254,"133":0.030272521588784816,