{"layers":[{"out_depth":3,"out_sx":32,"out_sy":32,"layer_type":"input"},{"sx":5,"sy":5,"stride":1,"in_depth":3,"out_depth":16,"out_sx":32,"out_sy":32,"layer_type":"conv","l1_decay_mul":0,"l2_decay_mul":1,"pad":2,"filters":[{"sx":5,"sy":5,"depth":3,"w":{"0":0.48780712755749284,"1":-0.2888179633043431,"2":-0.5358903574691901,"3":-0.15097397096736637,"4":-0.46284580335628656,"5":-0.3726372015549319,"6":-0.27106195436095964,"7":-0.2564429583441041,"8":-0.23732710905112023,"9":0.18475937695759928,"10":-0.06351136124918455,"11":0.6185989643346473,"12":0.1184644413128933,"13":0.4268813715663501,"14":0.5631663671107471,"15":0.06192211065801682,"16":-0.08099372224728403,"17":0.05351959576764214,"18":-0.3491814993128705,"19":-0.19370955216846636,"20":0.24915435908786437,"21":-0.28025135140901486,"22":0.1054831658002695,"23":0.285192526470861,"24":-0.38650186225530914,"25":0.2289737262212308,"26":0.39119551334324204,"27":-0.023317191448749754,"28":-0.06409099991955447,"29":0.3230809031157693,"30":-0.06545849433874651,"31":-0.5211860654888225,"32":0.08103084282164638,"33":0.18513160518206404,"34":-0.019805892092257776,"35":0.4577641361101884,"36":0.12965336485959963,"37":-0.008941316100131444,"38":0.826568131614217,"39":-0.4105455483638214,"40":0.1273183126806011,"41":0.40947713532779495,"42":-0.456344755888728,"43":-0.23803833548441622,"44":0.05464390741764448,"45":0.19588021891077176,"46":-0.3223244163941862,"47":0.05464890842385443,"48":0.27678686635257405,"49":-0.2994052645395564,"50":0.22691689321949457,"51":0.3968545486672163,"52":0.04627495468178888,"53":0.8193237012604166,"54":0.33099431298679627,"55":0.12001246424109711,"56":0.2978199296436496,"57":-0.029966747587229614,"58":-0.14416057403165633,"59":-0.1639457868668527,"60":0.18730774494931043,"61":-0.2557715959575713,"62":0.16354295193492918,"63":-0.18339162502446377,"64":-0.47195886071303206,"65":-0.08590457292432113,"66":-0.12633555516591372,"67":-0.16570006986050126,"68":0.05992772456086624,"69":0.16509160830811453,"70":0.02466166896795454,"71":-0.06763339062309169,"72":0.057143801412699355,"73":-0.17145923972707616,"74":-0.07558595506764099}},{"sx":5,"sy":5,"depth":3,"w":{"0":0.02202712792268142,"1":0.04329444057625501,"2":-0.17137689305343004,"3":-0.20865094237465365,"4":0.2473852000558124,"5":-0.01805300495549739,"6":-0.3741575877938511,"7":-0.2258092540207241,"8":0.2867527616435186,"9":0.06298385888853723,"10":0.008402674411559606,"11":0.042407617052312885,"12":0.5017226070683569,"13":0.00953949712034592,"14":-0.2544224640578831,"15":-0.41172979396958004,"16":0.29795584196586344,"17":-0.244819037266505,"18":-0.5530529242702765,"19":0.18202650789547548,"20":0.442275087433848,"21":-0.1448072958015942,"22":0.18517410930487618,"23":0.6560715462784452,"24":0.3451930164845303,"25":0.17386825830726427,"26":0.07139281507426341,"27":0.45801072991231273,"28":-0.3665258295737561,"29":-0.9626739820725368,"30":-0.5475473869064049,"31":0.33234598125620596,"32":0.26686166001427203,"33":-0.46378191780471045,"34":0.4537238775616793,"35":0.7635624454281035,"36":0.13931847601164482,"37":0.10361470016471233,"38":0.5800084192631925,"39":0.2566187950440815,"40":-0.5846769606900544,"41":-0.6428933313231553,"42":0.605262845685886,"43":-0.2725288170773744,"44":-1.0543865976559876,"45":-0.59730824065669,"46":0.40970524782333606,"47":0.6783394301672492,"48":-0.17235014906231805,"49":0.30126792903978034,"50":0.7679062735285136,"51":-0.15587033069064374,"52":-0.3067824560151107,"53":-0.08558963904621295,"54":0.13398436526495114,"55":-0.483911479915113,"56":-0.6502741710686718,"57":0.8620590976648123,"58":-0.16197634859288024,"59":-0.6519277088248413,"60":-0.5018019040377995,"61":0.5052352306979575,"62":0.6070626555242042,"63":-0.44022504378572025,"64":0.1053773625928086,"65":0.2746150248096821,"66":0.09458497205866347,"67":-0.5211173175274222,"68":-0.21767136121954125,"69":0.3955606953037587,"70":0.041022502137523086,"71":-0.2693998359241387,"72":0.4082672708836291,"73":-0.13360833566970337,"74":-0.3100255384141398}},{"sx":5,"sy":5,"depth":3,"w":{"0":-0.03647977095455567,"1":-0.037615037582739895,"2":0.22398483634349284,"3":0.2393333788433923,"4":-0.1818843925950911,"5":0.03396717957708018,"6":-0.07084847929100702,"7":-0.13574950060099214,"8":0.33478645763302955,"9":-0.3117153278522894,"10":-0.0036860870684710394,"11":0.5253875196649289,"12":-0.5680374570569717,"13":0.27694939920746237,"14":0.6205673163700032,"15":0.7674358532163047,"16":-0.6531962634286372,"17":-0.5285265399245512,"18":1.1234557576867341,"19":-0.8165780334935175,"20":-0.7529260388639536,"21":0.957776440781604,"22":-0.7287472924381412,"23":-0.7385846236542365,"24":0.48114816559022533,"25":-0.4096776704837994,"26":-0.3345697948239894,"27":0.1340324197359743,"28":-0.29412718600638804,"29":-0.1847455676283242,"30":0.5232001210669037,"31":-0.4220444421471194,"32":-0.19518773327032238,"33":0.8326287369682588,"34":-0.7472557455116307,"35":-0.3325740928704255,"36":0.9183045183260709,"37":-0.7883867174731398,"38":-0.455717358679664,"39":0.5897826344482743,"40":-0.3874912355193401,"41":-0.26843585579807494,"42":0.15307937801012522,"43":-0.30130344416490895,"44":0.10324909342399918,"45":-0.12442504572671838,"46":-0.25386059132560745,"47":0.06517281915083109,"48":0.051847001980073866,"49":-0.25619449798614274,"50":0.154794087624441,"51":0.0016711339847075618,"52":-0.16256868807567518,"53":0.19274655373989938,"54":0.039380486632250494,"55":-0.21687703014467116,"56":0.2589970821721458,"57":-0.31531239174748965,"58":0.024304447922001107,"59":0.20993688971012747,"60":-0.5901563168969914,"61":0.2769167456060291,"62":0.4306033716199752,"63":-0.6402566418833363,"64":0.4415414573553866,"65":0.6149596822311947,"66":-0.6966116724738283,"67":0.30177452334094773,"68":0.6494298491284161,"69":-0.6009660602036034,"70":0.2270762325908015,"71":0.49697472845446306,"72":-0.5754682040980125,"73":0.020349410317019243,"74":0.4523137651900122}},{"sx":5,"sy":5,"depth":3,"w":{"0":0.7046603140146964,"1":-0.25466906327145433,"2":0.05206902912382918,"3":-0.24718706519591777,"4":-0.7885766000044999,"5":-0.19418173103407557,"6":-0.27430561054460767,"7":0.03545925402080316,"8":-0.07182975296206204,"9":0.11739505896631956,"10":0.3600904127669961,"11":0.1272732205158649,"12":-0.15747355914071534,"13":0.35781686801004503,"14":0.10178423237693217,"15":-0.06095875399923124,"16":-1.077020717046163,"17":-1.0275844357443797,"18":0.28560958524501817,"19":-0.4677826260875275,"20":-0.07575566498141756,"21":0.5519857873355788,"22":1.157984105159099,"23":1.164830907058067,"24":-0.35039667814062775,"25":0.09894910187108001,"26":-0.10295511277737145,"27":-0.2406113995989846,"28":0.2431475411791538,"29":-0.23793976827090074,"30":-0.20990027286242613,"31":-1.3546030873613144,"32":-0.9318285672294175,"33":0.6875796443073848,"34":0.15572972696136772,"35":0.4113071350677999,"36":0.43872484242250714,"37":0.7702666370946203,"38":0.7357227724869644,"39":-0.3338218115382864,"40":-0.16393023912750637,"41":-0.09102273356874035,"42":-0.13803814011955776,"43":0.23434491236757712,"44":-0.35546598398022217,"45":0.2446174483208207,"46":-0.39127713833424127,"47":-0.19618469623408244,"48":0.2747388368992302,"49":-0.13907414791532868,"50":0.1872164723718368,"51":-0.19841682383916526,"52":-0.010363408369253011,"53":0.17260806144969332,"54":-0.009942443689788095,"55":0.3404630202049458,"56":0.26654959331219336,"57":-0.37463667667412126,"58":0.20786664625814572,"59":-0.28574113773937343,"60":0.25106474945215496,"61":0.03381165577561847,"62":-0.057505042082569104,"63":-0.24623392157469334,"64":-0.07053042625138112,"65":0.16899431870037157,"66":-0.5574516649333794,"67":0.26105952682331596,"68":0.21271952512986148,"69":-0.08001111971046353,"70":0.5144616995530122,"71":0.00960762148191702,"72":-0.17785331289298728,"73":0.21568786791947256,"74":-0.07947855734000207}},{"sx":5,"sy":5,"depth":3,"w":{"0":-0.4358098516029894,"1":0.3171608426872557,"2":-0.14679882491188076,"3":-0.3497934994811424,"4":0.9241689543543847,"5":-0.6231997234441858,"6":-0.786850373279294,"7":0.6884377882128345,"8":-1.2624936848639474,"9":-0.3920621744817855,"10":0.6638431020925153,"11":-0.46567777963077683,"12":0.2369135425023918,"13":-0.11572029146718275,"14":0.4917946899241496,"15":-0.18910448925733195,"16":0.1875824874329177,"17":0.008478307115126357,"18":-0.05524410923835193,"19":1.2618324737758022,"20":-0.29049600924461677,"21":-0.00534617627417977,"22":1.5712740918925294,"23":-0.3311143683078066,"24":-0.45416504537303803,"25":0.5641842735868112,"26":-0.7107420139596475,"27":-0.2703427251331674,"28":-0.07422444050391613,"29":0.04360467878749261,"30":-0.09606727928459245,"31":0.1720731365767729,"32":0.29174518506766267,"33":-0.992712453629471,"34":0.09275753499533339,"35":-1.3055657659076942,"36":0.11857447481205548,"37":1.1268512280165364,"38":-0.398700770273746,"39":-0.06223894369509855,"40":0.5656123788692394,"41":-0.43435908243114785,"42":-0.10677608238347192,"43":-0.009256258536457175,"44":-0.0007991267366391388,"45":0.22751855403186316,"46":-0.06847703610886868,"47":0.7460937189889008,"48":-0.17613689260406803,"49":-0.11976828190543236,"50":0.06103034078941753,"51":-0.1395357102176988,"52":0.3410341341299041,"53":0.030445534364064324,"54":-0.5742026987614869,"55":0.06826667687924305,"56":-0.3183864581998191,"57":0.21124026771714968,"58":-0.13186121676483625,"59":0.19514082589925044,"60":0.2858087135857252,"61":-0.8427095141392311,"62":0.2535257242840425,"63":0.3005015300471243,"64":-0.1970267027673267,"65":0.34103169660519234,"66":-0.1817982392324002,"67":-0.3969480746007322,"68":0.27893885551229813,"69":0.06106770293102907,"70":-0.06635673978172701,"71":0.008561106963115106,"72":0.21659710160574178,"73":-0.247773139056506,"74":0.4098863552136231}},{"sx":5,"sy":5,"depth":3,"w":{"0":-0.17669210495308163,"1":0.24086052755463733,"2":0.017527824591238472,"3":0.20873598183347095,"4":-0.3370151770281542,"5":0.2036182248249599,"6":0.11703280868931443,"7":-0.4471723512912547,"8":0.1258139194154845,"9":0.3572853440672504,"10":-0.014412089583452132,"11":0.05167789513578146,"12":-0.19281469627473596,"13":0.10593643103811333,"14":0.013724111991187596,"15":-0.1766418586402461,"16":0.13654997201788846,"17":-0.20255026281279515,"18":0.2253266960101244,"19":-0.19845721179285306,"20":0.44018405638982755,"21":-0.4216704951051963,"22":-0.7254337350867195,"23":-0.23801579484365346,"24":0.5688723762996056,"25":0.3216270687641099,"26":0.3455099127688315,"27":-0.44941173387339983,"28":-0.1685054800348213,"29":-0.40844554224187785,"30":-0.22345753554160516,"31":0.498925864735498,"32":0.04486459517504745,"33":0.23611762105752235,"34":0.26361793908125886,"35":0.3401295791546262,"36":-0.7675376094480939,"37":-1.3886782419720665,"38":-0.682958818454549,"39":1.2451554356909809,"40":1.1486396566694113,"41":1.142757445847485,"42":-0.47062804913968553,"43":-0.02728508530306406,"44":-0.6233597294701084,"45":0.2197952600763357,"46":0.39857880937276735,"47":-0.13008191995089147,"48":0.03772084899520323,"49":0.04443416059322799,"50":0.4627591154857852,"51":-0.9024253810219196,"52":-1.4425462861273894,"53":-0.9012363848454445,"54":1.5989066190548094,"55":1.6178446502426764,"56":1.0188434641063013,"57":-0.8571922153915368,"58":-0.35985913799636526,"59":-0.9098207962405327,"60":-0.29745088970613487,"61":0.3486575982431928,"62":0.21734217604928155,"63":0.12307512818256523,"64":-0.09409354170475097,"65":0.10264618753617145,"66":-0.5265177943317854,"67":-1.0079088545368602,"68":-0.510589427613908,"69":0.9846586682852192,"70":0.9751102933918963,"71":0.7801292218879082,"72":-0.2720044936135902,"73":-0.22859234206820622,"74":-0.5469450505288206}},{"sx":5,"sy":5,"depth":3,"w":{"0":0.41194468453442995,"1":0.3868524242698954,"2":-0.1641814284754666,"3":0.3921344728781499,"4":0.3031584693003181,"5":0.13179972529544778,"6":0.6442804216373451,"7":0.601102993309478,"8":0.3869749004663427,"9":0.27222305789093143,"10":-0.12756717328463218,"11":0.03390628685394361,"12":0.4398290737196298,"13":-0.020745553447549633,"14":-0.2292825367536468,"15":0.2248949271707612,"16":-0.14891892335508086,"17":-0.16128751404037278,"18":-0.15750157202253917,"19":-0.06170653771832797,"20":0.037393160336801685,"21":-0.21516624995802439,"22":0.01673309049221413,"23":0.31321331055503904,"24":-0.31663557825211774,"25":-0.03499304398907133,"26":0.3328639943440772,"27":0.2013261893873236,"28":0.3716454147792266,"29":0.27777126243698874,"30":-0.20473147143415715,"31":-0.5097136496883907,"32":-0.4708624092968873,"33":-0.48315917528092117,"34":-0.2945226245434437,"35":-0.3906993828841191,"36":-0.28424323519536354,"37":0.10299531193642683,"38":0.2437616030050848,"39":-1.009669208717986,"40":-0.54827502109379,"41":-0.029881858050470726,"42":-0.7255196308098204,"43":-0.2952975687759021,"44":0.027576137447414394,"45":0.26621441915588134,"46":0.019327280057502293,"47":-0.17429023911304964,"48":-0.12450052710806261,"49":0.013710467997807263,"50":0.013979543228087414,"51":-0.0632029537895766,"52":0.37749609343252916,"53":0.5141632778086375,"54":-0.2852227794448835,"55":0.20830342007674252,"56":0.33511367637245365,"57":-0.08880956610373898,"58":-0.11941180138370212,"59":0.011914022291200654,"60":0.08606638084757207,"61":0.03724497551792813,"62":-0.06382026940522471,"63":-0.04240295123184235,"64":-0.29602132310252494,"65":-0.25891863256044184,"66":0.07037601780441669,"67":0.12285033146770079,"68":0.2386307448072658,"69":-0.20028869594227336,"70":-0.058954084810013775,"71":0.11566744393610032,"72":-0.29418115414742085,"73":0.1349106618301764,"74":0.11068191163670621}},{"sx":5,"sy":5,"depth":3,"w":{"0":0.0673139063610243,"1":0.01601269209086844,"2":0.053818796215001095,"3":0.01114388433702035,"4":0.024308367317395267,"5":-0.07142839613896067,"6":0.7366550960482258,"7":0.4805760394800448,"8":0.37176766666117794,"9":-0.33214312382555744,"10":-0.002995648639626824,"11":-0.49591745066425247,"12":-0.6995261015111175,"13":0.47859001573816395,"14":0.10290069017925943,"15":-0.2342573893756548,"16":-0.3918976730303616,"17":-0.2766662860272986,"18":-0.4953502993207515,"19":-0.9531115047580836,"20":-0.2654356624785313,"21":0.07179499003790202,"22":-0.1080197299794484,"23":0.2050977894126113,"24":1.463596282231357,"25":1.474874119570588,"26":1.3764210093352487,"27":-0.6146540582572616,"28":-0.4659090531075662,"29":-0.7612232397369556,"30":0.5497566352417607,"31":0.3533097893551908,"32":0.22026066593430124,"33":0.12156412992655548,"34":-0.019624300966950416,"35":0.18813189429289687,"36":-1.9532489339261327,"37":-2.161631568692482,"38":-1.4437281828444866,"39":0.3490047017540438,"40":0.0814506971547576,"41":0.35379364655265555,"42":0.875599214161452,"43":0.7809842408406888,"44":0.6440872907090908,"45":-0.046218163509795906,"46":-0.04132461549356793,"47":-0.4257998758290786,"48":1.077486461196827,"49":1.0119332362257856,"50":0.8204326438098724,"51":0.16425714988037032,"52":0.14684219723319233,"53":0.21305855771118823,"54":-1.2126029852168383,"55":-1.2930118970675546,"56":-0.879825243620423,"57":0.21374371769925238,"58":-0.05626348746601119,"59":0.29430597932512575,"60":-0.23335138340691883,"61":0.18142812052738438,"62":0.11835994590884694,"63":-0.14360687946790263,"64":-0.2800474174371167,"65":-0.575258396482291,"66":0.7348624248618635,"67":0.7130798522059157,"68":0.4626383037768095,"69":-0.12448632497268995,"70":-0.4343444068621931,"71":-0.06598739121300626,"72":0.13042981413657234,"73":-0.2948130138326111,"74":-0.028235047555758286}},{"sx":5,"sy":5,"depth":3,"w":{"0":-0.14675078572339295,"1":-0.04528511108705761,"2":-0.4449390774721379,"3":-0.4402187075020922,"4":-0.2117609661534824,"5":-0.4870505448431132,"6":-0.07571687658378815,"7":-0.026161073601585517,"8":-0.10855711813024894,"9":0.13828839479748992,"10":0.23438510591252087,"11":-0.021777995413383967,"12":0.16011968632167234,"13":0.13922633763907769,"14":-0.04385519710841187,"15":-0.25860506161047775,"16":-0.007449678970776856,"17":-0.3175430866052149,"18":-0.1301162388723136,"19":-0.18347601165712604,"20":-0.5448424928271876,"21":-0.15147937323458746,"22":-0.18629013601359473,"23":-0.1984051425537518,"24":0.2115620003371108,"25":0.10395171703541124,"26":0.25139243672638606,"27":0.20657737031616852,"28":0.20940940416263454,"29":0.14732977408158798,"30":0.09012435971183189,"31":0.08298320233683268,"32":0.1474425382308989,"33":0.3253368175423378,"34":0.26147682106625414,"35":0.18778090931416433,"36":-0.0037621902261931847,"37":-0.16098467729184973,"38":-0.1596665030338724,"39":-0.15404387383259335,"40":-0.5005708180249138,"41":-0.001847201669353813,"42":-0.00820264345598852,"43":-0.009403553312631839,"44":0.25154855473228127,"45":0.29474679550492494,"46":0.22123325128096222,"47":0.2660021834332259,"48":0.222033638707148,"49":0.2834454556862237,"50":0.6023537950137364,"51":0.3704357115466097,"52":0.19258054936128982,"53":0.4666258989521425,"54":-0.3184106579065095,"55":-0.4913991911141948,"56":-0.17433854132567195,"57":-0.46998564979253654,"58":-0.577872247997567,"59":-0.16961467272830852,"60":0.049101034495999146,"61":0.15680789612944646,"62":0.25566027203048125,"63":-0.06543330121482781,"64":-0.022884562896702217,"65":0.3284621798694334,"66":-0.38988599463094276,"67":-0.3084297012404421,"68":0.20082026140843126,"69":-0.48553814202069234,"70":-0.47678668036495797,"71":0.42846483876456287,"72":-0.3107466038473209,"73":-0.2645727399776211,"74":0.5955532068095377}},{"sx":5,"sy":5,"depth":3,"w":{"0":0.0900664067333291,"1":0.3482899268901159,"2":-0.09124468631667573,"3":0.31119865917327727,"4":0.4048770122833309,"5":0.08167358298349588,"6":0.1130769108538176,"7":0.09832021624296688,"8":-0.10620775756698941,"9":-0.2894992188212531,"10":-0.42897619288704014,"11":-0.08078252330060341,"12":-0.14522387031119421,"13":-0.15150302446253092,"14":0.054731569321356775,"15":0.04734572679428153,"16":0.015771287097083968,"17":-0.24218757418732892,"18":0.08748304541428795,"19":0.2937556393006465,"20":-0.03923275139727355,"21":0.35553915057107216,"22":0.24702051451189308,"23":0.24061251616502008,"24":0.00574909689950784,"25":-0.15524539578056024,"26":-0.1161423482141887,"27":-0.30963120948008804,"28":-0.4546455669016577,"29":0.1791006786652694,"30":0.1989873800710585,"31":0.08347039230999677,"32":-0.4822193081519006,"33":0.1287414749676473,"34":-0.029873681846234998,"35":-0.14139292791743235,"36":0.22561236196437487,"37":0.16594208478835898,"38":0.27175675137615957,"39":-0.06649208277699002,"40":-0.1532579711560234,"41":0.33430147628943,"42":-0.47390309366473704,"43":-0.5052199580527318,"44":0.2641126444311317,"45":0.15765126210248218,"46":0.19977984770859528,"47":-0.45731894073883517,"48":0.22702803822828366,"49":0.11264576934699659,"50":-0.33888798003623805,"51":0.23723859937674055,"52":0.10328400215779976,"53":-0.08604560935491289,"54":0.01344103029849347,"55":0.11216251926060516,"56":0.5192121866480177,"57":-0.7320029368453581,"58":-0.3751278882385175,"59":0.3230689619854557,"60":0.1522980417557595,"61":0.11988889941740938,"62":-0.475305649333673,"63":0.11241712209322324,"64":0.05504978924550159,"65":-0.34892962558609036,"66":0.2899967782598608,"67":0.06572241750768802,"68":-0.09977727174316592,"69":-0.004207388393727634,"70":0.18011226524322405,"71":0.21962894136741884,"72":-0.5954835352163479,"73":-0.1398740720170591,"74":0.5496664338268177}},{"sx":5,"sy":5,"depth":3,"w":{"0":-0.06853768383571256,"1":0.06917711443011217,"2":-0.4057195493886628,"3":-0.22601778506997006,"4":0.01861303659854645,"5":-0.34755190243434386,"6":-0.02280649058909892,"7":0.12001773899383096,"8":-0.2760285965343964,"9":0.8144654092899594,"10":-0.05969618096912559,"11":-0.44478269750023397,"12":0.5720519079432917,"13":0.002627557829308365,"14":-0.6039729342771293,"15":-0.20577344303383968,"16":0.0968697925674996,"17":0.3337713076140284,"18":-0.29901320636764167,"19":0.46223614724464795,"20":0.7199351730793838,"21":-0.12802963794661562,"22":-0.1338874665605224,"23":0.25337739051434927,"24":0.278444463247902,"25":0.1365382950619293,"26":0.1916865449724245,"27":0.30623945598309577,"28":0.061517308555890375,"29":-0.4884580475556932,"30":-0.579718116048094,"31":0.12472853741328292,"32":0.23154510827323405,"33":-0.6522472038366344,"34":0.10606705292505254,"35":0.3505380036953195,"36":-0.9571828148448263,"37":0.0522826774920533,"38":0.5182649959504809,"39":-0.17724013356322815,"40":0.18747609311334398,"41":0.09183958711827822,"42":0.3822816060899002,"43":0.04655841305350662,"44":-0.2860681125816011,"45":-0.48140113445665267,"46":0.11480597128462806,"47":-0.03508491444769289,"48":-0.5911697480230628,"49":0.059588026531848554,"50":0.7144556231579751,"51":-0.7183147560055001,"52":0.004213185098075322,"53":0.30009588110860386,"54":-0.2726441027243869,"55":0.0282152049335647,"56":0.2575127990509173,"57":0.19526996875535949,"58":0.22005845466812712,"59":-0.2413066496908795,"60":0.16818136042586396,"61":-0.08738814528552392,"62":0.19279213951383792,"63":-0.4874268351295624,"64":-0.1377239310655226,"65":0.5060122039483321,"66":-0.40852402518819825,"67":-0.4117765289132205,"68":0.5811822337255153,"69":-0.1442478864650083,"70":-0.1696184263245259,"71":0.13811644563866013,"72":0.3156261249328038,"73":0.055118558275563466,"74":-0.04387065849086241}},{"sx":5,"sy":5,"depth":3,"w":{"0":-0.2738198010726945,"1":0.030657913125872988,"2":0.3663324612908889,"3":0.08840196745515126,"4":-0.04940560295838658,"5":-0.3150900780449767,"6":0.5503290186859289,"7":0.176689035792468,"8":-0.24200128560589912,"9":0.6874052485393176,"10":0.09412985364540395,"11":-0.019524756428202474,"12":-0.02625013569572053,"13":-0.08869280608198435,"14":0.18125861744990282,"15":-0.09432299222238072,"16":0.09971860043439358,"17":-0.2441491040975559,"18":0.35911858274206027,"19":-0.24263126815893227,"20":-0.6029767238708289,"21":0.9079382874383172,"22":0.4618162976685446,"23":-0.036392592771629054,"24":0.07415632069049057,"25":-0.06451306798422933,"26":-0.08602869803946679,"27":-0.43833394366363554,"28":-0.14047852385173287,"29":-0.0030247629332761415,"30":0.23189766726068817,"31":-0.5001987744811576,"32":-0.6505495692890393,"33":0.9158187193029023,"34":0.2308652555357616,"35":0.04849329859248311,"36":0.7336782944997505,"37":0.2775197462451447,"38":0.302102421591136,"39":-0.7579516113346769,"40":-0.8323071365392405,"41":-0.2961662440857714,"42":-0.30369637539086464,"43":-0.32826835493007117,"44":0.33023908830051674,"45":0.47062693778258197,"46":-0.14561535107447543,"47":-0.08806009845124813,"48":0.5131245306897078,"49":0.4285897137641293,"50":0.5807904668823952,"51":-0.6572990260247751,"52":-0.5234211293820277,"53":-0.3154779806709408,"54":-0.9304909188823762,"55":-0.7561829799508087,"56":-0.21726348395038833,"57":-0.048888675657560235,"58":0.10523895855220207,"59":0.5578981605827359,"60":0.23133030059620463,"61":-0.060648692564203806,"62":-0.15156177947131821,"63":-0.27198737931788186,"64":-0.3407798796201733,"65":-0.06768900155745063,"66":-0.8908665568454155,"67":-0.19209312489214533,"68":-0.14125850268250092,"69":-0.01211546160696225,"70":0.32808636864281965,"71":0.6592872662047395,"72":-0.060863431467232644,"73":0.26974317148018284,"74":0.44029168049312095}},{"sx":5,"sy":5,"depth":3,"w":{"0":0.017307643112609235,"1":0.007505883027795286,"2":-0.0542176715942804,"3":-0.13563119947195995,"4":-0.2089636982594807,"5":-0.39594991238999183,"6":-0.8722357678631812,"7":-0.8985878574396077,"8":-1.2760999680142222,"9":0.2630351432983907,"10":0.2833321430927391,"11":-0.28885149277416083,"12":0.3057639331023675,"13":-0.052148832522264175,"14":-0.013177021508016213,"15":-0.036578992723336354,"16":0.12783503038157334,"17":0.01292473962660749,"18":-0.1577925508552522,"19":0.18728324804585678,"20":-0.18658766819630607,"21":0.9551847810953635,"22":1.4282595275086583,"23":1.0897447366715751,"24":0.9371702729576348,"25":1.212067978982053,"26":1.179060789509334,"27":-0.3704049761827594,"28":-0.5111639752813752,"29":0.007327576822565595,"30":-0.12813980453405205,"31":0.3041463456240783,"32":0.048743379871727666,"33":0.22130378851031418,"34":0.5175026574521867,"35":0.16388315556071123,"36":0.2930122897030128,"37":0.5315131307434643,"38":0.4929746925123023,"39":-1.2364695029557577,"40":-1.1002337567029923,"41":-0.8140385372496373,"42":-0.2700319407724064,"43":-0.397639959999919,"44":-0.05112695749647094,"45":0.03623323040556846,"46":-0.10062085121502544,"47":-0.005445027497390078,"48":-0.10586943703722719,"49":-0.05978998631086098,"50":0.045144913001962536,"51":-0.7607161044156926,"52":-0.8574592992785438,"53":-0.5090031988139327,"54":-0.18482413692581784,"55":-0.3458097066577491,"56":-0.11084515075612353,"57":0.5401242702427472,"58":0.35872354032434234,"59":0.6345688717668505,"60":0.17158119024732996,"61":0.011813044475124155,"62":0.019599680903838703,"63":0.2584163024904183,"64":-0.046317612304558824,"65":-0.009212251723667695,"66":0.15565989718387166,"67":-0.21474336346080175,"68":0.05567597728686567,"69":0.4293404425136627,"70":0.26891903901502573,"71":0.28124659378853195,"72":-0.06297757177367079,"73":-0.361568522581273,"74":-0.28716385381021065}},{"sx":5,"sy":5,"depth":3,"w":{"0":0.12878160427824617,"1":0.11443443967310074,"2":-0.06149812242610411,"3":-0.2748269756522958,"4":0.0028773798635129437,"5":0.30401679945317034,"6":-0.12943786731965967,"7":-0.17035934900048863,"8":0.21006025076867724,"9":-0.04058387408689466,"10":0.07591066038242004,"11":0.22374286762123177,"12":0.10155184442747543,"13":-0.06595149578403238,"14":0.27254659177910523,"15":-0.226290975694157,"16":-0.012860663736700565,"17":0.29056191371495366,"18":-0.03381856331746161,"19":0.1116130181104392,"20":0.5580072444974774,"21":-0.5475812542006951,"22":0.0741705873143832,"23":0.252785648069482,"24":-0.507978456614477,"25":0.013829848262589426,"26":0.05216151743585238,"27":-0.17909998064381485,"28":-0.20897365240154295,"29":-0.17142521576732997,"30":-0.30892169575287487,"31":0.0601192495159872,"32":0.36421321495249953,"33":-0.6850573216432081,"34":-0.33424709389243873,"35":-0.11727448233255344,"36":-0.8793833346240847,"37":-0.5341976879426684,"38":-0.4077184604658407,"39":-0.4334700889231684,"40":-0.17440420902340298,"41":0.19247946260837975,"42":0.048765171972145,"43":0.09533144940962321,"44":-0.05536642646557357,"45":-0.29131857360355995,"46":-0.1851597500973518,"47":-0.05426155197717219,"48":-0.20075097142011403,"49":-0.12655670955579992,"50":-0.28313208603709844,"51":0.2035991997743132,"52":0.1662856756594589,"53":0.2580747624011845,"54":0.29770349646198224,"55":0.3962534210341722,"56":0.2902329521894519,"57":0.33106081835931866,"58":0.1277753416850791,"59":-0.24253969061480796,"60":0.37893680863291845,"61":-0.12955498032220833,"62":-0.09562195069624446,"63":0.9375852644948972,"64":0.18093989437372734,"65":-0.2588362140181895,"66":0.8692117838339445,"67":0.3321747712464474,"68":-0.42774358528316087,"69":0.7046645851852973,"70":0.10353413599338909,"71":-0.5136483007572088,"72":0.6801901705653735,"73":-0.02049363258976996,"74":-0.38184721009804734}},{"sx":5,"sy":5,"depth":3,"w":{"0":-0.5303660962684041,"1":-0.3672392555769285,"2":0.24264519005860313,"3":-0.3215770159690965,"4":-0.6537254694915117,"5":0.06758111011617751,"6":0.41873965687216574,"7":-0.022586904962255648,"8":0.5044742831127058,"9":0.22579645744346857,"10":-0.41052573844969403,"11":-0.18676824945754694,"12":0.16930341703733934,"13":-0.014927156950535703,"14":0.0553513395357918,"15":0.1108838701624046,"16":0.1922812878074269,"17":0.3951616061729794,"18":-0.4165004076141397,"19":-0.6874040402944208,"20":0.019629551558934834,"21":0.24466321283571124,"22":-0.0637940658851802,"23":-0.1168864080530085,"24":0.6433514208596228,"25":0.062050515721088224,"26":0.4472138912533697,"27":0.5324207636164912,"28":0.10892618577237657,"29":0.17066771593174695,"30":0.19586313594942675,"31":-0.1691869220932614,"32":0.022254525227244602,"33":-0.24590237082839833,"34":-0.16334450052163296,"35":-0.33385794902149246,"36":-0.4179697507130962,"37":-0.5028965637488363,"38":-0.5707439310630387,"39":-0.2225119670324,"40":-0.35388542893440694,"41":-0.30329248120631896,"42":-0.24294239526336514,"43":-0.647462535803854,"44":-0.10144303976554803,"45":0.07925771663567197,"46":0.3792888494855882,"47":0.15928434854486695,"48":0.18342228816210804,"49":0.035372958074479204,"50":-0.011180162837513547,"51":-0.0405004058730279,"52":-0.1595035458727342,"53":-0.32633844624627767,"54":-0.18921656757721578,"55":-0.26599060111947653,"56":-0.4522027107100558,"57":-0.28293031162986676,"58":-0.4521005270842184,"59":-0.20741513288306898,"60":0.17582482717824474,"61":0.17957557432622173,"62":-0.09952829820035042,"63":-0.034704171533771214,"64":0.02160031060140275,"65":-0.09353367071994094,"66":-0.2760435796150383,"67":-0.0597390572434851,"68":-0.3596516673493784,"69":0.1570451510946012,"70":-0.023092822512791912,"71":0.18932767307120069,"72":0.24877886944167263,"73":0.022614623905948476,"74":-0.15370421197910883}},{"sx":5,"sy":5,"depth":3,"w":{"0":-0.2861240814410368,"1":-0.05749542429776552,"2":0.12134777716966176,"3":-0.4625507871928035,"4":-0.3265750656163895,"5":-0.25271948630285235,"6":-0.38236359935058056,"7":-0.18301117991692875,"8":-0.2922051586797871,"9":-0.02085658702799539,"10":0.05820694451411926,"11":-0.22473212961658945,"12":-0.13921654698251124,"13":-0.03857434398165702,"14":0.08195414758098274,"15":0.4525916203635148,"16":0.25203949703690454,"17":0.4344480809279917,"18":0.4333666271243906,"19":0.3503747617423032,"20":0.45797566883536633,"21":-0.37413213288175534,"22":-0.16763029075988892,"23":-0.35804959018257243,"24":-0.3288307421744776,"25":-0.34082880637401103,"26":-0.6743578495351558,"27":-0.23114812239904473,"28":0.025968483443600043,"29":-0.19958643071608528,"30":0.29189472168705516,"31":-0.18849085039718785,"32":-0.016047407658478563,"33":0.5157618093096564,"34":0.4060480301638422,"35":0.4256569145938395,"36":0.5987788774697339,"37":0.3987476830218213,"38":0.2995907917994057,"39":0.020836364109679074,"40":-0.1564543981349766,"41":-0.35461316518013497,"42":0.015092127120776282,"43":-0.12702902171068697,"44":-0.7252011059226793,"45":0.07800766671410382,"46":-0.12361774845965576,"47":-0.04234146564732529,"48":-0.10100331341168321,"49":0.011941276456707105,"50":0.010993581369207653,"51":0.2727171776233509,"52":0.07051400868266834,"53":0.3820695379637294,"54":0.4646915962191683,"55":0.15310827956186163,"56":0.3465990626719463,"57":0.3936749839244748,"58":0.2313449472059379,"59":-0.09618309795943894,"60":-0.30912476132315875,"61":-0.2280926003828448,"62":-0.0325066558072813,"63":-0.3356232527446794,"64":-0.08843083494430012,"65":0.17605475627118677,"66":-0.22603788904889147,"67":-0.1713424429739865,"68":0.13804639064896781,"69":0.011705894334822577,"70":-0.12723660975320075,"71":0.09666440543046743,"72":0.12768498827475477,"73":0.00368343566436643,"74":0.027710770894516724}}],"biases":{"sx":1,"sy":1,"depth":16,"w":{"0":-0.33820854068734874,"1":-0.1370066893816896,"2":-0.5937688876330416,"3":-0.21398312468952163,"4":-0.22612057082786718,"5":-0.16789337797151196,"6":-0.38549292362904186,"7":-0.24899343299655827,"8":-0.41503699459341015,"9":-0.1283159159245526,"10":0.03430957223998789,"11":-0.2773205239857795,"12":-0.2353408058638072,"13":-0.19267692927089136,"14":-1.3621419573854052,"15":-0.2976399359123632}}},{"out_depth":16,"out_sx":32,"out_sy":32,"layer_type":"relu"},{"sx":2,"sy":2,"stride":2,"in_depth":16,"out_depth":16,"out_sx":16,"out_sy":16,"layer_type":"pool","pad":0},{"sx":5,"sy":5,"stride":1,"in_depth":16,"out_depth":20,"out_sx":16,"out_sy":16,"layer_type":"conv","l1_decay_mul":0,"l2_decay_mul":1,"pad":2,"filters":[{"sx":5,"sy":5,"depth":16,"w":{"0":0.19251015449906403,"1":0.10726649707655006,"2":0.06301445615747354,"3":0.029276339778658428,"4":0.18283527798559557,"5":0.06349809030063726,"6":0.18933038226532764,"7":-0.11015233313495143,"8":-0.1394845872585987,"9":0.06788622350827368,"10":0.14666958527815213,"11":0.21284362823594388,"12":0.17281887181023137,"13":0.05136496322119399,"14":-0.24622105194283206,"15":-0.09133231011136048,"16":0.002848334148154034,"17":0.3071077297149881,"18":0.10612746844326071,"19":0.2590814091467954,"20":0.026715482042917623,"21":0.1292757674925673,"22":-0.103502001816336,"23":-0.025048239829910165,"24":0.04676774761493609,"25":0.025295103228520334,"26":0.06380832902284435,"27":-0.11316597503691112,"28":-0.17039365224986766,"29":0.20228299710962444,"30":0.04739840027104743,"31":-0.18554377768989863,"32":-0.1478297704552265,"33":0.24065404701374415,"34":0.06366623419227802,"35":-0.009817021835057895,"36":0.09635373078043903,"37":0.06956829952820263,"38":-0.12679028990116123,"39":-0.19666781064225064,"40":0.21247697501381574,"41":-0.014195617264232147,"42":0.01858109975108067,"43":0.3685339035527495,"44":0.018452964863343992,"45":-0.05752137906931173,"46":0.3209052264140854,"47":-0.2738988233254042,"48":0.03442498311563513,"49":0.07565506559735674,"50":0.09136402872519063,"51":0.014912247315557299,"52":0.13234143670565043,"53":0.14486263905309268,"54":-0.3059308255798664,"55":-0.2184102705487436,"56":-0.04034255921852951,"57":-0.015787227780214963,"58":0.18559132577448822,"59":0.3299300196754125,"60":-0.11099314347700223,"61":-0.0157154280997946,"62":0.13759523829713066,"63":-0.17645535907570242,"64":-0.03936270111153045,"65":-0.17543193625585304,"66":-0.08817228958436922,"67":0.05203942835753003,"68":0.09004910255107425,"69":0.021186929926640268,"70":-0.09456742211688493,"71":-0.12300606513706663,"72":-0.2674893143452855,"73":-0.09963479260100894,"74":0.07160754122339708,"75":-0.1387367313955183,"76":-0.1485474101791335,"77":-0.07285165805810541,"78":0.0816678145728756,"79":-0.1192485229809805,"80":-0.15088235284401105,"81":0.20711216944907293,"82":0.15305078710950193,"83":0.05617299966971638,"84":0.2708206910959453,"85":-0.12118220265535438,"86":0.10135740654783205,"87":-0.14053538107301317,"88":0.11807755106745196,"89":-0.07352749133081914,"90":-0.20651318101677507,"91":0.14429698506731953,"92":0.30105304874032646,"93":0.16876081928774933,"94":0.30667030887686575,"95":-0.26685583137140606,"96":-0.25278077225022255,"97":0.11239468278856418,"98":0.0675100403616843,"99":-0.09597096483002236,"100":-0.029134120991719636,"101":-0.20399182227967003,"102":-0.1729400804333215,"103":-0.5292754810079936,"104":0.12809241506639962,"105":-0.08361207318995573,"106":-0.18711414898154657,"107":0.5415390713618418,"108":0.08682157170168775,"109":-0.06557622816220499,"110":0.3151169349488437,"111":-0.4824966410979807,"112":-0.16780292569179273,"113":-0.183175520678241,"114":-0.11575072797902766,"115":-0.12040759201152665,"116":-0.12638923271222668,"117":0.03200753993427445,"118":-0.18077974516592277,"119":-0.40807099067610014,"120":-0.08011046583291974,"121":0.03446951990934382,"122":-0.20786107893046565,"123":0.37338548086112844,"124":0.0012399649828180573,"125":0.25704004079702164,"126":-0.036270581026142834,"127":-0.3064728213258868,"128":0.02302324034403387,"129":-0.007344747305824169,"130":-0.12628940045827078,"131":0.4945551463808334,"132":-0.18029279795083686,"133":-0.13748165316431482,"134":-0.09940508937004845,"135":-0.11436135390205411,"136":-0.1458307056306474,"137":0.030538674286772215,"138":0.17749465891997648,"139":-0.24795442167208126,"140":-0.03902493023878077,"141":0.04995515429428185,"142":-0.19949569172774217,"143":-0.06528529037800941,"144":0.09422426123388594,"145":-0.06341555521209839,"146":-0.11555308225873098,"147":-0.08172757050539944,"148":0.06775779504908507,"149":-0.03920776536374098,"150":0.2064155468418986,"151":-0.17272410728355736,"152":-0.14237978538411783,"153":-0.016910545012630167,"154":0.16449424895464604,"155":-0.17989199889794372,"156":-0.16145692095039857,"157":-0.3554907139289272,"158":-0.16231433505152656,"159":-0.04200292603470177,"160":-0.12062460488310371,"161":0.11037946457968471,"162":0.1137951813514548,"163":-0.001836699411037485,"164":0.2937184544626269,"165":-0.267244022484259,"166":0.09073015090602919,"167":-0.23769742194482152,"168":0.25386273123305997,"169":0.10731771695408729,"170":-0.3148205732605754,"171":0.24035663602846993,"172":0.35818648221117083,"173":0.5932692390823273,"174":0.06304203505147629,"175":-0.23931588598020706,"176":-0.188754094152172,"177":-0.035309097400154435,"178":-0.06108345516043153,"179":0.14715228305421277,"180":-0.23353810536133635,"181":-0.2639521361487398,"182":-0.14664594724548444,"183":-0.8004189341404143,"184":0.08783782355431888,"185":-0.028133126478042246,"186":-0.16845297646574747,"187":0.435111101895395,"188":0.2919656363676559,"189":0.41628398074980466,"190":-0.13594042464336786,"191":-0.4699664883011031,"192":0.15962096191433717,"193":0.09128734503989684,"194":-0.0427061169620723,"195":0.6973310472901608,"196":-0.2619954234418816,"197":-0.18490687302437286,"198":-0.07872752292049326,"199":-0.4943093784286439,"200":-0.05833467006254106,"201":-0.04181518579572646,"202":0.1798347763155023,"203":-0.031864242690284934,"204":0.04375609787536557,"205":-0.09389281713899712,"206":-0.22490696808822738,"207":-0.37562504313044826,"208":0.03490681924769127,"209":0.15374497372101367,"210":0.02983562947495692,"211":-0.09283698546922421,"212":-0.04078456430992775,"213":0.0006857550691873861,"214":0.03408758439559549,"215":-0.25954462288620717,"216":-0.07674511519177958,"217":0.02273419429598599,"218":0.0538948437436837,"219":0.20130995776319133,"220":-0.19844311530759515,"221":-0.2621157314339471,"222":-0.24128048192314966,"223":-0.34261207923972675,"224":0.0714668099821449,"225":0.12166592826143434,"226":-0.1695476919740745,"227":-0.03522257757550231,"228":0.12692044931209123,"229":0.08125530781637076,"230":0.18391874135423117,"231":-0.01361646627061819,"232":-0.14299860374468895,"233":0.09814780460741424,"234":-0.05898389514373538,"235":0.2364262487542356,"236":-0.20084856206039367,"237":-0.2675206388944556,"238":-0.17628088476151835,"239":-0.24182643115440375,"240":-0.1950402942682522,"241":-0.014078834019773815,"242":-0.25431541635934873,"243":0.06218363782620426,"244":-0.29426864949253173,"245":0.045134821004488984,"246":-0.08684600483889336,"247":0.0006321132117581706,"248":0.16611037331068856,"249":-0.17901941275129432,"250":-0.13895226551999015,"251":0.09601153003934564,"252":0.2834086966881335,"253":-0.17476851354388492,"254":-0.2632972864233244,"255":-0.024070402121630686,"256":0.10200594281678392,"257":-0.11890037996107505,"258":-0.04981039742621337,"259":0.333822377713011,"260":-0.3086406775737561,"261":-0.1985348528383688,"262":0.06327022316201261,"263":-0.11438549211714506,"264":-0.1350881771603225,"265":-0.09310041684532372,"266":-0.0790310257346015,"267":-0.2087985790263963,"268":0.1262232544572064,"269":-0.13730922053352856,"270":-0.043515735602951376,"271":-0.1685656960628799,"272":0.13786596413752403,"273":0.22595242693551068,"274":0.055027435474581374,"275":-0.18631072011766553,"276":-0.09992017703299809,"277":-0.1547628595399472,"278":0.0023727440897587312,"279":-0.07541624590259959,"280":-0.35310587583933634,"281":-0.05420106470899852,"282":0.06136884352663914,"283":0.07484059142740843,"284":0.14969253710905933,"285":-0.032154741999187095,"286":0.02547622783231034,"287":-0.22979906245001935,"288":0.18942710628122533,"289":0.10217370857168236,"290":0.07016606745606851,"291":-0.26347502777645426,"292":0.010106386238146817,"293":0.051969708795804835,"294":0.02378326583433236,"295":-0.12156106167246108,"296":-0.017385591551077578,"297":-0.028188065238453967,"298":0.08666198089322659,"299":0.15124688495495167,"300":-0.39543464047996446,"301":0.09418536798209014,"302":-0.060414170158898696,"303":-0.2500252112434789,"304":0.261655510370842,"305":-0.001918558162859435,"306":0.04564412019166777,"307":0.00711608194739956,"308":-0.04876939579265167,"309":-0.05596596235005694,"310":-0.10665338246796434,"311":0.020161100876991023,"312":-0.1165913409109085,"313":-0.04158356173919215,"314":-0.005378176706530607,"315":0.08421955192742701,"316":-0.32331074661538034,"317":-0.203024656700174,"318":-0.07134670874822295,"319":-0.15219627247076387,"320":-0.18739925184104272,"321":-0.06457417799892982,"322":-0.05398910414930483,"323":0.28019709799453896,"324":0.07094724804324487,"325":-0.09263469525162649,"326":-0.11584997134443567,"327":0.1030325180112339,"328":0.34223641542998395,"329":-0.05890963997885653,"330":0.1260252152728965,"331":-0.2079066234684026,"332":-0.012808027267864374,"333":-0.2085734319980549,"334":0.29683485770344054,"335":-0.039170444435564604,"336":0.13624704892174028,"337":-0.14224320244796015,"338":-0.009979666011413988,"339":-0.0029553891262473165,"340":0.08859000615736469,"341":-0.08247881492100924,"342":-0.007309817653533657,"343":0.442812310534671,"344":0.1086125099591207,"345":-0.1085975972674021,"346":0.04447697395058298,"347":-0.2966365004245482,"348":-0.1583082591359803,"349":0.008877352878222527,"350":0.1837020332509289,"351":0.1496151850525863,"352":0.4096956157130748,"353":-0.051118356506833114,"354":0.13334704650357526,"355":-0.1811145126209087,"356":0.07819956762875818,"357":0.05674403296886057,"358":0.1505861870710968,"359":0.20822852318559246,"360":-0.0026211036780544807,"361":-0.12074213571327791,"362":0.015556600614739942,"363":-0.027154311275590138,"364":0.023785526748486947,"365":-0.039335209871660504,"366":-0.12647172997385894,"367":0.17009079746173877,"368":0.1035179437227106,"369":-0.028678784155909815,"370":-0.06468083771897756,"371":-0.096575170283738,"372":0.07257674483632845,"373":-0.008501182308113555,"374":0.07281272273481909,"375":0.07284185915442506,"376":-0.07998468237096978,"377":-0.0636651728781333,"378":0.010827297923394825,"379":-0.03681062028050531,"380":0.011112551679807669,"381":0.012615251606741892,"382":0.01522146139431515,"383":-0.16277648519198576,"384":-0.03857711772600737,"385":0.061293364605480995,"386":-0.0075492034967994705,"387":-0.03959091766707683,"388":-0.0489351993078696,"389":0.04477297745026719,"390":-0.1320083448382043,"391":0.035992811599056034,"392":-0.017270578203771838,"393":-0.09616786991093443,"394":-0.16841427984987575,"395":0.1895611280392777,"396":0.06436332476888254,"397":-0.022554854552368414,"398":0.05179079727692517,"399":-0.03779484379717905}},{"sx":5,"sy":5,"depth":16,"w":{"0":0.1324153094220784,"1":0.3693092312071244,"2":0.24123952714683952,"3":-0.03082846656861436,"4":0.03478703971463396,"5":0.1373946284055833,"6":-0.03943040157142602,"7":0.23593579708096693,"8":0.07218409212906425,"9":0.27097659306062016,"10":-0.20709426800797825,"11":-0.02795869601709165,"12":0.05181359940152012,"13":-0.1554153204100967,"14":0.07430413733255013,"15":-0.0495284030268357,"16":-0.015672876562825698,"17":-0.1157160373507134,"18":0.4775476460011302,"19":-0.40365977693653105,"20":-0.07810629325689745,"21":0.048599985579971486,"22":0.0746999780902166,"23":0.04695027221765072,"24":-0.10003762047355395,"25":0.1566913375767724,"26":-0.07084701328458834,"27":-0.155602983955709,"28":0.07591255094919595,"29":-0.1575000495312961,"30":-0.05019918032256684,"31":0.08473774048740337,"32":0.011022699900797591,"33":0.053065840072042895,"34":0.47121601988126044,"35":-0.48399582592431084,"36":0.01727811668193446,"37":-0.09297007025307234,"38":-0.010825450376090583,"39":0.06119137547546725,"40":-0.22031916243584504,"41":-0.1059312357036309,"42":-0.02792290968945911,"43":-0.023292916826740694,"44":0.01861653794461075,"45":-0.0271248084922287,"46":-0.0429498842481623,"47":-0.0283073824785994,"48":-0.03737521150573592,"49":-0.1867205661964629,"50":0.2927054706823438,"51":-0.18246633202808588,"52":-0.05011922224542909,"53":-0.19320971746593318,"54":-0.02190773402929801,"55":-0.019577921820146872,"56":-0.17655709388208307,"57":-0.18818872375898177,"58":0.11652760475656901,"59":-0.040595882381112454,"60":-0.012091635589544885,"61":-0.024050193134924826,"62":0.110175358442632,"63":-0.11669803418835638,"64":0.22145926350889572,"65":0.01128128727287733,"66":0.28263284495113555,"67":0.06681047667629612,"68":-0.13726759900476554,"69":0.005743958481380595,"70":0.045910259505191696,"71":0.09367574172627371,"72":-0.3213613759825912,"73":-0.29784421031719394,"74":-0.045678782117305604,"75":0.2674982249209755,"76":-0.022561821827200765,"77":0.12814200397839884,"78":0.11183052588625605,"79":-0.05933031900093968,"80":-0.1011742803774824,"81":0.45130870204167123,"82":-0.13023614849679255,"83":-0.06187510461312914,"84":-0.16777599862660939,"85":0.14691087584197499,"86":-0.17479168915640445,"87":-0.08143264349858714,"88":0.16449620528779446,"89":0.36847365347529554,"90":-0.1927984511911944,"91":-0.032694477712180155,"92":0.02222111594112409,"93":-0.06490655260598414,"94":0.11955271228733433,"95":-0.10460815338857699,"96":-0.19220335148590556,"97":0.09476993732207056,"98":-0.048462029662041724,"99":-0.37645952390361276,"100":0.02842512026692499,"101":0.1358780756858222,"102":0.3486648872743071,"103":-0.09807963560175313,"104":-0.04458380254545712,"105":0.07968657237776085,"106":-0.13043482121433622,"107":-0.0843001542898378,"108":0.1646220488846918,"109":-0.022017990042500685,"110":0.059244747259554094,"111":-0.14315153140677622,"112":-0.23337630574332738,"113":-0.02180540146210604,"114":0.10316841787863146,"115":-0.3217247596846462,"116":0.13318029351613697,"117":0.15907801563402804,"118":0.4951294746567351,"119":0.011773554436378479,"120":0.07859347452521645,"121":-0.05037473148458506,"122":-0.10282399839727026,"123":0.10254385137091596,"124":0.11375689586365453,"125":-0.024260750682599707,"126":0.20931686923448015,"127":0.04101604059973513,"128":-0.3979319478303781,"129":-0.13210726869527398,"130":0.08764056553789377,"131":-0.21378962183485226,"132":0.050886858368717015,"133":-0.24877628849712985,"134":0.29722308987865975,"135":-0.026084371315600423,"136":-0.10414745570912334,"137":-0.293016827496082,"138":-0.08610317640615169,"139":-0.009019824346939606,"140":0.22924183687339675,"141":-0.017573024873087074,"142":0.09114540867697231,"143":0.07385832110061699,"144":-0.1621507768968324,"145":-0.21873046408699515,"146":0.21046087969216715,"147":-0.1047965969902505,"148":-0.015960717043247256,"149":-0.16793443374862335,"150":0.22195175329494948,"151":-0.15852935732870124,"152":-0.18396429145106732,"153":-0.3065234333179938,"154":0.10517710780418353,"155":-0.001940723063846341,"156":0.05368546496204497,"157":0.20285329124837068,"158":-0.0466554784412686,"159":0.19886687328918268,"160":-0.044519662829188386,"161":0.05931599786307982,"162":-0.37972032102327646,"163":-0.004393503344114084,"164":-0.07574038265960614,"165":-0.06703769816043038,"166":-0.04120436165236697,"167":-0.1254715931187872,"168":-0.028643729791925494,"169":0.33645538716749596,"170":0.14534109509350057,"171":-0.12015973628438308,"172":0.08624511419360276,"173":0.2182982561659963,"174":-0.1580520601448496,"175":0.22655532037824333,"176":-0.1744378451411003,"177":0.21549169661165737,"178":-0.19079894005668344,"179":-0.32769509106910444,"180":-0.060731330817918976,"181":-0.09637922247809647,"182":-0.2761819862605602,"183":-0.4231495059418828,"184":-0.022483703445632247,"185":-0.05135290189025836,"186":-0.03153794423550472,"187":-0.06809098093816462,"188":-0.007218486609649036,"189":0.019639771582774093,"190":-0.037944867928962206,"191":-0.1992591099529532,"192":-0.1695075654575336,"193":0.2156201802679787,"194":-0.05426398091162361,"195":-0.1816771412133217,"196":0.2274987471922584,"197":0.04247401789055316,"198":-0.08707721078934566,"199":-0.20607051469722498,"200":-0.005651848298841567,"201":-0.02550219700893606,"202":-0.07706104265219677,"203":0.03582009253410694,"204":-0.06589802510373925,"205":-0.03215299679449203,"206":0.15959367949475364,"207":-0.025180543965412097,"208":-0.25538729239917735,"209":-0.04069826509222521,"210":-0.03992377760037246,"211":0.18023055949006392,"212":0.10616790573845482,"213":-0.24269780431043464,"214":0.10186817028859317,"215":0.0073553762577982145,"216":0.022307328184269115,"217":-0.17555815740194702,"218":-0.16329217362178,"219":-0.03576594944647557,"220":-0.1341199336910805,"221":-0.045268176204475825,"222":0.2646389199486672,"223":0.03941024090633509,"224":-0.08807164101538006,"225":-0.3212102294668157,"226":-0.030482805082516135,"227":0.13131963104245736,"228":-0.11526781047871859,"229":-0.09249130844037523,"230":0.30725299505834636,"231":0.07801902551122934,"232":-0.22207179982656636,"233":-0.15194257089523597,"234":0.1877644944305925,"235":0.07297216546405094,"236":-0.0674794349797604,"237":0.2170507912665528,"238":0.046910315923638424,"239":-0.10270516202287878,"240":0.08726179795220064,"241":-0.10724287779794175,"242":0.1153538879510013,"243":-0.02842884989390956,"244":-0.10396413730700697,"245":-0.11737582940033173,"246":0.09704018171102405,"247":0.1686955587876659,"248":-0.05551290368950721,"249":0.057144884839507144,"250":0.1672528166576155,"251":-0.06934494153218351,"252":0.32496509630927245,"253":0.23827917411870853,"254":-0.08680429447488082,"255":0.2418120452466841,"256":-0.08619083386928243,"257":0.011872570631175892,"258":0.04139104833148989,"259":-0.2055217887969498,"260":-0.1349622632276927,"261":-0.14612339788050285,"262":-0.2602645829475592,"263":-0.21306796266861894,"264":-0.060404633471793624,"265":-0.07217034087897851,"266":-0.034427926283014165,"267":-0.1128494300658339,"268":0.026490724596103604,"269":0.09628482133138624,"270":-0.13178041257296802,"271":-0.023365025422087862,"272":-0.1772415934459172,"273":0.014274247882686228,"274":0.034824223917612515,"275":-0.3181428519282788,"276":-0.010169692498350664,"277":-0.29311420240886427,"278":-0.27681614309666575,"279":-0.25111166630481246,"280":0.04336798623781651,"281":-0.08454172372437704,"282":0.00566234177475246,"283":-0.15930588291380895,"284":-0.14077523335196765,"285":-0.06085419515673803,"286":-0.20020750829739173,"287":-0.10787805262839653,"288":-0.1872756741449867,"289":-0.0801215746718732,"290":-0.05133633970336559,"291":-0.19849564998893127,"292":0.09097890521447548,"293":-0.05837779367151502,"294":0.016339569888186894,"295":-0.09843083862292377,"296":-0.006334033277152506,"297":-0.14957853017422856,"298":0.030592532243251577,"299":-0.15661643533921937,"300":-0.2532695107166709,"301":-0.029120985048597132,"302":-0.1210697900817389,"303":-0.0631548816565568,"304":-0.00853185423331052,"305":-0.33058176872379663,"306":-0.16109379171133204,"307":-0.07164034262282529,"308":-0.09327364067987272,"309":-0.09540544847152888,"310":0.020276251969361597,"311":0.1099086083483072,"312":-0.06241004521035446,"313":-0.28606065654976676,"314":0.20526153151824766,"315":-0.18361004226352562,"316":-0.132133508976243,"317":-0.11845474051003653,"318":-0.1531797161804055,"319":-0.0011796242167379635,"320":0.006467187626597946,"321":-0.3662633296982326,"322":0.06491217401160852,"323":0.019748028401913552,"324":-0.09919049621901085,"325":-0.2903659478182078,"326":0.20826383094584894,"327":0.16360138773777508,"328":-0.04699432453628298,"329":-0.09402288896551662,"330":0.042990733908775,"331":-0.01948908841523126,"332":0.14842965167162214,"333":0.1492549453380783,"334":-0.029747073141758746,"335":0.036971148358283794,"336":0.0678481592625888,"337":-0.3315529829148224,"338":0.05184643808213971,"339":-0.1824451133656506,"340":-0.08284022492035499,"341":-0.19935154523137405,"342":0.050526872639529756,"343":-0.0013398499483916323,"344":0.03466746607581361,"345":-0.07484996124871313,"346":0.0651223831108142,"347":-0.12603432801724804,"348":-0.10455469134170894,"349":-0.06404082463370428,"350":-0.17197965897971082,"351":-0.061109924796072926,"352":0.08288338134703405,"353":-0.3183492922729247,"354":-0.018886979675023327,"355":-0.13176823736943447,"356":0.015932752158330662,"357":-0.12274694480960313,"358":-0.02194888533997588,"359":-0.0062738403422992915,"360":0.07318841885583484,"361":-0.07234350256060096,"362":0.07595221291258186,"363":-0.15109667124569284,"364":-0.1863508976946122,"365":0.043267195506869756,"366":-0.1906325401994453,"367":0.026330892368584338,"368":-0.04863068114369581,"369":-0.13348638764736934,"370":-0.03843942152829423,"371":-0.036163227617093056,"372":0.10192869275465953,"373":-0.08816370696794269,"374":-0.18782733366179122,"375":-0.13386011175708015,"376":0.21828838122759536,"377":-0.22976375063843651,"378":0.16372216779516918,"379":-0.2786561909838733,"380":-0.18816431580271384,"381":0.06540409801101567,"382":-0.15606180160609254,"383":-0.01462958416003903,"384":0.20203271452334984,"385":0.037818497423874,"386":-0.04914769328371726,"387":-0.09014999783920631,"388":0.01869861081053689,"389":-0.08010673410774972,"390":-0.055329972372398055,"391":-0.15649321815870976,"392":0.22463026950747453,"393":-0.24379168351261493,"394":0.2765242971781518,"395":-0.3457320783032132,"396":-0.1020482888102443,"397":0.08517098765938205,"398":-0.12037090536534407,"399":-0.14346123971685573}},{"sx":5,"sy":5,"depth":16,"w":{"0":0.1802887618833902,"1":-0.1355379525611337,"2":0.20171241811874416,"3":-0.047795119211575865,"4":0.11003257566865988,"5":-0.02475392659150145,"6":-0.11652615629114163,"7":-0.07128918432750873,"8":-0.12468448655360985,"9":-0.2955920319531622,"10":-0.10017597104471399,"11":0.16629277885426672,"12":-0.06808525066065095,"13":0.11497975679698015,"14":0.020591572289932757,"15":-0.04258455511959646,"16":-0.10581125016249308,"17":-0.31614215997348355,"18":0.14942001143332723,"19":-0.13773601021000548,"20":0.16506285197028248,"21":-0.13337306128358448,"22":-0.06184020188735024,"23":-0.20472581935451462,"24":-0.33032239288296494,"25":-0.21315644568555334,"26":-0.0003931962972855634,"27":-0.21651465552600185,"28":0.08972245306329855,"29":0.14686867692066793,"30":-0.24005812832225312,"31":0.0597891114842568,"32":-0.21554143923233476,"33":-0.09201104570151035,"34":0.13491153552129917,"35":-0.20344863026742532,"36":0.19934435021507962,"37":-0.20332583483336658,"38":-0.10453784869863478,"39":0.03259594235412072,"40":-0.16476843676482583,"41":0.02424088635968982,"42":-0.04247497325016584,"43":-0.33361078398143473,"44":0.15412128009217274,"45":-0.18007285985530397,"46":-0.1338937731211511,"47":0.013749096565620633,"48":0.07255488611996366,"49":0.24685072584001605,"50":0.009555116667459661,"51":-0.03507037597139128,"52":0.004802254926817111,"53":0.09465238829997419,"54":-0.08433130048975444,"55":0.18896557102848335,"56":-0.23373658140963194,"57":0.04614953207440235,"58":-0.04248363065545062,"59":0.12350863657567604,"60":0.004357824060709014,"61":-0.03630702476276548,"62":0.17356968623077024,"63":0.012624922733338964,"64":0.0038901865864059263,"65":0.21079124359116597,"66":0.0022527812391599255,"67":0.022014461039246903,"68":0.05659393767055265,"69":0.2084038491095579,"70":0.2485376597028637,"71":-0.23036914727238314,"72":-0.19145834592675295,"73":-0.09034825233115226,"74":0.06192826130636872,"75":0.012252183789635284,"76":-0.0051284095347136245,"77":-0.10616900277770733,"78":0.3353765308032179,"79":0.0021790026966942494,"80":0.267704148997318,"81":0.2678927379524184,"82":0.13470695756874726,"83":-0.008295961735491414,"84":-0.1999452095932148,"85":-0.1168103512649715,"86":-0.08180679285659528,"87":0.020695301936949833,"88":0.12122917286791729,"89":-0.02110496294423756,"90":-0.25670368940060817,"91":0.24325777736486107,"92":0.00769231590043641,"93":0.12953994141828154,"94":0.08724291477187744,"95":0.14307642457250103,"96":-0.13915411762509147,"97":-0.022742054799779504,"98":-0.04762464047220946,"99":-0.07716985848799066,"100":-0.05624862861777758,"101":0.021349945124595218,"102":0.19928156899230964,"103":0.2536232931719928,"104":-0.24376942581783714,"105":-0.4006859593808963,"106":-0.024907945674145292,"107":0.4406020200933542,"108":0.10812510146591243,"109":0.42802012892582875,"110":0.1747089256660848,"111":-0.10362799999739969,"112":-0.4231519260195374,"113":-0.009088540547148657,"114":0.05781797554154402,"115":-0.1586409811925036,"116":0.2798514887436442,"117":-0.09613814610265395,"118":-0.07975357462217035,"119":0.1404746765912399,"120":-0.09069848144133959,"121":-0.006124971282433506,"122":-0.19476974247931558,"123":-0.08225956463918833,"124":0.16241944630561264,"125":-0.0044989167655770735,"126":-0.2749051236779125,"127":0.041583123542994205,"128":-0.17354371624548107,"129":-0.11746909359876016,"130":0.13976888111915098,"131":-0.11415854189054113,"132":0.22293091504349172,"133":-0.16850278160853063,"134":-0.29888285398318626,"135":0.04581551552133896,"136":-0.17684547237746337,"137":0.34563437740474573,"138":-0.2556609875783678,"139":-0.15069490788721557,"140":-0.08045840248821465,"141":-0.08627895419882062,"142":-0.34639069055658805,"143":0.025489748028739476,"144":-0.14106661028684106,"145":0.1142676645396182,"146":0.18884351964796983,"147":0.11419692175882834,"148":0.1684874465485402,"149":-0.044186220067802456,"150":-0.20417644943169808,"151":-0.3027566114880117,"152":0.06082090710810876,"153":-0.013317460897927158,"154":-0.14049730384468126,"155":-0.2658295425612644,"156":0.10733465312110263,"157":0.04300797004636257,"158":0.2740727047620162,"159":-0.2607707772952587,"160":0.0632892580381502,"161":0.13993518484251619,"162":-0.06634265779422316,"163":0.0043372943259979415,"164":-0.3649157969376459,"165":-0.06967326879707303,"166":0.04407615786431521,"167":0.11124092794326047,"168":0.010014491918099232,"169":0.24340719667091648,"170":-0.13631159760291348,"171":0.2543181796491259,"172":-0.22901193728382907,"173":-0.0027745606646686033,"174":0.10459391418014444,"175":-0.016928532822289007,"176":-0.3160917186222449,"177":-0.16400577125906787,"178":-0.30138522491726655,"179":-0.03697596654633659,"180":-0.6746342598925088,"181":-0.018034052783982693,"182":0.42705717684371836,"183":0.04459713073832563,"184":0.011941568662860984,"185":0.013320765929948691,"186":0.12498191714383407,"187":0.598025374242556,"188":0.14565471738302982,"189":0.11574840495629068,"190":0.3988140375409418,"191":0.11092716180220864,"192":-0.12898722689007855,"193":0.012148109284591826,"194":-0.38716696511935245,"195":-0.009656765417305032,"196":0.18322571452735026,"197":0.15779744410288593,"198":-0.030771565590259852,"199":0.6423048624277203,"200":-0.08013889420875941,"201":-0.05275642846871877,"202":0.0448442642464466,"203":0.0399569746315819,"204":-0.03331242451525641,"205":-0.09097578692743866,"206":0.4296506161479562,"207":0.17555910772150055,"208":-0.2556038468251957,"209":-0.17605163206013819,"210":0.11488939015590736,"211":0.35237799704469813,"212":0.2647500059261522,"213":-0.045782190091538125,"214":-0.1510239419553699,"215":0.004872689152295117,"216":-0.07462613559580597,"217":0.018478290089623532,"218":-0.11038116690208188,"219":-0.06989792608581162,"220":-0.3133757267548794,"221":-0.4157813410887201,"222":-0.19767613962026892,"223":-0.2325354141814135,"224":-0.13752356960614315,"225":-0.14419438011356964,"226":0.11902880390361964,"227":0.06744612967946227,"228":0.46235493944216316,"229":-0.04346079549100647,"230":-0.27040198027647505,"231":-0.1631673122261563,"232":-0.04025904033828665,"233":0.0917678178756792,"234":-0.21220723696999685,"235":-0.3471112855628315,"236":0.08677351911818676,"237":0.020842392932256665,"238":-0.3464712471919348,"239":-0.051165187798067925,"240":-0.013554572738820608,"241":0.12822048436288092,"242":0.1890218492001062,"243":-0.09865796009517791,"244":-0.25199821151834717,"245":0.15545026951553206,"246":-0.17933240232760966,"247":0.29316616096760956,"248":0.17896868477629507,"249":-0.1819667797972293,"250":0.08227306459889713,"251":0.10630103494041768,"252":0.20600271947338808,"253":-0.1781612118967239,"254":-0.2388215402617886,"255":-0.11685112035327334,"256":-0.5149725142067448,"257":-0.1564060013238677,"258":-0.27067901298715974,"259":-0.07437422374676834,"260":-0.5223562480535162,"261":0.2147784319735766,"262":-0.3846578426786694,"263":0.2938733157127758,"264":-0.12606889944307537,"265":0.21524167114347395,"266":-0.09169785005297669,"267":0.07365147552173569,"268":-0.19853882703846445,"269":-0.15304623973586132,"270":-0.36556612552536405,"271":-0.0066929597808888415,"272":-0.19720179460418275,"273":0.02549189935552978,"274":-0.6350326687816732,"275":-0.2461753396107576,"276":-0.4572948763533307,"277":0.0010971740432125776,"278":-0.31701606323002574,"279":0.018183385327450736,"280":0.3390196895407443,"281":0.1224691076429771,"282":0.1035393702813388,"283":-0.1802623207482139,"284":-0.2843493759700257,"285":-0.19467418853821486,"286":0.34748777898400485,"287":0.03446445997913733,"288":-0.13777181906222738,"289":-0.13708987139887294,"290":-0.18334304364023135,"291":0.03175035132783243,"292":-0.21685902202320295,"293":0.0716813672543024,"294":-0.13923745325437073,"295":-0.09798759704263482,"296":-0.1542469085607435,"297":-0.16331344105348597,"298":0.044756939776004624,"299":0.1707846155595393,"300":-0.12245288634110327,"301":-0.028353403850987446,"302":0.434768759459728,"303":-0.1270659169311618,"304":-0.13039035237958738,"305":-0.13992863729978508,"306":0.3606703323043161,"307":-0.003366295391051761,"308":0.1403732861180789,"309":0.06515828065071863,"310":-0.19865585656888365,"311":-0.17179466811356164,"312":0.06423426764862214,"313":-0.02664196138191598,"314":-0.12976718223648098,"315":0.009955110476031549,"316":0.31685376891030265,"317":0.07276357854169373,"318":-0.3400548226699268,"319":0.018598271677156993,"320":-0.05335355609031875,"321":0.019534102406588358,"322":-0.050524726054067694,"323":0.2058149460363395,"324":0.23827873429748914,"325":-0.010752817078300593,"326":0.04694435679908392,"327":0.2181966685966134,"328":-0.03136431768161995,"329":-0.14625967912284213,"330":0.3022554843438425,"331":-0.1202812692246212,"332":0.0869478351853258,"333":0.24611684093447908,"334":0.051468142320683176,"335":0.11364818475030053,"336":-0.24816201119382086,"337":0.3965397753765092,"338":-0.14739114375658674,"339":-0.010071383834855492,"340":-0.14832201416852225,"341":0.00160056343581531,"342":-0.4371776640535361,"343":0.1713186431413278,"344":0.04347600981514358,"345":-0.13923307639173854,"346":-0.10760502511464544,"347":-0.01398124555428446,"348":-0.2260446611405622,"349":-0.05945823572443969,"350":-0.3022169196715615,"351":-0.08079771406020561,"352":-0.21668550646471316,"353":0.08300517711093305,"354":-0.41431466546129775,"355":0.18365488939721014,"356":-0.6904310673198724,"357":0.19465732382311,"358":-0.42523300892118704,"359":-0.019853281588510307,"360":0.19429079684955508,"361":0.16403660198304654,"362":-0.2656871526402879,"363":0.2131376449503433,"364":-0.37086810580685076,"365":0.0047353725320789354,"366":-0.14425807699456683,"367":-0.2561391716319003,"368":0.034001668566749896,"369":-0.031737244393224666,"370":-0.26856362566074965,"371":0.2128304136441071,"372":-0.29916362724175305,"373":0.013057249127077467,"374":-0.049466976560462055,"375":0.025653386892470407,"376":-0.05883620209912991,"377":-0.16275375176801837,"378":0.04906208210257742,"379":-0.12262133208579055,"380":-0.10981751072694992,"381":0.0277406829536168,"382":0.5464756736331589,"383":-0.049228179137140005,"384":0.32738908772892555,"385":-0.05243320387429231,"386":0.20573176304873594,"387":-0.08362719061946751,"388":0.2109213994858553,"389":-0.04838696691715399,"390":0.06846354191611734,"391":0.07627864037204792,"392":-0.1982567032552661,"393":0.003079420937132596,"394":0.13268104599315222,"395":0.04473975907302851,"396":0.15087425105324465,"397":-0.13713769203618106,"398":-0.20451870879631656,"399":0.15347198572306936}},{"sx":5,"sy":5,"depth":16,"w":{"0":-0.0050020763300989285,"1":0.08618268707588153,"2":0.24579920104884828,"3":-0.09881579268538423,"4":0.331285613198387,"5":0.13670223295633616,"6":0.17029535987903746,"7":-0.017227999886008385,"8":0.04413936597778234,"9":0.04685946085859577,"10":-0.04506188531564051,"11":0.2256843832411249,"12":0.0036706998569165797,"13":-0.016661154060047388,"14":-0.1268852417770721,"15":0.11844442271948483,"16":-0.24050034553544686,"17":-0.16478649532925668,"18":0.26793516507889276,"19":0.07473409005716561,"20":-0.034217103570050846,"21":0.12757117868352733,"22":-0.08574624991427934,"23":0.16537637030358204,"24":-0.07765849917458414,"25":0.20206389309822861,"26":-0.1739806813529814,"27":-0.020569749264465708,"28":0.07309685838317491,"29":0.06919608915842064,"30":-0.5275513567566369,"31":-0.15197349732741763,"32":-0.1308134076542959,"33":0.20031998776156826,"34":-0.25670244219666943,"35":-0.2870336820029682,"36":-0.49092674716804957,"37":-0.0068606079449740455,"38":0.004156403797474323,"39":0.18743376820311491,"40":0.2860812761850323,"41":-0.021253207037029067,"42":0.13671513903170218,"43":-0.3933751787496254,"44":-0.08426835420833002,"45":-0.1005128061664832,"46":-0.07184624936291541,"47":-0.06387965098288748,"48":-0.055510433988163854,"49":0.3692612029166863,"50":-0.1119172925981089,"51":-0.1576082576201696,"52":-0.07507578056133131,"53":0.14187572606199875,"54":0.22683411615751337,"55":0.18886531083860944,"56":-0.014606518298608599,"57":-0.11708247349327845,"58":0.4436863310192294,"59":-0.18293508004039663,"60":0.04929495027808315,"61":0.08818106609409605,"62":0.12283822658552336,"63":0.17943982747205442,"64":0.040979163957242375,"65":-0.003985840644247371,"66":0.43570668486649844,"67":0.031293524041805645,"68":0.2395500037057364,"69":0.0073487056961616705,"70":0.08953452707366558,"71":0.04240949684222587,"72":-0.06384030533044427,"73":0.008010703261671406,"74":0.06284744630438399,"75":0.05306146233058741,"76":0.044684496984468636,"77":0.07699721778490103,"78":-0.0365940552692752,"79":0.09053822686509326,"80":-0.031678205162029474,"81":0.1123247499456458,"82":-0.19022836032891277,"83":-0.31924782038017646,"84":-0.18952474586781118,"85":0.15574750229832,"86":0.12279432610043077,"87":0.05281675758179549,"88":0.3106913221256401,"89":0.15184930182831183,"90":-0.22259972116731644,"91":0.260653026392742,"92":-0.090532339037768,"93":-0.021137231007003102,"94":0.3842328411990828,"95":0.016112603650015125,"96":-0.3134673103961495,"97":-0.1329760607841855,"98":-0.14433088041018766,"99":0.04526996674319337,"100":0.30131447543976614,"101":0.44679753018301177,"102":-0.14451294766410028,"103":0.04144728442943561,"104":-0.03759812655788135,"105":0.09899471760286681,"106":-0.034838125152181154,"107":0.26786678946649445,"108":0.06883080149062638,"109":-0.28045713841356484,"110":-0.1135990492220354,"111":0.051503598394478114,"112":-0.4463226642787589,"113":0.0028493432746313665,"114":-0.04534917230002004,"115":0.4684500452151342,"116":0.028038666477085035,"117":0.44449536997654054,"118":-0.3096856458971495,"119":0.41511388125414717,"120":-0.045822729259737106,"121":-0.005048427705942855,"122":-0.09072304945102555,"123":0.362377587922305,"124":-0.06741078818118668,"125":-0.14468527723545446,"126":-0.6283772275651062,"127":-0.4789689660171961,"128":-0.06301792667063419,"129":0.18552000910934593,"130":-0.033454648070899165,"131":-0.07326733387015837,"132":-0.12265305692719036,"133":0.18338323483638508,"134":-0.16997196638671336,"135":0.18015320051202693,"136":0.0713558973496346,"137":0.031812838499301506,"138":0.011626094542274694,"139":0.12333226440169849,"140":-0.1269812469266031,"141":0.03444533805323844,"142":0.2042754640317396,"143":-0.21394263234715763,"144":-0.09400687877424838,"145":0.03854233942199469,"146":0.011587777362198426,"147":0.00861244516615838,"148":-0.04637655313459759,"149":0.13458796190283695,"150":-0.009638905159939214,"151":0.106116753370475,"152":-0.09049605509288287,"153":-0.09027709381104965,"154":-0.11153904550864606,"155":0.05780736219322949,"156":0.037041525704897424,"157":0.179620474195801,"158":-0.06922776583853768,"159":-0.08657893304999963,"160":0.12733113149451322,"161":-0.02181523982541932,"162":-0.18031636132087392,"163":0.1104069561019273,"164":0.040509736339914136,"165":-0.3520435583524291,"166":0.21559457049153752,"167":0.22389530383911596,"168":-0.08032645654513476,"169":0.1450637072968231,"170":0.04669383056993367,"171":-0.16760769490511818,"172":-0.1633800892650274,"173":-0.27866871099834223,"174":-0.05410576587155437,"175":0.2346229822043564,"176":-0.0559962993629151,"177":0.013821102973529875,"178":-0.12813650101776092,"179":-0.08795004243711113,"180":-0.4582367807747696,"181":-0.510772084550373,"182":-0.013248263430610948,"183":0.3628954672505363,"184":0.11644353877755402,"185":0.1123121963576445,"186":-0.06336080809057473,"187":-0.06898797149478664,"188":-0.06208573394401232,"189":-0.02418333215194478,"190":0.617208852769539,"191":0.40103387384327815,"192":0.017808432984575642,"193":-0.14045925068402584,"194":-0.09713294963804414,"195":0.1865791850540477,"196":-0.01845374473713275,"197":-0.28815439921024705,"198":-0.05710225171122815,"199":0.23086822536438661,"200":-0.22564723315888324,"201":-0.08953126221918445,"202":-0.2115075111789976,"203":-0.024831989516076732,"204":0.13419593276282385,"205":0.3889502652519795,"206":-0.04622041351988064,"207":-0.025141410022816002,"208":0.18380039989037877,"209":0.15536190219755536,"210":-0.1178817347174749,"211":0.48669548875516583,"212":-0.26531706302497904,"213":-0.21555881664945148,"214":-0.10702202300229118,"215":-0.003961458023181893,"216":0.05145167709380917,"217":-0.06640485002817188,"218":-0.22989519479500936,"219":0.05747701335243562,"220":0.009494980197210604,"221":0.32430556473261457,"222":0.0778340850843829,"223":-0.40538466855910943,"224":0.12392512314571821,"225":-0.11036460979249274,"226":-0.12750332016828553,"227":-0.011478567953910895,"228":-0.29102821946492735,"229":0.012337752915489629,"230":-0.05860233302489852,"231":-0.254334566033569,"232":0.07480348314843653,"233":-0.08915987491620116,"234":-0.07714846532791851,"235":-0.0008780562743818728,"236":0.04907720695558499,"237":-0.13643308564196704,"238":-0.012979381459622585,"239":-0.13719752001753946,"240":0.11739012912630085,"241":-0.15811311198351194,"242":0.1400038664909381,"243":-0.09019804294079918,"244":0.23762007548000788,"245":-0.2879440537232157,"246":0.06015151398057507,"247":-0.2719641396104969,"248":-0.02328388284901946,"249":-0.25314091252616966,"250":0.0802390537302287,"251":-0.17744180063186285,"252":-0.10608615441554899,"253":0.1445816107501195,"254":-0.10073779296792104,"255":0.09272440402935543,"256":0.09090949995962429,"257":-0.35744396362085723,"258":0.0561523449271305,"259":-0.4154181651065528,"260":0.09725715630618535,"261":-0.8569425648051788,"262":-0.0059902290100218875,"263":-0.5160017133463867,"264":0.05351238534825641,"265":-0.3195927050144897,"266":0.10214932538038242,"267":-0.24361988023511807,"268":-0.12403241944189633,"269":0.03890683881156657,"270":-0.020246932700464827,"271":0.17151037156643661,"272":0.27512203100857757,"273":-0.36689107603677396,"274":0.04555385023511724,"275":-0.5110861000716379,"276":-0.1085502827548388,"277":-0.6699003129343452,"278":-0.040956821748106255,"279":-0.3290838730699305,"280":0.2093485324439379,"281":-0.03484018777508997,"282":-0.08951878717689363,"283":-0.15266711169991226,"284":0.05591897638416549,"285":-0.03269441876087644,"286":0.08262579779094523,"287":0.3033262273166196,"288":0.20810198642285554,"289":-0.29903166015660193,"290":0.026043507135459148,"291":-0.4277031320318683,"292":-0.11910948489357392,"293":-0.5044203697956031,"294":0.16297722138475104,"295":-0.1572281275484669,"296":0.043380111585097164,"297":-0.07989321779584208,"298":-0.017373466078690322,"299":-0.034496195902472715,"300":-0.02915499042673362,"301":-0.046555015349644395,"302":0.019979395132727753,"303":0.06990238159684257,"304":-0.03043904168669491,"305":-0.04140451013352559,"306":0.04241102654514442,"307":-0.25266446645861806,"308":0.17802239806360676,"309":-0.15805275626926402,"310":0.06709532675602921,"311":-0.058712598512055986,"312":0.09521408746682779,"313":0.01818516659398303,"314":-0.08248931518967426,"315":0.049684356824844206,"316":-0.15590198144640421,"317":-0.1965754113644677,"318":0.17065874246540474,"319":-0.0001893841572897789,"320":0.22593911734351937,"321":-0.16882444350504694,"322":0.014010526988017125,"323":0.0037958329930602008,"324":-0.08786260068590258,"325":0.3994997228659415,"326":0.14963247612645078,"327":0.19723949834754267,"328":-0.0036315369464959587,"329":-0.18159920371963173,"330":0.19275933392800412,"331":-0.05278418256965761,"332":0.13723343712815544,"333":0.17325652345231626,"334":0.050302622539961844,"335":0.14856595169139997,"336":0.06691904739396394,"337":-0.2708216890153001,"338":-0.024054557052550492,"339":0.06510667940676952,"340":-0.01731539986168085,"341":-0.30297755708707125,"342":0.029415669975498514,"343":-0.20601590205916878,"344":0.1052281622722831,"345":-0.20716673522448295,"346":0.20406692643904792,"347":-0.24983537752861884,"348":-0.2413995659743465,"349":0.09858846660452243,"350":-0.12448803952968104,"351":0.03415044883532994,"352":0.07732600265355949,"353":-0.21906047195215064,"354":0.14882205578787422,"355":-0.5433558306958649,"356":0.10126940107945383,"357":-0.25846868189505456,"358":0.14035936290428427,"359":-0.20522586476349314,"360":-0.02404480055255098,"361":-0.3143437535170306,"362":0.07799390523538728,"363":-0.16171925671033505,"364":0.06183546686412002,"365":0.11525864139244017,"366":-0.20852619691125318,"367":0.05105673503996934,"368":-0.07457622657045565,"369":-0.20155449228201983,"370":0.08963088963772065,"371":-0.4758935781754524,"372":0.0739844707074326,"373":-0.05563498649170374,"374":0.011316295645657053,"375":-0.2696357339096527,"376":-0.13816061834510032,"377":-0.28967184516520134,"378":-0.02898668999632239,"379":-0.20916761342901344,"380":-0.01704211762381472,"381":0.18090943821345373,"382":-0.12000013384913372,"383":0.012069668016305667,"384":-0.027694187749085206,"385":-0.08390888102663754,"386":0.14953519875325824,"387":-0.5470529059976745,"388":0.19190135130375907,"389":0.05247568075196025,"390":0.06306906081422375,"391":-0.3046446970552836,"392":-0.046951728306251404,"393":-0.0304091488614897,"394":-0.06764313909843214,"395":0.07756657353685616,"396":-0.12032250956391037,"397":0.0059865832757909545,"398":-0.0961643805479746,"399":0.2341426926067769}},{"sx":5,"sy":5,"depth":16,"w":{"0":0.1130841105905958,"1":-0.09293155198704732,"2":0.19351691911335694,"3":0.10417797754311973,"4":0.10650438292466043,"5":-0.26531689031356537,"6":0.09353320614472846,"7":-0.007322573692138772,"8":-0.016178359767985134,"9":-0.240588276392622,"10":-0.07019107043146793,"11":-0.17906692422836795,"12":0.20863166816461728,"13":0.5422555839433135,"14":0.22399187282399433,"15":0.08414083148573781,"16":0.0987232735448236,"17":-0.36228777662844297,"18":0.1219436586587128,"19":-0.13473715178732887,"20":0.15340206536517376,"21":-0.4230619365724864,"22":0.09469390525005089,"23":-0.1108379505841342,"24":-0.18232957732481753,"25":-0.38645154077579286,"26":-0.11661732644241106,"27":-0.09974738490953126,"28":0.16306036233361385,"29":0.525477652217997,"30":0.2761239711311713,"31":0.1344040731837899,"32":0.23242734534320358,"33":0.0017993560586881036,"34":0.20170101195003765,"35":-0.3244596562608152,"36":0.2142817028794974,"37":0.058176504000310936,"38":0.032138299582455135,"39":-0.04042860147399029,"40":0.05138214806589685,"41":0.021328489984094694,"42":0.15430442756917706,"43":-0.11229672922448643,"44":0.15501352409184493,"45":0.011551377266939637,"46":-0.04482256722128904,"47":0.2944335149182048,"48":0.061234384278242106,"49":0.05400235487966855,"50":0.18225072653615842,"51":-0.25698351063848124,"52":0.08694680213869066,"53":-0.1851064041831226,"54":-0.00948084172639671,"55":-0.04073507643068474,"56":-0.03377851942201329,"57":-0.2098204591402511,"58":0.04027427838352886,"59":-0.21688251155609065,"60":0.008954025593420983,"61":-0.2528796516636206,"62":-0.21887731529668128,"63":0.2069843978724229,"64":0.15965067158912563,"65":0.09970397675316368,"66":0.08411973348863076,"67":-0.0003703983669992212,"68":-0.08575206451860128,"69":0.055914427903019294,"70":0.19350223518401696,"71":-0.04198233140598615,"72":0.03274355565262399,"73":-0.06584807680999982,"74":-0.12610183713418005,"75":-0.171365529581322,"76":0.03349385706076401,"77":-0.08417292823729831,"78":0.1238867570620069,"79":-0.17921554655081248,"80":0.2846837215182953,"81":0.2276695917981716,"82":0.08906662548791476,"83":0.010142996505881406,"84":0.006381597055248329,"85":-0.27140183508701193,"86":-0.10631185727700723,"87":-0.3567291145126325,"88":-0.19539838589643616,"89":-0.258562969489539,"90":-0.0261747019405191,"91":-0.09926100143506793,"92":0.208004937222725,"93":0.32367695191603457,"94":-0.07017856131624337,"95":-0.3897680030125248,"96":-0.04886613396983532,"97":-0.27506230617523914,"98":0.06868589921164849,"99":-0.13576264833589052,"100":0.11266882938143816,"101":-0.40210777309111595,"102":-0.060829283408725995,"103":-0.19934992007892768,"104":-0.10793889800829735,"105":-0.3161061262591035,"106":0.10422507410534534,"107":-0.29007485835572394,"108":0.197773962838653,"109":0.21508518636626406,"110":-0.07578005188029456,"111":-0.30260340646525685,"112":0.033394156813537204,"113":-0.022396381861162752,"114":0.035574639469510214,"115":-0.162535484066492,"116":0.19108906392048997,"117":-0.20613406159268707,"118":0.112774180652973,"119":0.017636644647064097,"120":0.13940466142231334,"121":-0.02498347355609864,"122":0.10980466010647848,"123":-0.19395934750685218,"124":0.08105077850002035,"125":0.05087874943828457,"126":0.1250053937963067,"127":-0.10839060918290591,"128":-0.08730506524752252,"129":-0.1968268144249126,"130":-0.043823827537825114,"131":-0.3902113575281235,"132":0.10427223328482349,"133":-0.33828801578365875,"134":0.12405258758144005,"135":0.0774592758368692,"136":-0.02550961610074252,"137":0.15422798523485715,"138":0.136626390862647,"139":-0.39958058439130484,"140":-0.31145857701407936,"141":0.02554946888096759,"142":-0.17994768901990332,"143":0.12896572314246668,"144":-0.05703369858780333,"145":0.1144787456319934,"146":-0.07179186650514283,"147":-0.11804631977429882,"148":-0.13546953554497013,"149":-0.24109762963344034,"150":0.08844958704463134,"151":0.24469051910876172,"152":0.17460654913303333,"153":0.0434840723138139,"154":-0.059569554852531785,"155":-0.3887937362620652,"156":-0.1354850125544907,"157":-0.2840996982284507,"158":0.07224910049766727,"159":0.1066065944691108,"160":0.14431671109798674,"161":0.45313469538118906,"162":-0.1043100049467608,"163":0.06046116882651098,"164":-0.1491169772538633,"165":-0.0694934279709929,"166":0.08544320330689968,"167":-0.3518076487684618,"168":-0.03227384784498906,"169":-0.07772235167039439,"170":-0.19713172322149872,"171":-0.012689141741993691,"172":0.049342756020390156,"173":0.06820177273063815,"174":-0.171094448346862,"175":-0.1900310492883621,"176":-0.05455758149360709,"177":-0.1504034864263958,"178":-0.043766057501372684,"179":0.39547502551048075,"180":-0.18068692634323302,"181":-0.0707986580761347,"182":-0.07771554563571113,"183":-0.2626412042455022,"184":-0.0794822868014043,"185":-0.272400818350325,"186":-0.04688783965168573,"187":-0.15921389260389654,"188":0.07960106773692417,"189":0.11384284444149856,"190":-0.07171334815701864,"191":0.06134822234340709,"192":0.16680842402445542,"193":0.0485021639809657,"194":0.028171445431021565,"195":0.1430605081281108,"196":-0.07615093754743672,"197":-0.040321315373854125,"198":0.011631866784222494,"199":0.04432731202540318,"200":0.2135338900930036,"201":0.22243937555538093,"202":-0.005603256839680026,"203":-0.07487901716214608,"204":0.003429516442368172,"205":0.08003956023621095,"206":-0.14017585531382923,"207":0.5088813451065303,"208":-0.05753753742797198,"209":0.018206531098046028,"210":0.0412722492445936,"211":-0.11530282363061777,"212":-0.10417514825095033,"213":-0.18315553699429848,"214":0.046893889107192555,"215":0.06104781922865129,"216":0.16934095949111924,"217":0.16849985061315037,"218":0.05644938485917877,"219":-0.030446938339562996,"220":-0.33169366344925877,"221":-0.04791780956695697,"222":-0.003757600799013711,"223":0.1911002775205503,"224":0.002758112549109822,"225":0.12854629733233905,"226":-0.22167188770736757,"227":-0.09471454711293133,"228":-0.14544782319241803,"229":-0.0896284920767929,"230":-0.04741469963937002,"231":0.11316166025728822,"232":-0.03370098674360241,"233":0.4041306222613759,"234":-0.031602746547478265,"235":-0.047774825760555015,"236":-0.37535011877327845,"237":-0.27500619093006345,"238":0.11432819202007408,"239":0.07929075874002768,"240":-0.22563091737052565,"241":0.2257423918117562,"242":-0.23973646402816495,"243":0.13822601472879367,"244":-0.135841682438596,"245":-0.016223675270236257,"246":-0.2508399726068326,"247":-0.11020742541099489,"248":-0.09934803360359852,"249":0.0553250497907818,"250":-0.227986028628428,"251":0.3574978878834656,"252":0.07988670123152017,"253":-0.042961675380754315,"254":-0.09091844332964658,"255":-0.035919202361332156,"256":-0.20045700110566367,"257":-0.2937423472036962,"258":-0.3110915454624213,"259":0.24019586200285986,"260":-0.3043150012239524,"261":-0.08617477462128846,"262":-0.15629550997418193,"263":-0.06201808269684135,"264":-0.2829114872207309,"265":-0.20753159885859723,"266":-0.18051003393611426,"267":0.24686298144298943,"268":-0.2766184543826912,"269":0.11271135539002371,"270":0.15469466956529604,"271":0.062202604651805216,"272":-0.09506287237366105,"273":0.05744625325110772,"274":-0.1035279161625069,"275":-0.03004107521422007,"276":-0.20905350440969248,"277":-0.07026870321783976,"278":0.02020782759510046,"279":0.17304235717935865,"280":-0.3910073226356283,"281":0.2695098138212558,"282":-0.25827129545235095,"283":0.2937666985010414,"284":-0.449043230108625,"285":-0.051275200546579865,"286":0.08017500514379904,"287":0.07678419401027656,"288":-0.09233165027652904,"289":-0.031048189364764476,"290":-0.05742931591552241,"291":0.28131354478904,"292":-0.28896512592180745,"293":-0.06975240521040592,"294":-0.07951388843445804,"295":-0.022654448078636414,"296":-0.35923294510410847,"297":0.14918179524154015,"298":-0.208905614649446,"299":0.10935737076255016,"300":-0.3407499074956748,"301":-0.30558173876841127,"302":-0.009156694219204061,"303":-0.1720118867937407,"304":-0.053863003490424756,"305":0.05555003392699618,"306":-0.12293699993905248,"307":0.004111332614157576,"308":-0.1581078821938684,"309":0.010013101309254004,"310":-0.17417965932706359,"311":-0.039942034320192984,"312":-0.32559604588374513,"313":0.3463236088372634,"314":-0.16806082642256154,"315":0.250514737715235,"316":-0.24098477868291718,"317":-0.05265120678673707,"318":-0.020087009697872058,"319":-0.19402272203412932,"320":-0.3463636903566059,"321":0.1347019241869459,"322":-0.27600028136849597,"323":0.2421760087048875,"324":-0.1708254800650948,"325":0.15867175011732168,"326":-0.0801783915778632,"327":0.026766487706748367,"328":0.01624379508070672,"329":0.15057791961455966,"330":0.006510855315570394,"331":0.30918900774914576,"332":-0.2924856354072179,"333":-0.16337960736566387,"334":0.05292353695514258,"335":-0.15382042483515782,"336":-0.15487777611202325,"337":-0.13494915811277525,"338":-0.2519578341507488,"339":0.03262646505735123,"340":-0.2835686572730365,"341":0.13928716386580509,"342":0.05533981016763218,"343":0.1380919636842017,"344":-0.18032587062617006,"345":-0.16776935263796627,"346":0.11641767675712916,"347":0.37825165689799295,"348":0.021015532904347097,"349":0.4717472114401824,"350":-0.019160958960297035,"351":0.179451434001491,"352":-0.16401069131070892,"353":-0.025824415395451602,"354":-0.17246921824624295,"355":0.009435378010183638,"356":-0.14892962429215872,"357":0.09331669997027708,"358":-0.029987939301866166,"359":0.15410427280448,"360":-0.15314564491739105,"361":0.050706178747881435,"362":0.02667658068874384,"363":0.29183540714359574,"364":-0.13695871084101224,"365":0.12003420344671034,"366":-0.13882623023364057,"367":0.12164920799409237,"368":-0.1723948039042673,"369":-0.030603107087352182,"370":-0.058673642371041786,"371":0.14221630495772436,"372":-0.17054598261058548,"373":0.1631103364134475,"374":-0.08746185363980273,"375":0.05788068170500257,"376":-0.06233826110747073,"377":-0.0286324013213822,"378":-0.04244385418938171,"379":0.14244506138716542,"380":-0.13901876847067232,"381":-0.35878895549992956,"382":-0.14944048268480467,"383":0.09347318764787561,"384":-0.09545091738351853,"385":0.10842300339034035,"386":0.022677098714615627,"387":0.23906393686457048,"388":0.14163276729089302,"389":-0.024501118730301724,"390":-0.13642494139055633,"391":0.14324465156942748,"392":0.018723942696878593,"393":0.07409129584653815,"394":-0.05223353999605569,"395":0.06166565179827619,"396":-0.4286764610866902,"397":-0.2006816590764902,"398":-0.07792500186030406,"399":-0.22527316892170496}},{"sx":5,"sy":5,"depth":16,"w":{"0":0.17709195856082524,"1":0.1513375019742188,"2":0.1881275758770559,"3":0.05060248823106611,"4":-0.19186876422046825,"5":-0.19330473697663367,"6":0.174854769386151,"7":-0.09471506725724775,"8":0.011128661533021061,"9":-0.18778624311648584,"10":0.3215561005816393,"11":0.21099429312889595,"12":0.021752026385163832,"13":-0.14011645494201033,"14":0.16841809942616412,"15":-0.3730888677626139,"16":-0.2978420101626221,"17":0.038207689434258923,"18":-0.10039092646962222,"19":0.35401902561553494,"20":-0.2688207743319012,"21":-0.19105369953874524,"22":-0.12297107761673463,"23":0.07390900182143267,"24":-0.043764083837800394,"25":0.1507236805540324,"26":-0.05298256426906393,"27":-0.1659662232332206,"28":-0.4146919809465593,"29":-0.04623859038364982,"30":-0.0949481426253958,"31":0.08131435204643331,"32":-0.07323817336012813,"33":-0.027599961762152524,"34":0.010418033429941602,"35":0.08534345920100112,"36":-0.16092952145766717,"37":-0.12945081121307864,"38":-0.35059185276371796,"39":0.18138709958411584,"40":0.24130120003528854,"41":0.15783686698960264,"42":-0.3954727333385938,"43":-0.15209258951548335,"44":-0.12793182427730498,"45":0.04475204844656374,"46":0.2914267116543544,"47":0.15007612051472372,"48":0.13877715511403768,"49":0.2681595414232768,"50":0.06175736438495101,"51":-0.09886430314919432,"52":0.15186465579904704,"53":0.045163806076044026,"54":-0.04656860327711057,"55":0.050281432264739245,"56":-0.09960659198106679,"57":0.021627681138508065,"58":-0.0025022575664990603,"59":0.1395922921879048,"60":0.14741504406833297,"61":0.3679806807966638,"62":-0.1558672070861376,"63":-0.1788071093919445,"64":0.22022397281204434,"65":-0.00013132715358723075,"66":0.1418520555797938,"67":-0.07485825525863435,"68":0.30146742921511266,"69":0.12647580853875168,"70":0.10183318106567282,"71":0.0693171026956106,"72":-0.02830108913585936,"73":0.3158748566018793,"74":0.12052287137590896,"75":-0.19737226325004678,"76":0.17881283949513305,"77":0.33352951222284477,"78":-0.13321149987100037,"79":-0.03617356258284374,"80":0.03767094622148648,"81":0.18958122520412263,"82":-0.0036324903563577393,"83":0.11049069106307696,"84":-0.21968447227275523,"85":-0.09672464798845638,"86":0.2757046880294201,"87":-0.18287897907508943,"88":-0.06495654605915305,"89":-0.2360238879762499,"90":0.20876313078188452,"91":0.10086695114716246,"92":-0.2664348802692416,"93":-0.09748710375378777,"94":0.26692890451188,"95":-0.41170180828919606,"96":-0.08787637440433711,"97":-0.0034537762379697025,"98":-0.16831941178667753,"99":0.37308582406209717,"100":-0.3347399727338925,"101":0.01870038539968353,"102":-0.055629318991512265,"103":-0.17228429715284424,"104":-0.22899536285191321,"105":-0.035583140820659546,"106":0.11718360764729972,"107":-0.18966453334276928,"108":-0.6695020748435278,"109":-0.3826657875526463,"110":-0.08204498571320316,"111":-0.2878068767151053,"112":-0.16753758167826246,"113":-0.10337379253907705,"114":-0.21220174989618124,"115":0.1562897517257862,"116":-0.4160147322286427,"117":-0.07238149270967602,"118":-0.11339979479600691,"119":-0.17593046381958,"120":0.13479470669266314,"121":0.12121151015309219,"122":-0.28116143862958487,"123":-0.13677932740962592,"124":-0.4624265870650893,"125":-0.5184749839360353,"126":-0.26425195672460455,"127":0.21287444440383935,"128":-0.0523241372718171,"129":0.011543526250080871,"130":-0.11899811605280251,"131":-0.17292595530583668,"132":-0.26367451180968965,"133":-0.12765876088687228,"134":0.05651132161933998,"135":0.11444981835067324,"136":0.24461371304485433,"137":0.048830306825314064,"138":-0.041260281846793825,"139":0.04484290896102181,"140":-0.10208078830477617,"141":-0.2356544142598872,"142":0.1404336123387054,"143":0.2117556804316615,"144":0.23151638312861805,"145":-0.13240630019845182,"146":0.008437638309156758,"147":-0.17280595166840418,"148":0.0243787905609905,"149":-0.24728745856057702,"150":0.07461620345629233,"151":0.022722984974861676,"152":0.10984415317422523,"153":-0.06355757121908769,"154":0.3132908135829885,"155":-0.027571370427292078,"156":0.07268332267575568,"157":0.3370529523143605,"158":-0.26181615960101046,"159":0.1018558692863583,"160":0.003058732152729012,"161":0.04168753799357155,"162":0.10586811881073385,"163":-0.025997887515664682,"164":0.07394094617756117,"165":-0.0039766760438400975,"166":0.17786011441389918,"167":-0.09058680143235118,"168":-0.03168146932621586,"169":0.010548663659405681,"170":0.09136210154352828,"171":0.16010359491580695,"172":-0.1725515094537154,"173":0.3939734761566176,"174":0.4061755302520996,"175":-0.11936502998535346,"176":0.0013985806784366668,"177":0.14812869792034047,"178":0.06935191185834715,"179":0.24680692642867538,"180":-0.3624637973653621,"181":-0.027936228943318486,"182":-0.2856025832353876,"183":-0.09062717486173663,"184":-0.10386222855769286,"185":-0.2094360316613514,"186":0.1410339059446146,"187":-0.11472536428552518,"188":-0.44751399486001514,"189":-0.38232169786184456,"190":0.24199551400877653,"191":-0.420346403926739,"192":0.1058093620285034,"193":-0.0660794572141765,"194":0.018427264144002357,"195":0.159690884167908,"196":-0.41381236581305186,"197":-0.08607184429958616,"198":-0.13831651642432236,"199":-0.33562795613889174,"200":-0.17655440693431648,"201":0.13197208038196567,"202":-0.25785307500453275,"203":-0.17878224476909851,"204":-0.4593079415977039,"205":-0.5442103864012926,"206":-0.3120637228305991,"207":-0.05831946759882918,"208":-0.040929233732381484,"209":-0.1746847236678904,"210":-0.16106163917153743,"211":0.07242227019790111,"212":-0.4504842417707402,"213":-0.005230451742398948,"214":-0.1694307168818256,"215":-0.1987809275219799,"216":0.1071494127326757,"217":0.1731476691704893,"218":-0.15316203031637837,"219":-0.05000043009320955,"220":-0.18086570990224463,"221":-0.34163852108750636,"222":-0.07055263455492859,"223":0.391008588264362,"224":0.19753440316243814,"225":-0.2592350513834328,"226":0.015071926143735766,"227":-0.2588543345123129,"228":-0.2456624831815931,"229":-0.025760506033252323,"230":-0.05418392184112708,"231":0.12938121608374806,"232":0.1714872554408294,"233":0.06977210158041432,"234":0.0558290218618886,"235":0.015454992720376417,"236":0.07059217958185714,"237":0.022630059214358574,"238":0.038091189761330045,"239":0.10973752940792378,"240":0.02730229822047064,"241":0.007572681797753052,"242":-0.08473324171462088,"243":-0.06017562134075924,"244":0.15245181068685265,"245":0.05373693256859235,"246":-0.042778140646022554,"247":-0.09066905497115771,"248":0.16267939908819812,"249":-0.07036938002133639,"250":-0.07782984560279345,"251":0.26461743746354943,"252":-0.10595264917307323,"253":0.11193783001113969,"254":0.09750487600635903,"255":-0.15767115482812813,"256":-0.17849569735208795,"257":0.10935383767256587,"258":-0.06649906060743829,"259":-0.006360455734490013,"260":-0.32858812662697695,"261":-0.07209533490015911,"262":-0.2558598505569034,"263":-0.012690806995780736,"264":-0.022961096867508954,"265":-0.02161909810763848,"266":0.06051877555285984,"267":-0.2246083374922754,"268":-0.27445280376369297,"269":-0.2831588140064512,"270":0.023878956403786254,"271":-0.18448159140860343,"272":0.015469766450290506,"273":-0.041812911008781886,"274":0.01871250504556699,"275":0.014757005889787326,"276":-0.3509207209763142,"277":-0.0556006252946216,"278":0.027303801828737925,"279":0.04455147748305124,"280":-0.12708917905442638,"281":-0.19441756482373435,"282":-0.14732811986584718,"283":-0.0990331314537007,"284":-0.3468832124333482,"285":-0.4245482667087271,"286":-0.2774958056619589,"287":-0.2381656266644252,"288":-0.07519748569533936,"289":-0.007884204936870315,"290":0.04759241735060249,"291":0.11884956064131803,"292":-0.35497965252122743,"293":-0.026618671181316295,"294":-0.1887192698181594,"295":-0.1776439875395165,"296":-0.11580730613920982,"297":0.02449337929723192,"298":-0.18110911444446895,"299":0.06536462912592475,"300":-0.21180165834066417,"301":-0.285657874401607,"302":-0.23117248697616977,"303":-0.1455600157836364,"304":0.002627861888625453,"305":-0.17370029418997765,"306":-0.018686742075962583,"307":-0.17818876185397092,"308":-0.12655752350387334,"309":-0.082228646110353,"310":-0.11150737349648303,"311":-0.023889703770993517,"312":0.11381453262313852,"313":-0.08525532596142801,"314":-0.21102550562718578,"315":0.21762018588297968,"316":0.09445380964004799,"317":0.0716931255168312,"318":0.10422284463450233,"319":-0.09074517129434635,"320":0.12426188220841439,"321":0.15698304534032087,"322":0.16707270985131278,"323":-0.12446966073104805,"324":0.2635907702287221,"325":0.10113813404578816,"326":-0.06333160823007346,"327":-0.08807395560530218,"328":0.07009226096526035,"329":0.13897625820141918,"330":0.03434644504195164,"331":0.13174716542906859,"332":0.041126915025343234,"333":0.07656333641178936,"334":0.23756835412774713,"335":-0.08000666481938158,"336":-0.01619444912545188,"337":0.21896269802584856,"338":0.3049714883567588,"339":0.0981720809837465,"340":-0.15757680965274334,"341":-0.08444073939160494,"342":-0.11629856716658922,"343":0.08104299460084148,"344":0.037889977378031764,"345":0.30713336052127194,"346":0.019115263354987467,"347":-0.20815817592563918,"348":-0.1644555778649425,"349":-0.1318698837143607,"350":0.09638594958053023,"351":-0.05197332679575261,"352":0.04484720308100717,"353":-0.004626016099718195,"354":0.1804985684554337,"355":0.0819142654949628,"356":-0.043246814888583944,"357":0.15886921048081895,"358":0.2068783221384164,"359":0.16607223092182755,"360":-0.044538394706555004,"361":0.004027295419557748,"362":-0.04269535664352339,"363":0.09873179571247304,"364":-0.050509394815289516,"365":-0.08762666096346225,"366":-0.14487037793834573,"367":0.17553561435164625,"368":0.1077810989470549,"369":0.08859112515811775,"370":0.07317751681607569,"371":-0.06341833421051161,"372":-0.20528616878510117,"373":-0.17219708573576062,"374":0.05923896796449561,"375":0.009135297149896847,"376":0.10725388944732012,"377":-0.08121303273742296,"378":-0.15298921335620516,"379":-0.10318273309176676,"380":0.09476766903170279,"381":0.12922347268216772,"382":-0.13658749394692257,"383":-0.0020536218788011528,"384":0.17814488510003096,"385":0.20510474492993627,"386":0.2176107109307923,"387":-0.263073271103465,"388":-0.042802000672542174,"389":-0.10956952536110723,"390":0.10900660497246875,"391":0.05804152854924371,"392":0.32406566652560964,"393":0.1035465290255064,"394":-0.09229422138138176,"395":-0.0451694420764313,"396":0.13261540019445922,"397":0.07324091401180845,"398":0.08975442819578934,"399":0.2309921816397628}},{"sx":5,"sy":5,"depth":16,"w":{"0":-0.03514303762643827,"1":-0.17118312069492564,"2":-0.02889302059968984,"3":0.07500788149935779,"4":0.04173345829894885,"5":0.14047215146121603,"6":0.3146121722253888,"7":-0.24440387735861233,"8":-0.03967718988994775,"9":-0.3764771565344201,"10":-0.01584685699289845,"11":-0.1321031046118899,"12":-0.0742013167757502,"13":-0.0736751213926175,"14":0.09779894169032763,"15":0.04701456540226728,"16":0.17215368441280646,"17":-0.2854700232035551,"18":0.29769692888285304,"19":-0.2236605453444614,"20":0.18505023299082096,"21":0.3275892268342927,"22":0.26796079324993355,"23":-0.3281584314773372,"24":-0.0082664621881142,"25":-0.23844926035947306,"26":0.02765446285282643,"27":-0.14802152310547922,"28":0.03571063725074885,"29":0.08029241477093235,"30":-0.052109982312945315,"31":-0.047744587063984816,"32":0.10452563206504582,"33":0.27878008649542774,"34":0.10179463954971019,"35":-0.03641261717193135,"36":0.08460542616959277,"37":0.22283294057896738,"38":0.24440972601450275,"39":0.03013826958983443,"40":0.13784226777889616,"41":0.3454527128789358,"42":0.09424755115257613,"43":-0.17475697333345128,"44":-0.21380594260532979,"45":-0.13992258118740292,"46":-0.08913634458491317,"47":-0.061283200997492716,"48":-0.09705083271702503,"49":0.11568177019225469,"50":-0.2015600941115398,"51":0.14358575756724715,"52":0.03518568824343568,"53":0.28949071362051554,"54":-0.2641273454075146,"55":0.037343840343435755,"56":0.043450992739314694,"57":0.2591428884906898,"58":0.004595269970239642,"59":0.06777795052752245,"60":-0.20729707908807152,"61":-0.2769348952227908,"62":-0.08787285723535022,"63":-0.30195945638158184,"64":0.03391742182618711,"65":-0.08571501909130456,"66":-0.24035367776100544,"67":0.20108201634029532,"68":-0.02094011050555188,"69":0.017554867889753894,"70":-0.1701797699445317,"71":0.06729172923171302,"72":-0.039948461900400654,"73":-0.12511895318433608,"74":-0.00857605431818849,"75":0.5431554547921916,"76":0.009236529573111921,"77":0.02193629594512071,"78":0.3772684448389352,"79":-0.24639660377821307,"80":0.02061200332423966,"81":0.04720984350633002,"82":-0.011004666898944044,"83":0.05418960072868798,"84":-0.030314078025375904,"85":0.2682119288766752,"86":0.09291111807197755,"87":-0.1387370442564583,"88":-0.15292537120544497,"89":-0.07185579067783833,"90":-0.032843828764555404,"91":-0.22659471775554718,"92":-0.07214546418191684,"93":0.07979009709039478,"94":-0.15487671642535716,"95":0.05835856004652544,"96":0.08053822779337291,"97":-0.12906166781401254,"98":0.07751085083640265,"99":-0.17890987605378547,"100":-0.027357960266121226,"101":0.20438724447714535,"102":0.16840192439121032,"103":-0.2881349123089986,"104":0.12194871330100279,"105":-0.12939633385680493,"106":0.016896385483527367,"107":-0.30029443897205316,"108":0.12952007350727598,"109":0.14721690753304115,"110":-0.15522272438778123,"111":0.16669554881390772,"112":-0.10293611350606006,"113":0.04297989597495785,"114":0.17998104496548062,"115":0.08465958822529301,"116":0.10479861543935294,"117":0.2760549531788036,"118":-0.05366095504771722,"119":-0.16362843149553294,"120":0.10978440827586834,"121":0.288631760908927,"122":0.12160648514803106,"123":-0.33611603423406006,"124":-0.20899251298428495,"125":-0.04448577656559369,"126":-0.1673037231591284,"127":-0.207447503517801,"128":-0.06492474796542924,"129":0.13320785636933957,"130":-0.08116287462646313,"131":0.1722016414011519,"132":-0.25536474103200907,"133":0.20262106805141517,"134":-0.22712370310246624,"135":-0.33354129039575725,"136":-0.20084742353316654,"137":0.15971871550748165,"138":0.012292323721747047,"139":-0.2692766771411003,"140":-0.5535137403828694,"141":-0.508989230447231,"142":-0.13297988099106864,"143":-0.49355504021226343,"144":-0.12101987582741218,"145":0.052867717443588,"146":-0.10488000420106863,"147":0.35441510644636076,"148":-0.09676438725712945,"149":0.18984353640052073,"150":-0.231364217791575,"151":-0.012242488376249435,"152":0.055917321016901,"153":0.19653881830863576,"154":-0.08031876814793908,"155":0.021458477301939213,"156":-0.2841617078146322,"157":-0.15409294824918723,"158":0.054705113395133086,"159":-0.13161186931767016,"160":0.07655123209108405,"161":-0.129729915307716,"162":0.04012823278053415,"163":0.086191856451233,"164":0.023521464377913706,"165":0.16098979929148013,"166":0.08918685151590935,"167":-0.08196723422069428,"168":-0.14893806145554497,"169":0.12135384965275106,"170":-0.027138285532790938,"171":-0.4125954800045525,"172":0.05952486467988762,"173":-0.05688924461094983,"174":-0.2187144426290182,"175":-0.034094566852060894,"176":0.06338836440682077,"177":-0.3137464893806818,"178":0.40210679498034857,"179":-0.0738617058875537,"180":0.15927878127219253,"181":0.23911374658323048,"182":0.0028555088845880674,"183":-0.2343531297284416,"184":-0.06947874160763816,"185":0.05858233432097833,"186":-0.030918040565626182,"187":-0.3561930507034669,"188":0.02087410283598348,"189":0.18116927165090357,"190":0.08142916632406219,"191":-0.07308991235192464,"192":-0.07699991408202213,"193":0.09135359484722441,"194":0.33774426743075525,"195":-0.14271243307029147,"196":0.04993991759811511,"197":0.2516331001459631,"198":-0.1285270818455933,"199":-0.07878261832753178,"200":-0.23915574287801458,"201":0.20335392805024666,"202":-0.2255747149209577,"203":-0.5074128979260664,"204":-0.17054394960480018,"205":-0.05418055283903084,"206":-0.09300158557183075,"207":-0.1968102861169821,"208":-0.05060825919557466,"209":0.22042742421561065,