tansor< 5,5,3,float >  l1w1; float weight1w1[]={0.009272166704234931,0.006974411192610134,0.11028154500854649,0.3692085287727812,0.15152332297352505,0.012569193749991703,0.020853069671658758,0.0038133109635731825,0.03715527979026661,-0.1464525383869485,0.07391494694084191,0.1544170009750391,0.1006222811590251,-0.2358855333162525,0.0792239780300214,0.014193407393697607,-0.05477350592829846,0.25160892935007356,-0.09591259519399492,0.2316322994033141,-0.08106570829205116,0.13520264548548128,0.07132911889594032,-0.00035681940948645643,-0.005029759508014446,-0.03758229916592529,-0.024568014173338634,-0.09064745239731894,0.20178596882416644,0.04535807608870049,-0.06506394797699637,-0.07585629108060035,-0.2001460577275222,0.07068191692626537,-0.003505942891338279,0.014486101160363219,-0.2521588015292458,-0.034996911248342595,0.323675941552837,0.11855511574079289,0.09210626235001562,-0.0032549587386599826,0.0004368877110349813,0.21915281595952588,0.1392889604766911,-0.01659173086553981,-0.11650413101174568,0.21960593784006827,0.06402296380362298,-0.07619064955184975,0.12188927011123314,-0.20321982838678693,0.025477641634355893,0.09480909243185953,-0.0742308007273753,-0.08491132271666008,0.034323732117061544,0.010087361153810396,-0.2199528789086313,0.034879307771216256,0.1629250088708249,-0.05765898393426412,-0.025292450905182298,0.05735455818420919,0.21085182850898423,-0.14700878760417008,0.006461803374010849,0.1614947167093535,0.018595977177107332,-0.012522038036701176,0.0002476607878558585,0.10858662279315419,-0.16143338996469914,-0.014635473114877388,-0.26109913874733676};l1w1.load(weight1w1);
tansor< 5,5,3,float >  l1w2; float weight1w2[]={0.019704279180786554,0.08778146669091945,0.030379766386772568,0.06565207806001254,0.19386599253836365,-0.13468910791405087,-0.02472047683896026,0.026648000479707862,0.13485066153927053,-0.09182114738041822,0.07429373402930214,-0.22629886378184197,-0.10193053547856296,-0.08406452153276152,0.023643558895384113,-0.1386673293754706,-0.12356409595045556,0.030694062550231573,-0.12695542776456123,-0.07474797274628722,-0.019499944425858822,0.2076495743376231,0.07374923299826219,-0.08508486878273044,0.12964378137415913,0.033765320637149265,-0.07020131241822998,-0.3380891684614961,0.18150874635111355,0.01710969985124306,-0.11542016278181028,0.20497592695247488,0.018391227275950328,-0.0028241200910813966,-0.002018480974319673,-0.032140688625763233,-0.20067268893669762,0.054297608968162304,0.06473860653290354,0.076760245722161,-0.13262707874955576,-0.052319035802727946,0.012324737149392636,0.01356403394625287,0.08476061605334528,0.07610266936286479,0.11983980988470999,0.02783175495225325,0.03384630698134197,0.11554373800825044,0.2743233861760262,-0.059926861311855685,0.04623770648670171,-0.25799875969853,0.0005508236637502004,0.03913996336232014,-0.021678630141476984,-0.02708086074815172,-0.023725820479506148,-0.11553430027802739,-0.04534932105788584,0.12552999540334905,0.08659500161712048,0.039229040886129385,0.0012561395949166627,0.10110194332623385,0.09621176820984743,-0.017406451324781275,-0.015406643870369855,-0.21700433263413,0.1972163303980142,-0.27138288738875066,-0.08525151837142735,0.2177118882614006,0.1604285694622375};l1w2.load(weight1w2);
tansor< 5,5,3,float >  l1w3; float weight1w3[]={-0.03779799974926907,-0.12858934860448765,-0.06154045297647492,0.12693718013404534,-0.027355585813579122,0.16464086453614088,0.13693659969606436,-0.04209845388703336,-0.13166634344191033,-0.08167733072690203,0.032950151951400206,0.016334826765838712,-0.07083298233025635,0.3252174340928544,0.0036563046493734144,-0.23647106084954267,0.0016550346176826118,0.14438381887100915,0.12195733700012093,-0.07695412185231355,0.0892216328197398,-0.0813498417433244,-0.00018480972601812038,0.1713764447764618,-0.09365691579908722,0.022199735746838405,-0.24816241668633932,0.007706207175623945,0.11613287229712839,0.15645979169748822,0.1620748562162792,0.03592249800096137,-0.09034533090729502,-0.09208245887322827,-0.14155766298779593,-0.20796296006564938,-0.05478745021417993,0.05327899099654133,-0.25335623000197893,-0.13998439251703781,-0.08214121485704658,-0.0126561310234133,0.17527209893416856,-0.055118542872023724,-0.1867428247422306,0.04148275691328505,0.07668252115827433,0.04676387246556104,-0.08644814600825657,0.12292660006876999,-0.03548469205796364,0.16074545874588375,0.005204136511379375,-0.01820127880571853,-0.08219172238618079,-0.15146495862976236,0.28651163768085175,0.029988413909942384,-0.08579052816733838,-0.17114574808108352,0.10426379569489583,0.04766689551257866,-0.08532292762410815,0.041043381261552006,-0.0009611614418100017,-0.1703766697877195,-0.02012214760510834,-0.1536960457315819,-0.04331579930823643,0.11287487946523113,-0.08640774568775918,-0.10190866970061219,0.11004594973791708,-0.04473121675539561,0.1185824075842315};l1w3.load(weight1w3);
tansor< 5,5,3,float >  l1w4; float weight1w4[]={-0.054325599622585825,0.08196027268081578,-0.015854867273971975,0.06688889884416155,-0.11710585413357774,0.19282475300752958,-0.2551463313404948,-0.06610802321556469,0.002478409073998814,-0.042095895322184204,0.02734439818845131,-0.01836121699878322,0.10042606600638129,-0.14529119812834437,-0.008796437162130192,0.10740807939501959,-0.06540542447279525,-0.013210255561006204,0.027932712493366253,-0.0526334600588504,0.11807798769471343,-0.02478070498179147,-0.014095429287107216,0.19498766114027594,-0.07650910979186895,-0.24794713378522723,-0.0379953449275926,0.1441444843544493,0.01883747741358256,-0.09414493678246226,-0.17299887009623705,-0.1131594753118705,0.10029624035864736,-0.04656733713146133,0.1356200232004212,0.0005505769943347245,-0.02184236995259438,0.05296518447812956,0.018350348595554882,-0.12004407221437473,-0.08041043378611122,-0.022164846583829202,0.053869232409090625,-0.0467530953789305,0.012923718870856388,0.037789035176522025,-0.042866646861995546,0.17459012731279944,-0.019201204976668648,-0.1648596929283465,0.013214597984660235,0.025233367690731295,-0.08426142109753793,-0.03870552794767013,-0.038831511382402074,-0.039314654735663236,0.09027875698203439,0.019879300977031868,-0.16297830448909992,-0.024942927347725526,-0.07992026591581534,-0.1525962485731566,-0.12297789863715985,-0.12100911025084556,0.13504083069926234,-0.07621691060830972,0.047243604691775395,0.016898328666461425,0.02968537706028125,-0.0004291635487770973,0.12817524916728545,-0.14397742887761383,0.0785381197362178,-0.16678843128306317,-0.04170637306965476};l1w4.load(weight1w4);
tansor< 5,5,3,float >  l1w5; float weight1w5[]={0.003116231085758763,0.01786374852746022,0.03577715542088428,-0.21486213574484808,-0.16594052411392476,0.16210503394196285,0.06767793273748728,-0.12609813970131248,0.09966659072814517,0.07552635762480091,-0.03367598680748867,-0.005093319798784592,0.023012909347025996,-0.05894568077318061,-0.14432019488400555,-0.020683450183544227,0.011751107290148166,-0.12352097731986969,0.017743149476528837,0.18139525602457032,0.2556306735379522,0.0792187641993087,-0.12544734446004296,0.08205730984210818,0.039116061061320505,0.11243214788606586,0.10439497492827038,-0.043083601245919007,-0.2179683952214614,0.02939168359568388,0.18668495958615355,-0.15094952944030135,0.0568782660352166,0.0951199345622484,-0.022104632641026425,0.05074336262190992,0.04194951929724059,0.12222742029199295,-0.31454430933734173,-0.04257016301426271,-0.2098595869969742,0.011351182568480717,0.13535018626424333,0.131654958152065,-0.2487297515876236,0.017502073676359833,-0.0643773937547223,0.10048953172836103,0.1341368362472532,-0.1398926210091292,0.014077952045764147,-0.02457466558300525,-0.1687323236702331,-0.04936786711608482,-0.013707759178129539,-0.008328355003916092,0.023190053214740578,0.05368074234132302,-0.15537769360493145,-0.05594305795206781,-0.15950379249998928,-0.0865647763476901,-0.029158967154890632,0.06365174501070545,-0.03572530825409221,-0.05355631104389909,-0.13768560495720514,0.026443031874252263,0.025612086166332957,-0.08742160925549759,0.08294676304674693,-0.022448241255859373,-0.21847507249421458,-0.05646827518308204,0.09181459124224077};l1w5.load(weight1w5);
tansor< 5,5,3,float >  l1w6; float weight1w6[]={0.07709894137137695,0.05693879048000233,0.02700287074138393,-0.12857397086775504,0.06708336017867729,0.004289805469125553,-0.028174591898319164,-0.06989181668224413,0.19174552190321253,-0.03524528979813669,0.04464945871923941,-0.07665456061483568,0.00023615799004242334,-0.13631013321003804,-0.0877351720884279,0.019546482817313655,0.0465885698218892,-0.15282018747417309,0.03964808523764038,0.016563146440012264,0.06722127824578315,-0.007496886427668178,-0.15342647141983012,0.019282148446980816,0.015271425065921093,0.04708191806200961,-0.19647940974894615,0.0923376723252374,0.025752679234009864,0.0695785507674898,0.05220425449045326,-0.019375490768001727,-0.07238547857536774,0.10498857455727681,-0.21244682675412369,0.18301968741113644,0.06846670096235657,-0.18555096317914743,0.03654176783737895,-0.03227717883730818,0.014591176982760006,0.08830580315300157,0.013527740994177823,0.09320166513998365,0.12867054800535757,-0.11713376011386906,0.16081862818366255,-0.03321261167111225,0.11892154371987103,-0.1616124253493327,0.04805303897219468,0.06665406248009279,-0.004850666722903617,-0.10943542403121209,-0.0027032396944289615,0.12449468850621648,-0.019752078737492594,0.14187445683842612,-0.15556938773088175,0.041435304612868734,0.19688286370344335,-0.05451817305815224,-0.08529450367326208,-0.24489049615563185,0.11743772990194946,-0.2237530446353733,-0.016854356004919007,0.002864732776320011,-0.07478220387309857,0.04895477501769335,0.3063846257959077,-0.020366209769586766,0.16927742165368181,0.03366371630254605,-0.2138170234133672};l1w6.load(weight1w6);
tansor< 5,5,3,float >  l1w7; float weight1w7[]={-0.14964222546573142,-0.14027595281598038,0.19507179289928944,0.07176977250686722,-0.08580104657159567,0.03800669917327567,0.16470916691650542,0.021366953582959872,-0.09502133572908099,0.031009107289003447,-0.20679752701556267,0.04758573257174592,0.10107396634485365,-0.030728671377053523,-0.06840312515205986,-0.08837558280016013,0.18176932864537657,0.04211555835918728,0.08054463539130069,-0.047209973482351,-0.019110865490543454,-0.10487437195323109,-0.008500441986454102,-0.007444462699177044,-0.08695600949861507,-0.09572429650935427,-0.20711153219042117,0.1474156651153502,-0.04323053116060247,-0.043050270948890405,0.03980878694079003,-0.06758302492886742,-0.010747665029039507,0.011406230070086723,-0.0018719208054781532,-0.04241826497594847,0.14668768168495175,-0.06861032188544815,-0.10273802340465761,0.05463961995399382,-0.08741798777116956,0.10980499221593855,0.07010611859075838,-0.0566224547635663,0.006984469083022071,0.030524830815344434,-0.07754462005256421,-0.015918327011901025,0.07473316093687578,-0.14483429028887904,0.13348136435632746,-0.25742663969849244,-0.021662940984072412,0.011212961034687231,-0.14216692263869443,0.0924178492768334,0.03381668050080998,-0.10936085384112029,-0.14155518819134072,-0.04675602322797187,0.0022570566901094556,0.04944736581450147,-0.02895152373870609,-0.1352125586556416,-0.030099722780543615,0.10462544710984577,-0.01422728059115825,0.250979591116369,-0.1376173342121078,0.035855532687700954,0.09933307587143436,-0.06856922806182808,0.024098308875021443,-0.059656751766890885,-0.04174731233670466};l1w7.load(weight1w7);
tansor< 5,5,3,float >  l1w8; float weight1w8[]={0.0080108252253874,-0.08051685408566885,0.06955735689896983,-0.08900749155535313,-0.03630691400247218,-0.008993397801694638,-0.021754597436688505,-0.11258406819059703,-0.14441488452297757,-0.016931961241628855,0.02498817606036577,0.03260580663915793,-0.06432466796647737,0.0027890792446485157,0.3043128807645685,0.17498812524498564,0.11249143354909544,-0.10424844856923735,0.040601900663431535,-0.010568556617473976,0.058206490910416395,0.15665234814987317,0.022609898231215113,0.009749394636946426,-0.051336037013155936,-0.11513258104116612,0.05816179261013242,-0.11281096392002125,0.000491028341838954,0.004229540387141134,0.11708245970224017,-0.01358926675159614,0.06620332809001811,0.02268732489341021,0.010288806819660216,0.04132219368671841,-0.3626955710028977,0.034814071598523455,0.008016538923075649,-0.0021238789740425194,0.12364600891604278,0.21405685408274314,0.07388574990624841,-0.09990807618990521,0.01650962982790162,0.16059735542874073,0.026119321588114773,0.0031652628205659293,0.04783855909847954,-0.08669274048888219,0.0950719502167787,0.09373225499729368,0.026143232593957955,-0.004765030359197182,0.011521227317765404,0.18452415255533156,-0.019216526750796332,-0.07108297794717604,0.10510385331045217,0.07172985844373028,-0.023291640744573947,0.12838438288655613,0.11154957317976763,-0.13987365947988653,-0.012746416968135797,0.14714324355394187,0.08971929232250972,-0.13097659421597443,0.1910244598891906,-0.04324068582081068,0.19793265641312507,0.06856100151232991,-0.25171525755758273,-0.2196705727144562,-0.05269852198380647};l1w8.load(weight1w8);
tansor< 5,5,3,float >  l1w9; float weight1w9[]={-0.22081261824955137,0.05891093467042616,0.11090349399184908,-0.003294974144683372,-0.06260859885741386,0.07205750577168138,-0.05249399539586077,-0.08021651326377197,-0.08745773109577352,-0.02160613439918073,-0.22461210668199086,-0.006120677433396298,-0.03193613481385019,-0.1860884174257621,-0.06554918348309845,0.27387514836559684,0.16051877887003801,-0.08775116455615022,-0.10617695259127809,-0.17857470992323385,-0.02319556877665773,0.001307286127076452,0.1345588987704772,-0.16821342293461447,0.1340839818777723,-0.0630141905818346,-0.035345555728885605,0.03257128204309078,0.15010363694477788,-0.043189593666940584,-0.11514387729857144,0.0532109761867332,-0.10917820861855847,-0.0347765137017721,0.032210410135065516,0.013162109795912988,-0.15548350634623934,0.07935169856756188,0.08984025704507213,0.18052184538897295,-0.08318507839646498,0.15068886095415596,0.04445861022399452,-0.16639214958105772,0.029905277006371786,-0.10143034313419794,-0.10900601615531119,-0.06658426749736567,-0.00508941092284227,-0.069173645214722,0.10069006665392179,0.05030269322602604,0.05647355259195353,-0.07148654444178608,-0.1035113612404639,-0.05305027294878774,-0.06545389694645061,0.241027677164449,-0.0010316887186283099,-0.06636803042235558,0.02212433559282679,0.1111766546679354,0.10863426012910114,-0.0162781872210523,0.07752744923513495,-0.12491701847632568,0.06865514662663745,0.02225065604298171,-0.132291963939654,0.12036151208016427,-0.007095501790028784,-0.11139466108604157,-0.1008405767161369,0.02216063757496064,0.09330152056997952};l1w9.load(weight1w9);
tansor< 5,5,3,float >  l1w10; float weight1w10[]={-0.2248954110837112,0.07512810231335995,0.21532365165477046,-0.06362360961405623,0.1917266150669481,0.05799525725231709,-0.09262707876896283,-0.03061105154702435,0.05671814469745101,-0.12256792062295137,0.052727499300526046,-0.10936182686945897,-0.14680302007542745,-0.0003431313175083807,-0.05733531163982549,0.16434531747109696,-0.07626944292605678,-0.1497653158890611,0.17762700354061048,0.019049666274584005,-0.018911455907599725,-0.02390574123284525,0.14252947795449816,-0.150041292058098,-0.18010593594975205,-0.11636254279454679,0.07589832234950082,0.03047939093841971,0.04524308476250833,0.08992007812923823,0.0005373750733375865,-0.23014138282864383,-0.13327007280262224,0.1281294136704103,-0.15297763368203,-0.08542038262791503,0.08080611498139992,0.007085493527856308,-0.10249645248632658,0.16547420240269073,-0.15094102596616335,0.08483017007508219,0.20250623546735375,0.06355616062618805,-0.059235331270191295,0.03956619062707606,0.09344091267925975,-0.03238409466454265,-0.04003565772163532,0.005816183962010524,0.0983601868961002,-0.28048876562211833,0.08366526329111464,-0.017171059622238822,0.2944122909682457,-0.03018212277779513,0.07256300475806136,0.040877521759150326,0.022817303520609757,-0.0037159449684968865,-0.04525929232035942,0.01568793996376622,-0.2704641384756079,0.07267941558433905,-0.011871615406816787,0.1450467166286636,0.1694755773485184,0.17442524198863668,-0.036666816400950736,0.1292949576585967,0.05720367942120561,0.023758276555550285,0.02088779730897874,-0.15674951086467406,0.04837592145507479};l1w10.load(weight1w10);
tansor< 5,5,3,float >  l1w11; float weight1w11[]={-0.051028118842588725,0.12549678093360356,0.11590190823831366,0.16053342949061872,0.025251604885950442,0.028813052865492066,0.0912808050654273,0.07114815975116773,-0.06979050640618976,-0.13362310886430748,0.07689318770168117,0.10438969219251197,0.10086997959146499,0.15759216604383325,-0.2016778493686926,-0.16311749736942804,0.007393691731193689,0.04528151933016192,0.05527579825014242,-0.09997826019625483,-0.07114277195301269,0.08458352947115289,0.13153963002532995,0.02228350112833793,-0.13173850126833003,-0.20028376287794725,-0.14341884622948628,0.04955908263088702,-0.0016823438477119256,0.01528157946193591,0.20084520863159738,0.009486602025790814,0.06800447436942346,-0.0033801781680640615,0.18665881941212964,0.1373925866468785,-0.01387527001277031,0.13100756918180625,0.07666701103665766,0.05859291476671794,0.1141120849099469,0.05164901719995765,0.06942639160820605,-0.05678584346868617,-0.2798845211672653,-0.06493057625252184,0.11981309687019295,-0.24084413113597217,0.024076065474678398,0.21838988455106892,-0.19826307365957938,0.24303333225880672,0.16157681385119416,0.13153004446019115,-0.01499778603579377,0.13879373045970847,-0.024603971847938038,0.17653647501177072,-0.026892560063128696,-0.04615741378845656,0.05018193085142461,0.1288193201393794,0.011256390558458706,0.10781205914272547,0.04929828913212756,0.14810584621632109,0.011277834151774668,-0.2540903006646405,-0.008715397630870153,-0.2658152255689906,0.11950577526630593,0.13900614762639077,-0.10328765060993271,0.0043416690183203915,-0.0869260928268593};l1w11.load(weight1w11);
tansor< 5,5,3,float >  l1w12; float weight1w12[]={-0.020036371780317273,0.15104863708084454,0.007260822405805823,-0.12288997275162238,-0.16731375339406052,0.04154251269086588,0.019318489524577646,0.08452117034404845,-0.10649546389699627,0.04074836615054639,-0.07692892002973811,0.21148166594415338,0.13506216909748747,0.0428582330080379,0.04576590814445386,0.09088044004430075,-0.06453598932405852,-0.054602903288901446,0.020618152118053578,0.07459021954884137,0.15960748728450486,0.06961478901921894,-0.09890236893664843,-0.029089618845852896,-0.11080037475514688,0.0011096836343056637,0.02315229613979763,0.031573015978176494,0.13786694404321198,-0.13301977853434474,0.08764314702380384,-0.16911921785447445,-0.15544708840614235,0.21087310896700356,-0.17284550818542346,-0.14626267533326795,-0.022439182610349065,0.08609314436361148,-0.058874383798727344,0.09569741390372681,0.13501606043398431,0.006025646494669138,0.06944263350440594,0.08671082832935734,-0.22549558246851445,0.2006782151588338,-0.07817861293740576,-0.10078006907504353,0.03717863531707906,-0.07603320093943444,-0.14145650165692045,-0.1338383154519341,-0.1098945840122309,-0.09547483859937052,0.0871293649306627,-0.04607460009629247,-0.0811259978318966,0.08972875192841175,-0.2010560441565849,-0.06958958320811144,-0.06903801378142294,0.011495084758413245,-0.05416517961809415,0.10892018363856715,-0.003460899450641585,0.10194756661381654,0.0667349815775668,0.06126815499814749,-0.14384659639085695,-0.07216255615410834,0.030334746152826837,0.0939115655451847,0.126790639346962,0.1220724628223139,-0.17228652446580858};l1w12.load(weight1w12);
tansor< 5,5,3,float >  l1w13; float weight1w13[]={-0.00004275785512863287,0.05101950574972412,0.060693659787207845,-0.038573778541933126,-0.028997545078852424,0.008296205507184115,0.20580736723125034,0.0461466544000866,-0.013181538396105216,-0.04377159381626371,0.09691039552178055,0.18847472004007948,0.030237981017161176,-0.17761895739243094,0.08222514851224,-0.08003724854495753,0.09303833143924516,-0.021044637149505444,0.30448273089004807,-0.02791843354045235,0.10108980835619596,0.023711349315842914,-0.18383216821910942,0.0949364993481166,-0.005612131434513229,-0.2638791621707331,0.14281293839100814,-0.020381389547400233,-0.056722943170446544,-0.02258450860810349,0.03839233371624955,-0.12966663545264873,0.15445953643075927,0.09521909418595087,0.04741475863543927,-0.20347655035936119,-0.039777549435969825,0.0599912227985022,-0.03861260291407586,0.051276248169030175,0.10520581927739293,0.007097808127019385,-0.1378369228923798,0.09888885610328323,-0.06544698615793731,0.07789992655087578,-0.05312257043719442,0.0025657851999408964,-0.0059253302392515,-0.1143916135795771,-0.11988634233656849,-0.11417043995158405,0.3919655361926112,0.02104808881051082,0.13549333514969852,-0.08265764695941862,0.15589903376590733,-0.08697452765681693,-0.1290343337965544,0.08834974775785887,0.2291591290534814,0.02391178271970476,-0.1143514248961302,-0.08632763068313805,-0.10186452733567312,0.016296582208148665,0.03430340039356039,0.3381957503537198,-0.04899712258361543,0.058473261868049735,-0.024998164327575182,-0.043086330829372764,0.011684578280624403,-0.10772092803136969,0.022136041406765797};l1w13.load(weight1w13);
tansor< 5,5,3,float >  l1w14; float weight1w14[]={0.02014959502679942,-0.16165539755523986,0.11545962477558463,-0.09207288484412225,-0.058800836181426876,-0.093399107689765,-0.07384470806713332,0.05769905262813778,0.11966580059966272,-0.06055301037443546,-0.11122626045292831,-0.047377650432168385,0.2350086480655012,0.10583051484578271,-0.12396883254581781,0.12382340457769651,-0.17460483205348296,-0.08934902557052099,-0.011688655294851639,0.23005871852822263,0.014003930634757156,-0.03202429390609712,0.18465630410083772,-0.07562974934950768,0.018677992876326825,0.002276937942677442,0.07522968640893396,-0.045187600209888205,0.13649265636180255,-0.00429506020733064,0.20012335408888068,-0.13755913720782428,-0.18756607630144712,0.047846768267945296,0.11476198338216793,0.04662225759969076,0.01182749734570465,-0.03057133427539009,0.015452415176117168,-0.06610520462125424,-0.15636838880620807,0.01334083205408104,-0.006704800355279745,0.12947339607599656,0.41835619083265885,-0.02337450747000062,-0.15319811039983813,0.16155108524127115,0.03259255810163292,0.0032774071421115274,0.03326168091150695,0.04086555679793086,0.04481440385331771,0.006238022695124429,-0.09544612425627712,0.028920893818835315,0.04653904824818026,0.07073515110409312,-0.07095442517014343,-0.19466838534646608,-0.00694410218457003,-0.05312986722582467,-0.06761302144015516,0.05889442602702695,-0.0756282954021492,-0.022441260200771505,0.0059990697375280145,0.28558639550835674,-0.07202761818848998,-0.007174952717886436,0.1599737252444736,-0.014613383778898745,-0.07599703849114982,0.03753035958791062,0.08284605677463533};l1w14.load(weight1w14);
tansor< 5,5,3,float >  l1w15; float weight1w15[]={-0.05465530990018104,-0.14052970662955738,0.11834366166948122,-0.051726183222986354,0.020615474029895595,-0.1602466377629289,-0.02281300100139167,0.10954873118980327,-0.06110847912931692,0.08687980886367616,0.05409907076660454,-0.07151624670624804,-0.0820560037148468,0.05286591999759724,0.0596856531842151,0.030279489350775873,0.18231826621220468,0.15552619530811013,-0.03468361921930945,-0.018950241638037844,-0.06051600160814457,-0.057140612977549896,-0.15782976503627572,-0.13482321507592843,0.07298711101614337,0.09520068989750384,-0.0805029841306209,-0.12839499463120868,-0.11908001009441498,-0.03946938326200303,0.07021018505609758,-0.2810672559814997,-0.009064535575944267,-0.18312843860628417,0.006905573447396849,0.00895375514661642,-0.12528271125146992,-0.038821592867190016,-0.19230458474332823,-0.0033930614570251297,0.06348860645710418,0.038567208515267015,-0.1667790603885641,-0.12767460412425682,0.07725748874857187,-0.17334834768155663,0.07641909529220049,-0.11413661417129825,-0.033342907169667396,0.01412962219623166,0.12662844324748354,-0.028517064493415466,0.1267201904761647,0.04088396077451588,0.03699219599858613,0.14159214319213198,-0.08376287177737775,0.1536241011467417,-0.06514159414333183,0.03081580042245836,-0.00425423861567441,0.005099424861079021,-0.032600857390823246,-0.06106244185696926,0.1300339872298464,-0.018876577749059095,-0.13440980348886225,0.027844417399556638,-0.03078296430175897,-0.10361280501927837,0.01794807020755364,0.13269866896138482,0.04221409203915702,-0.06967875743972475,-0.031070301363725794};l1w15.load(weight1w15);
tansor< 5,5,3,float >  l1w16; float weight1w16[]={0.13933418775571538,-0.041134011375110864,0.11772713838214179,-0.02417111254243454,0.10764233858555214,0.04704482322153436,0.14521659031417394,-0.036887770842703484,-0.14860120393183573,0.1260713738796348,-0.015383747875595637,-0.20107115095810732,-0.08124622334942581,-0.17677326191653864,0.06760733355999704,-0.1275493134354031,0.11728771675175594,0.03714180184589476,0.02794514337430143,0.13400125956991968,0.1459992663785582,-0.012404091524741893,-0.031728486570537597,0.12012647596573833,0.06745465957034996,-0.007744453653513297,0.09023793934035756,0.06970240108193429,-0.17081446862217547,-0.06712018622344286,0.07004321061270027,-0.0017406618962674265,-0.18354351842669087,0.04232358945692795,0.05742370180620677,-0.16343762378667318,-0.019871447259990946,-0.010557376834543712,-0.031092128322683855,-0.17571087635012358,0.31004562673824776,0.018257460293394007,-0.12782446276587486,0.007494804153160272,-0.2210976476044557,0.1548625412643606,0.01717815270382751,0.16907469591732538,0.001110839749169537,0.014634944524331846,-0.2937430107529998,0.1538810401317457,0.14828083617841167,-0.061414428907957876,0.20090635443592997,0.20561797445401048,0.0740629750346335,0.024497830709337483,-0.10598796551670302,-0.006576844518455943,-0.12306432116831426,-0.08502727759302275,0.04515990303113426,-0.2508160648362237,-0.051564818492342415,-0.22162972387295324,-0.08093064563633848,-0.06570380429640349,-0.09142642868844718,-0.031776537523585446,0.07774568357764566,-0.07410782606605154,0.1478552847579415,-0.23671345250262618,-0.0017460232165169708};l1w16.load(weight1w16);
tansor< 1,1,16,float > l1b; float biases1[]={0.09754572212566552,0.09062547661600893,0.09460150967683588,0.08545742625307232,0.0942050631775978,0.0696843345281334,0.10854689315686519,0.08957022648322667,0.08943559771643446,0.08435036483078082,0.08412757104734624,0.1063597268065894,0.08700665632470173,0.09595443254989888,0.09285228299156988,0.09401333788311945};l1b.load(biases1);
tansor<5,5,3,float > l1[] = { l1w1, l1w2, l1w3, l1w4, l1w5, l1w6, l1w7, l1w8, l1w9, l1w10, l1w11, l1w12, l1w13, l1w14, l1w15, l1w16 };
tansor< 5,5,16,float >  l2w1; float weight2w1[]={-0.014884359420016813,0.07995109323770841,0.03364772795400654,-0.03620469467913384,-0.032770948227707694,0.0002580190374333774,-0.005270436310415444,-0.05763839788674385,-0.004346835318100435,-0.03903299253976404,0.03601836818359637,0.054333094331983904,-0.0849469132001689,0.003381532181756632,0.014744147609996212,0.054746348536271236,0.051181894996823,0.030754280556293378,-0.0015305874651289262,-0.09298033892768147,0.0009303276466276572,-0.06479411752620937,-0.037727730064882184,-0.024781291457018222,0.0079482509148429,0.06578755968069376,0.0485245695349639,-0.11974540222105172,0.05310428474960629,0.01874808308334818,-0.0370479312071137,-0.02623436539240137,-0.01704786318231806,-0.06001168297395591,-0.024074659056601392,0.07538751241154328,-0.009756204826204547,-0.06293766746859866,-0.026144351543695474,-0.0004482070239081859,0.02498960925077837,0.018325995095911738,0.01557721415499492,-0.062114630061918225,0.05882217875215761,-0.047361136268548515,-0.0388984940896034,0.03751261878676225,0.049108988053581756,0.06515086565272765,-0.046301602797379084,-0.08088728534794003,0.029067031395929522,-0.03158196902895691,0.01592110405072244,-0.019186690178832868,0.05120506830894327,-0.06755543416645224,-0.03822074531926396,-0.0984419988094338,0.04065222625895886,-0.04716650028671774,-0.07078514160877813,0.010065117565945487,-0.0062424741330095205,0.021235804138389394,0.0398025428169124,-0.004336173840186562,-0.01974012547110136,0.05527762667147077,-0.0690442075440192,-0.07962041756441324,-0.03685079519329412,0.06990237454029845,0.021492563311062692,-0.04501991286158787,0.006548110488166653,-0.10354990896390193,-0.017829901515546354,-0.03918209075551618,-0.0380532409313132,-0.040101085509071835,-0.020724329094315652,0.09544233809626847,0.05749136442084646,0.0003419323180029931,0.012015615330372344,0.000624540864167583,-0.003932069742769126,-0.0060073759105884455,-0.055903030713670435,-0.014800700488299273,-0.012803845553328417,0.016929818307177727,-0.06707521445067406,-0.04180252777455848,0.07789931491109758,-0.08402798124206498,0.006469061142955014,0.015021264711993807,-0.031160242599132096,0.02434938536596625,-0.030143897247133525,-0.13905300772949292,-0.05437219718760699,-0.05233888746547152,-0.10900606914203562,-0.06470395612755561,0.0010456323293045896,-0.11391905819852348,0.02859919520101505,-0.0075903910659359565,-0.013195907527513685,-0.013624730862545498,-0.09672817647108907,-0.06946281821747272,-0.043411924759542204,0.03822069999399367,0.04608374936886367,-0.01759679833461052,-0.01258136246825918,-0.04611105137043806,0.03973369786529129,-0.0017795440694765201,0.03599115244214677,0.03560540129315729,-0.06486822649575089,0.02978731453522249,-0.01605921173837182,-0.0381498734810444,0.08571836718341147,0.007069224565251468,0.0020314901658867236,0.053819583350378654,0.08820806029412688,-0.07205389731708015,0.0636681635297881,-0.05647687832506749,0.035454109278165544,-0.0470434402769198,-0.03423170684567522,0.034101316542051605,-0.026862183832667492,-0.024786234208413933,-0.04507299434877615,-0.0005142835863121172,-0.021730233150757675,-0.04222607837175885,0.04291450156654772,-0.07075580161463547,-0.02550458648765078,-0.00929361856498507,-0.03512555813888957,-0.00989165626464389,0.09710778971249012,-0.045951374807354756,-0.05557763041715691,-0.022938655708464206,-0.04679885494254078,-0.05070053918170556,0.02661266995805082,-0.027778171994504136,0.14369907165378895,0.0770964228955764,0.06162875151724947,-0.060778825452333325,0.023488606376357475,0.00439062783847591,0.0005838265105147442,-0.03814613946842636,0.05966295595229549,-0.02470219570426748,0.003472501115252927,0.024462064805490187,0.037951502580018205,-0.00997695734223182,-0.018974670985008827,0.025828856110281014,-0.02628742958735156,0.017439914856980387,-0.11363563549399154,0.014081522323608878,-0.004861763940004232,-0.023681331950611038,0.060383107838655886,-0.009570511538726878,-0.033984164743806396,-0.007715656994752157,0.022429802035266348,-0.004340719273742206,0.032902974566954915,0.006268941517849067,0.07324546758656962,-0.019926384747079647,-0.02116558595056726,-0.027763306167204738,0.04515112441860034,-0.004675236954172667,-0.04271443389105138,0.04358041766614044,0.011040203872338856,-0.02641399280411297,0.016610066139626827,-0.07916986195014958,0.004526075499778574,0.022410776861528932,-0.0020041347556248226,-0.020346345185038167,-0.09402310123990723,-0.04218776188673032,-0.05056010324200384,0.030185760610989314,-0.065909475134379,-0.05361753021042365,-0.01263573663060205,0.07440756242997355,-0.0656829142183508,-0.017127227882557466,0.040622067783031186,0.037096378940629754,0.03036898687816815,-0.04371720520681333,-0.05352693502380888,-0.0913662401841087,-0.006015846098496735,-0.1243439380563576,-0.01994280099943987,0.12489053204645076,-0.13781928272703417,0.01943754211166973,-0.05841141213955485,-0.045955249182068864,-0.02704615788166622,-0.04981790929861622,0.004494877277060211,0.02905713221644522,-0.07729649535223788,-0.007342694188286963,-0.020267731731252004,-0.06679477249707991,-0.003003605125399808,-0.03100103023398636,0.023116490399457467,0.011889437370070751,-0.025350536589543907,0.03807788780299982,-0.07530292276179054,-0.07489416315704783,0.004436131082676462,0.08956988222322053,0.01380393593776157,-0.05077321692522379,-0.044380518956998086,-0.020881054299349527,0.013520921380113272,0.03518093217029758,-0.10550964751562529,-0.027127447452615444,-0.061768132088422814,-0.04066728390079589,-0.0010714841407460708,0.0346706431061239,0.02806670705301203,-0.060653787765019784,0.018758355348247203,0.02128130537470215,0.06900024142727132,-0.02280136365084261,0.028987552048080335,-0.04358266114339708,0.0030734327113886763,-0.07172345314944698,-0.03392227055966388,-0.015267686522479005,0.028592627442160057,-0.03163751279379394,0.006737153053880508,-0.08495323449627688,0.06890745297177173,-0.05363096429225271,-0.03789461709634589,0.07839248380095319,-0.0026530572745669685,0.013753301198943493,-0.02818202013767647,0.04132763047247606,-0.021756041003987217,0.026501770617391833,-0.06454342171558768,-0.1222759251068952,-0.013205528694064257,0.056706671797195976,-0.04094491288934672,-0.053862378982135764,-0.08127525722272051,-0.03229345748063875,-0.009785337402420848,-0.02727344349112475,-0.03654765819096144,0.005446061105250402,0.0582416342162499,0.029237059668785915,0.04607099146350061,-0.06878809868196746,0.058408684481041105,0.013012709650859296,0.006273458866416149,-0.034129026040596665,-0.040889476268387875,-0.06094624597704786,-0.003132753564395344,-0.01568224308850754,-0.010543553723886153,0.13512127961654413,0.03854726301503742,-0.021898680701100025,-0.049678954595589825,-0.03783162545881776,-0.010563112212304738,-0.005395602488926817,-0.022851398467696862,0.022934909587184117,-0.003220813762311722,-0.004791212474644845,-0.07041428792486465,-0.07182985113206244,-0.09911611348922929,-0.05304222540515651,0.03809221961582876,0.015455384944424595,-0.018000579106193605,-0.021762830526361493,0.006471978193981016,0.05024860091026952,0.0269291263607143,-0.025002343259619596,-0.05001085851817044,0.01739853395451016,0.05905954772559007,-0.0077619683073268135,-0.01201466531760696,-0.040506663715195006,0.016257387089862917,0.03367862120435095,0.00659317316603987,0.051755723366166094,0.07150445080903559,0.049380437018646604,-0.05087795021511062,-0.004060373249953607,-0.05491633558279209,-0.0804378326652457,-0.047487834168401924,0.08696293330174219,0.009264960574042105,-0.007190252647580988,-0.02153382907999383,0.01974878685444572,0.0005154191285590671,-0.018179535410161762,-0.005271615567741105,-0.07008957990066202,-0.018583917289069926,-0.01046839699738239,0.05288805057546131,-0.043878365966550946,-0.03535408857976582,0.006112528664613989,0.028743189787979045,0.008545438877570527,-0.06476198104810602,-0.005435167442721283,0.011280078153565912,-0.07661254795209338,0.08400775402146836,-0.08455662829110998,-0.06533489158701886,-0.0029594895264885577,-0.04363557203270937,-0.007821407027459058,0.012432773064210714,0.008618424780589015,-0.029055405665955682,0.0505659671142634,0.0015404315846648628,-0.013125903034981333,-0.004354173121142302,0.04700915764199629,0.021251740702583,-0.005223711683042354,-0.012139564174993603,0.05638456250363933,0.08436155294570294,-0.047381118203473585,0.009075538434697118,-0.05060985350249465,0.0076331067906556275,0.1083726190318979,-0.03219279102940908,0.05106916992906873};l2w1.load(weight2w1);
tansor< 5,5,16,float >  l2w2; float weight2w2[]={-0.009825224122047265,0.055047004413743474,0.06202699732257269,-0.009663466389670926,-0.04013809912212918,-0.02561709785249932,-0.02186561173157195,0.024014667809879736,-0.030781676818035005,-0.11902984505958328,-0.12243117584589132,-0.023682018889670448,-0.09208155746230477,-0.05854690960898234,-0.04525682947530704,-0.03195988705920159,0.033501223447092845,-0.07224007531166823,0.020515020847701754,-0.09830795690279912,0.056712983755787205,-0.08867009973056733,0.0031458735481658035,0.01640664393574288,-0.018302687802079533,-0.00825910539057173,-0.021460445726585505,0.010096019398987697,-0.048939239306372825,-0.01344416479898577,-0.025459942302410856,0.08135095033623672,-0.07484540744505778,-0.020086938123891188,-0.012287606531985996,0.005311876633698755,-0.00585638835141382,0.016606597472395856,-0.08842446202898985,-0.03264157969582827,0.07916183029777957,0.018293448556783637,-0.01989689711335696,-0.030691449628407627,-0.09255326051608255,0.03084706929554154,-0.08451585268175067,0.09916635983691069,-0.16436088718386288,-0.019665409029874407,-0.06956434557212028,-0.0623686522183079,-0.06759665211289113,0.02893569646485034,-0.021872992059136398,-0.07807166822452784,-0.008285355563880485,0.06246410142250963,0.0005257999998334057,0.026634167581741183,-0.012386732049220172,0.11744767900635034,-0.046176363866124344,0.031069579276871536,0.034717439520455216,0.08239861607496722,0.026050455158848844,-0.004238932403549821,-0.009331996678452132,0.002995362267033256,-0.04760979300120185,-0.03372232283445545,-0.02294379090359764,-0.058600463141928634,-0.06936566437254096,0.03754484800706649,0.029596199166188157,-0.047702918098309434,0.060674213549428,0.019598994300532826,0.08560826834580078,0.030672029418294684,-0.048796902440179694,0.10393975517016285,-0.05553550780449946,0.048082589771707714,0.023592925025365346,-0.003842694694928573,0.014956512947175144,-0.024345123962197086,0.02704270172225329,-0.10632586323906847,0.0146748782283761,-0.04136601108564963,0.02817748207162043,0.03035743716958539,-0.05063576776840208,0.06432040827947394,0.03303466922380948,-0.03556863888689515,0.029651384661976983,0.07718223963755118,-0.04182317366677567,-0.004581869869632152,0.059788071245856445,0.0077796483415359914,-0.025867233428351982,-0.0770164230940505,-0.023755801873448393,0.051835573106500984,0.05969146396113599,0.07089932513718016,0.0027028044524891764,-0.06978155717679994,-0.0036038941710718367,-0.037729808440887816,-0.10747627502740816,0.04489635910819796,-0.02012840931753427,-0.0015500199023279068,0.05459190710649543,0.005115563710307913,-0.027148183215812006,-0.026205483656798246,0.01966872655526073,0.018104598157945812,-0.05435603541216311,-0.07503547398397975,-0.09407409011804979,-0.05487467566431196,-0.054515044350332977,-0.07347813557669873,0.09187745317150064,-0.01293883708518107,0.00018908293704176761,0.011740423501763641,-0.021791167708966008,0.04804287443598601,-0.010704196636040868,-0.021945705219310985,-0.05809240576231524,0.04317657455787911,-0.07470968509413072,0.020846895168459487,-0.024147809835054223,-0.020514134049350697,-0.017609842348079083,0.02667736178227171,-0.02401502241023838,0.019722531178124156,0.015598410573828046,-0.0007106885756208648,0.011211936547953024,-0.004920444239629575,0.04064788016795242,-0.1253735169162913,-0.004499846844329943,-0.07699740354497919,0.09150973122701425,0.04924235911844396,-0.04418455443855354,-0.055113263677967456,0.01084439308389601,-0.03348740938775529,0.015162734325817662,-0.04292862416171431,0.02105416122953517,0.01060261559456911,-0.03406557845224832,0.01628413802198035,-0.06410570776524334,-0.05441571137001106,-0.05278076089871081,-0.10797973954738084,-0.07482753516385451,0.06011195911795438,0.09026406023342676,0.008532090797519336,0.004562598231826343,0.08048831099060424,-0.03965750097698126,-0.04924102396983489,0.0016799134808517812,-0.06247186343104093,-0.014536960445463553,0.03630145948063571,-0.0025565676553376314,0.015999819968934962,0.07778826446832575,-0.000626873207811721,0.03394169503523813,0.02349521036991111,-0.03286880881777557,-0.005225940951383936,-0.057484742731412936,-0.0399558940739728,0.014863905988543327,-0.04252713787876131,-0.00005774331037566549,-0.12325739883715947,-0.014582326980420285,-0.051761505487947224,0.0023624811399546187,0.017341638333458382,0.0004708763498288159,0.0005253767276875704,-0.03614622876550719,-0.09687046621343154,0.056837154756282954,0.010186790216141968,-0.02137594630972106,0.046927245674369705,-0.06323772169334216,0.054484220485027594,-0.027842992445065346,0.050786529222872946,-0.05965403021480667,-0.005030398055118232,0.04245182210767592,0.014287027854092242,-0.06220475332303569,-0.04787479597272712,0.028817891143625624,0.0313762424286113,-0.0026072678950431706,0.14252500538093338,0.012264755301793481,-0.06279603472850318,0.07969990827649086,0.02915023795036914,0.029931537837702155,-0.07082544388649585,0.019926863477919866,0.027351903433211075,-0.10094192341763902,-0.02959878191431121,0.04902542805960024,0.02870230411753591,-0.01806857455991748,0.08434190894342025,-0.05777292690743904,0.02437148374300556,-0.03542207730635226,-0.04827160923314365,0.01548395429562356,-0.0021151886800535647,0.018622959297411045,0.04393987136435562,-0.04776239657623623,-0.0115728556961784,-0.07488023741088135,-0.023616536219747547,-0.07009208722161744,0.03842705131287892,-0.0621375455515464,-0.009954660702488082,0.030127969385544583,-0.00011598961606502407,-0.04642303113093728,-0.10474692926301543,-0.07168567737839818,0.012913794800191971,-0.07539267669937835,-0.049958306529349746,-0.022428407310531175,0.04626703543788152,-0.011610942885949991,-0.008786558480830474,-0.054335456827116345,-0.08449418275906445,-0.02347099138482491,-0.08682517283155738,0.02824082246509077,0.015242092498602557,-0.10413135074202104,0.005071375248273178,0.0037188497184671,0.01849078387944896,-0.09656369431574932,-0.08999667231796483,0.05836765137219545,-0.06414765008047979,0.09556447204010042,-0.013478341550692627,0.05730522984871972,0.055743261895430746,-0.024044738435055536,0.006577722714311926,0.07388069393387674,-0.051308481816653206,0.0005437997044744207,-0.02386557952479313,0.06744899104133698,-0.02229675748520805,-0.019199966089678788,-0.029229956030798667,-0.07939651946316488,0.013210734105115855,0.04244542416853226,-0.039155657304568804,0.017027519735599426,-0.04373322681806413,-0.019918527784708307,-0.04527553649876956,0.007457819406148022,0.017816508064223757,-0.006085878977976305,-0.04221158608240113,-0.007995511235021666,0.04274341705279139,-0.07222835045107809,-0.022394472620269085,-0.06811198033723073,0.017279079429117324,-0.04828839011319248,0.02247085723855367,-0.034739946026778754,-0.04613484986232976,-0.007950659363738401,0.06677941766855902,-0.0035491306475360146,-0.0007810966640158152,-0.11151884819812173,-0.020195056695570975,-0.0415686355278783,-0.04771397877831694,-0.045265964640246494,-0.05055944369601034,0.00500509846017644,-0.07021662802167726,0.03031496764804295,0.07276758109353039,-0.015694278212057624,0.036242039197986145,-0.02621802072486735,-0.0552040760182524,0.06578903664387124,-0.0656240554046443,0.04359001178978096,0.010556282447829609,-0.01058572472656076,0.05889548380115251,0.01093600688155245,0.020675675839140227,0.0004256236897498199,-0.0010601877761399964,-0.013109292002731665,-0.014550710517812638,0.05400485353235536,0.057690681863231334,-0.10465436708450798,-0.009606504122612885,0.002718010911382673,-0.004345013213868061,-0.05710468671362806,-0.025206705099718334,0.028694988164331636,0.05256035123960094,0.015042805007802532,-0.060706934835919234,0.04032456987270332,-0.037915315998568386,-0.0032007505647871767,0.015106606973043607,0.06236841776940689,0.014630643943013149,-0.00034717422420966625,0.035221751166069855,-0.06784374313031115,-0.05266359504246477,0.0634926742831147,0.00014744900722123995,-0.03817859161149307,-0.09808309096149109,-0.01995553466419426,0.06334448711603395,-0.12115365130796009,0.05324241448497351,-0.02393485105506491,0.01649386381373909,-0.01205233167222692,-0.06602436937875039,-0.05305240158788511,0.0411887012380766,0.01590705878994804,0.08640063929773974,-0.06341603458432331,-0.058245003349773776,-0.07724114166920343,-0.051890643003609696,-0.0358218717079853,0.0140769208502462,-0.03926624593138259,0.07442799244352062,-0.026728187955444273,-0.014772062808593485,-0.011228492199965218,0.023130333149377746,-0.029722995881999188,-0.003619234050999813};l2w2.load(weight2w2);
tansor< 5,5,16,float >  l2w3; float weight2w3[]={0.07441702791512313,-0.025138388109198585,-0.1109054473879018,-0.02523848810768822,0.04412891423404055,0.013801521472866592,0.01962281259965812,0.0023158494791720025,0.011479201478947473,-0.004346381482186063,-0.003258754183918432,0.005342874854992355,-0.052151882118083075,0.008100454342378965,0.021836732895479338,-0.014169205481659685,-0.007971290140048362,-0.07891714392602764,0.023410974858968845,-0.00042936905130080613,-0.04612579466361456,0.0034668110055848587,-0.059964511683045035,-0.032624029969732356,-0.09021747365279208,-0.07430092248449129,-0.06802029545520538,0.05465380888675832,0.07519195255256361,-0.027628480888774468,0.016434181076289432,-0.07263529273349903,0.018060817657087946,-0.07487471135110357,-0.0037865284567614767,-0.0843271448678627,-0.10858788650203226,-0.021544205706191102,-0.014235966101190033,-0.05085179920354807,-0.055640617418761584,0.03039648820057313,0.04433128629680795,0.028674880925307317,0.01740263348969534,-0.012659375351106922,-0.0646479306501081,0.051087536290558434,0.08271633488194342,-0.0006782120154346276,-0.018978838830051425,-0.0035641273424435503,0.026681334967677516,0.0218707556571315,-0.010733663670999979,0.031284528398297234,0.03388052733480361,-0.06287176107895771,0.05526140402508251,-0.07454025037511117,0.05053384960097129,-0.04262030223092189,-0.011947581879089599,-0.03716911308832779,0.055655397118738716,-0.0035068435076018234,-0.046026194164856905,-0.029160213722957844,0.0055493193044768244,0.04742841034961188,-0.06400135584374043,0.05198260131062843,0.04045787922507933,-0.04452107934918969,0.14115519143269176,0.0850203662027343,0.03621883597337237,-0.020479765157211168,-0.12309277015930559,0.035267007330073596,-0.10917934738262301,-0.013339842459974546,-0.05047158426655102,-0.012691013425158207,-0.06383040059486977,-0.04606260661762687,-0.04758271345667634,-0.06668474100164122,0.07399915007755364,0.021264435899442914,-0.0757959380515337,0.05446743524217627,-0.07044392683600785,0.018624318622894098,-0.039653073281894796,-0.0016503882774485772,0.03439640683683352,-0.004408647960762458,-0.0006071912845199519,-0.015198983609116885,-0.027770444102351133,-0.027649677095900077,0.03354471827352147,0.00010034141819796169,-0.000296201920227941,-0.033296718079811216,0.04812517898810394,0.009656966338323397,-0.022434634876298203,0.02008386555613166,-0.07311228773117026,-0.05021535795339804,-0.030056518436505704,0.02781120460338401,0.09212807603060827,-0.02550672274704828,-0.07873051969522539,-0.038340570771835863,-0.052893294464061505,-0.03695602306702736,0.034581518012855174,0.03714724018418182,-0.004200980030461167,-0.00410059325945977,0.0014454164734877192,-0.13049532803620473,-0.0588122997449948,-0.06104860419573187,-0.003512431503889488,-0.015569929049404642,0.0055279332124506045,-0.054547798694646335,-0.04995491230426011,0.02573036234670715,-0.02986118198837839,0.018927358979782424,-0.04290921028065251,-0.01573561128149269,-0.016865549322312556,-0.023396053120017454,0.06037715448104949,-0.02230052182800543,-0.037899227406377876,0.0761117216141039,-0.089876897597012,-0.06205188009678068,0.07995564113907384,0.03414775390772445,-0.013618799167196351,0.001547272942958637,-0.0338460149089344,-0.046465206069191745,-0.017127633152783043,0.024541811745532112,0.11852847281839222,-0.030455541450915547,-0.003781384751979985,-0.03487305186969547,-0.029547146459230605,0.022800216044437376,-0.01734810184860076,-0.03807166280547646,0.06197351179799871,-0.02089605325868835,0.04041964808336909,-0.017934543662736856,-0.0433418897579028,0.011260165998476316,0.07977772729406576,0.051221190379784676,0.016799048240147513,-0.013808691669111035,-0.08117890881148682,-0.03963491067933189,0.03782461341457932,-0.004205855568517077,0.01111761310863513,-0.007292870357386318,0.0601468693275463,-0.028279861553894076,-0.03895074426618993,-0.0572978767839043,0.053052273686276,-0.14266410512831623,-0.02610625378394219,0.0017474323723229424,-0.06365005315139483,-0.055713534205285714,-0.01853967166857183,0.011042433271987288,0.008892889424859449,0.03984234863785992,-0.05637891522828005,0.05421105777093837,-0.01775175199542309,-0.031646108748047984,-0.10743029759203157,-0.00822426082310011,-0.00019932102536820637,-0.03430248042846745,-0.05252328565785316,-0.010684088085021005,0.010682733717239089,0.05524310786355848,-0.03420111366664979,-0.03302752076212802,-0.009723403156434784,-0.037430032444293236,-0.06355456359770144,0.016694000264384275,0.002790285970913624,-0.0741488211712218,-0.015484018772024714,0.014089651352891733,0.02783345259031575,-0.017014599607787444,-0.08879817251292205,0.02932338836708932,-0.06624993476792025,-0.08048318759255023,0.08613027872873161,-0.04299922463442922,-0.12598923953405763,0.009184994859353372,0.023198246853418193,0.00476430472992498,0.042347638066779214,0.06830111845111071,0.11509955878555048,0.011006506384622583,-0.0862896376543614,-0.012141803007817057,0.009751087351711282,-0.053682338604997736,-0.05775005751651778,0.0934097431543461,0.04495266048431748,-0.014453599143086266,0.005355256348334872,-0.06570393735936507,-0.005837210914195971,-0.08555165730631643,-0.012452347819875649,-0.04454027681714107,0.003949751444295773,0.051230250521434165,0.011801005705683904,-0.08942491044463227,0.05339993132918304,-0.03447495179007879,-0.011634350542475212,0.05433461562272005,-0.010755014143407616,-0.07186442474273352,0.12335331737392576,-0.004714794865291109,0.08055203150831784,-0.024806266906404858,-0.14193636793504344,0.05851607801442151,-0.07041985116944521,-0.04404989567992664,0.11015792795785431,-0.07080985802827605,0.03096393124423626,0.02575679600605147,0.01779112276498727,0.011050548621528985,0.002742071460128946,-0.025819939549713997,0.14426732090134567,-0.08003977704799839,0.057550462297658006,-0.13152850495176946,-0.020623701751278443,0.09563218490987907,0.07204402004195436,-0.07375088336904809,0.09211676361802512,-0.0051252511847042805,0.05717871370206767,-0.06422897308383957,-0.02127819330745513,0.01739812136828275,0.0946353882981075,-0.032791845792986066,0.04881325260268256,-0.08019251448064256,-0.04705950896982495,0.023041675426122288,0.04050599407107752,0.07277198743543756,0.1351808274453245,0.02433018648216059,0.038165900071794386,0.05306385924384147,0.07206225168104126,-0.10674336638217345,0.008144251853128717,-0.011921712035956726,0.019639928464389035,0.07630496157164643,-0.014742542990665344,0.05310004965771412,-0.06826888546659583,-0.021135306812459023,-0.02214832032781041,-0.024518615976463234,0.006217243947056939,-0.0314996867746438,0.09752298828597268,-0.05125245893229423,-0.05554111039961293,-0.05819876047647415,0.06522174043377436,0.06361852318133733,-0.07785927104376635,-0.03132533445388937,-0.04242534279191183,0.06335764058093389,-0.04538283633919732,0.09046567488545872,0.0016857193727619537,0.02572796271706676,-0.05472361615868143,-0.02054355587323614,0.11748308062379392,-0.0987830695044719,0.08482151157022942,0.08402000594476113,0.03478148805721105,-0.014346321299551351,0.05034696030760251,-0.011498373138252109,0.034162816143435075,0.004077015257227971,-0.03429970207350122,0.07314763364545021,-0.04645620624480424,-0.04703705544937649,0.034123406304651924,-0.01157486287065017,0.033804564141053546,-0.0857114275963732,0.06223864081862519,-0.011518349455773659,-0.0024899719156210435,0.025715744415773605,-0.07944020094873723,-0.12250782160354497,-0.009580916372423715,-0.037475909225426256,-0.009459517844443075,-0.04898718932038106,0.04820581619421266,0.03229983826500661,-0.013418260630095503,-0.03934287055291846,0.03864847715031376,0.02126471819298512,0.03535184541394824,-0.002864919299084041,-0.015072675394665261,0.041340342984262424,-0.02576556543269238,0.0724366312065276,-0.028490480571921953,-0.028310803451751618,-0.04462387707413183,-0.07179232916434394,0.015034719095415077,-0.03798200366962194,0.10055664260777747,-0.045577045350596174,-0.08127422759416869,0.023565605485665785,0.07046067567825175,-0.1145921596406457,0.012620104053967556,-0.027110758847482517,0.042784917590700446,0.09166417011168916,0.04604207123461316,-0.10300755433546586,-0.030911229094222108,0.05252653961426273,-0.01621560131172701,0.029014487266480583,-0.03276997760505767,-0.048902149392397835,0.0906689644027602,0.018406900453554514,0.0012489048600397437,0.02228079542313073,-0.06971526382507906,-0.03730883648462809,0.04640998358000173,-0.05149457142153835,-0.05066103842670754,-0.059304228868997534};l2w3.load(weight2w3);
tansor< 5,5,16,float >  l2w4; float weight2w4[]={-0.019964856282236338,-0.05341617391389916,-0.04870010447071767,0.03303404898604584,-0.016289879571506877,0.027031723081501372,0.052412710116133424,0.09598274314566761,-0.09576354031548183,-0.023254566446123857,0.008836395009391677,-0.009031643214708241,0.031653966554774225,0.0316887014097186,-0.028987512883353973,-0.02078701572158621,-0.007751496985212856,-0.003578323609303084,-0.12370842440514992,-0.05121243478235307,-0.016340747595307164,0.013122417729062691,0.014037148695473532,-0.00924854838731505,0.006112883744039812,0.08063550023009992,-0.04705507733590021,0.003780414970381736,0.0000522277950656372,-0.027309687035514577,-0.02937764669628641,0.033039369003610514,0.009939537935935622,-0.003974024338085936,-0.02981915086678794,0.034671607413970705,-0.05850662197208585,-0.03201116062218454,-0.008325068830170514,0.03999992226192603,0.00416278883367515,-0.05575104461254465,0.005850413039818838,-0.03737870363383045,0.02672984838417605,-0.05627516172593802,0.05942033755791437,0.10486733255317778,-0.09152505508940159,0.0005767872648659079,-0.026632506129842644,-0.007207913472836682,0.0004930273461049768,-0.04940390529052895,-0.04471068062603447,-0.023961534311278804,-0.07049791816109684,0.003990931505854385,-0.05223710796023695,-0.007515235938844685,-0.10399301163651223,-0.01685386057465395,0.004739050051584977,0.09188949856474957,-0.04758348107712901,-0.013639751991847773,0.011696855437522002,0.016109746819060577,-0.05708250002351853,-0.05041006222815724,-0.06886089736464622,-0.039669133569454965,0.028760412063059577,0.016398829404003903,-0.04877023929421115,-0.014622537385503802,0.017312274080709438,0.0630271202714297,0.05603141927138375,0.03716312151853811,-0.046829682194418715,-0.023239990632499454,0.0870579760728078,0.029976365538256073,-0.019491574851319828,0.020905324356541945,-0.04923200376284262,-0.01014083641550715,-0.07876915991265243,-0.013233561415770763,0.0069630665095727386,-0.07745878205107988,-0.08220795387206552,0.024990947212106866,0.06322520619406097,-0.014700668490247266,-0.026680332728805416,0.009414226627165945,-0.006831547594236417,0.005447002232682044,-0.0756207986849586,-0.047519085858231884,-0.0937090862644098,0.04514732397855559,0.0864458230869602,0.02665207740670616,-0.06767963643193409,-0.11919909022811202,-0.05063175443073839,0.01897397373086383,0.02154326061285993,0.025166888670472044,-0.028657061535192707,0.030895871570938527,-0.05748638055590292,0.060930530974948535,-0.00031234742895228356,-0.028541547854714047,0.004121601903500647,-0.004017802122276649,-0.05228408904248217,-0.03206463475321476,-0.025100415257680888,0.054673257468901455,-0.0874668580528765,-0.012860081157386894,0.03964719495222611,-0.05918961583000776,-0.060282487580542984,-0.08078227937362702,0.12011284694497337,-0.0738657525158902,0.06509429738149676,0.07836564369738828,0.03932092888082577,-0.04114482017843954,-0.004956631652261266,0.014633024672115701,-0.05175638990253666,-0.012485874410167455,0.000922265880105261,-0.003408503137938922,-0.06733241092368789,0.1257699785832312,-0.04016377371077144,-0.010202347513086074,-0.026238866200708245,0.04711150321312138,0.009792646246483303,0.051246182365107806,-0.03963200916538657,0.044152947073242604,-0.01813813471228703,0.09733002956596551,0.010170271367023628,0.0002720011330717199,0.03344476639739333,0.0035905136476442373,0.05439853458027392,0.031922203058195715,-0.024601958959275697,0.0481768030869718,-0.020176421675597758,0.04718940976746906,-0.014826634975529647,-0.008674558969679998,0.05506269688290556,0.042181019060967995,-0.062038000230244694,-0.02923914858300678,-0.04099307198037822,-0.042848413556805895,0.005890521849512364,0.0001784004094459923,-0.013701088941925201,-0.0598608864416554,-0.10129094668748462,0.04221901702804122,0.039803036942497885,-0.006475446590029141,0.018363672390154042,-0.045292710666756116,-0.005184036673079456,-0.01403025339677241,-0.023927934937123613,0.06448129430687383,-0.06187916269911894,0.08535275362076165,-0.12914707571188547,0.0016848988347986948,0.019559913517599867,-0.047424090702569734,-0.013885230146926083,-0.004607316833496996,-0.004350052353474962,-0.010218475054024132,-0.01880734703997356,-0.05601240489884878,0.00713258305263268,0.04447546277055797,0.014224262609143851,0.013741129837751456,-0.014129928074363973,-0.013849137204590549,-0.024175837211405544,-0.03183610464039174,-0.029442598434737326,-0.05283369242734705,-0.04470081508404799,0.024321029975865036,0.00044296740612784213,-0.05672129125780112,0.07147906448482076,0.030453885045194362,-0.08723529863385435,0.001338473150994876,-0.0590480670445162,0.0823871627270908,-0.037453736740891905,0.002918641134603185,-0.008890033637220568,0.09524078124465797,-0.012187001287262205,0.0018692592281435228,-0.07831165833747325,0.14830152969672322,-0.007278952984567498,0.08381294874314492,-0.037828930542233165,0.02574163358940643,0.0007090799087003585,-0.05534346712371389,-0.013446453625505757,0.0626212478012219,-0.014367115118798797,-0.10307212865940422,0.08321107153374999,-0.08025110423814136,0.013217840768903394,0.003371588252200964,-0.03547532484320459,0.08092552959853269,0.08202175870149087,0.0114852911286952,0.007974016957233735,-0.05328066832305505,-0.02917061449020468,-0.014735620989775582,0.01280467457208063,0.053913315302518285,-0.02043285927195184,-0.06182751376836025,0.04866388911815375,-0.11467822802021121,-0.03433599670368394,-0.02742416225511953,-0.010968313400806732,0.07195328550930519,-0.0660214041570771,0.015036157228141668,0.06720346892151766,0.034473827727290456,-0.010902181177644509,-0.0022655872152635473,-0.06677263494081088,-0.09296567895443081,0.09355970154438904,0.015045338045624673,0.029099729598002853,-0.023809815780794306,0.04800873601516177,-0.052828856855918066,0.060530516760155965,0.026084576127118644,-0.015920714227677497,0.06605001348028845,-0.12205656751527232,-0.00954270831681505,0.03140079813523154,0.008648336849465223,-0.11743651041316532,-0.03683680062187515,0.0031316840702260715,-0.031390556361842445,0.0020287665018925245,-0.03198579601135081,-0.04581027875612025,-0.0040896144908687156,-0.005865940669133892,-0.010869956891987477,-0.008472218121981812,0.03558078858332067,-0.04971846644023011,0.04958651307328361,-0.01179208059095383,0.029395501532216345,0.013579044479236121,-0.056769090912989525,0.07135279817715395,-0.07390875418052414,0.0019623316592981394,0.05446230540228532,-0.033336538560243816,0.025991382002700434,0.0560882777858181,-0.058433131908629816,0.005806857013114644,-0.07362426307588674,-0.001743563204269029,0.04209276807148468,0.06269163999438068,-0.050884300757545554,-0.05512879545451026,0.0015352076673297334,0.06700878244146938,-0.05637635129369565,-0.047945342715978,0.030242930483210827,0.021347995639567952,-0.0302733778498105,-0.10261201718408546,-0.015559475086689076,0.04059564853408208,-0.10595730784806111,0.07953002459069727,-0.004285686258715222,0.09381295630973269,0.04747958677267645,0.04965245348984768,-0.026035355888445022,-0.042109492806406225,0.053447141685009705,0.09011292521950703,-0.06777945331736597,0.06193806759114573,-0.051637235466191526,-0.019177474063629383,0.04925016048964889,0.02426026446367364,0.048483315819442485,-0.06838525081499443,0.08989090789688399,-0.08115969461276437,-0.06275722288042941,0.07593580287743258,-0.01218402970434109,-0.021756446355365795,-0.046346861055151886,0.006362415244426567,0.019300769816449126,-0.005421244490716869,-0.0031086370530524826,0.004959452897615441,0.03435843165235696,-0.010219384585187567,0.044412300753667644,0.014968837440513045,-0.016447875391735062,-0.020491984580740676,-0.013612968296446426,0.04237265125481377,0.10221455949459722,0.019900250214158498,0.044979619521208374,0.02159879371454301,0.0008304719877776506,-0.01824510709395928,-0.029294145142876774,-0.04512004918553517,0.05134581098124086,0.059199810391041406,0.0685635772324801,-0.08481389801960781,0.002308239453674818,-0.047912804142207555,0.08296101305909817,0.02609671858635825,0.06858827349120251,-0.05362643630648449,-0.00444973934553235,-0.06526028980633278,-0.013810525271331874,-0.09898646430005714,0.008736781279027286,-0.018492183869973897,-0.035261226812646214,0.06702676313394913,-0.10162441642337953,-0.09924538367230347,-0.016776681557202813,-0.034062935412841576,-0.044653506606138274,-0.023200108744896464,-0.0480617398989469,0.04237267762497733,0.00007907461640986255,-0.01880405094094914,0.029495335194765555,0.018996561479953194,0.015267613534271706};l2w4.load(weight2w4);
tansor< 5,5,16,float >  l2w5; float weight2w5[]={0.011825904394426878,-0.05893568238297808,-0.018771101257164777,-0.048228855089456034,-0.08982074213997228,0.01705876371693246,-0.012231057688447318,0.04524136725487092,0.01704997805229695,0.11355132089276532,-0.014900809764775447,-0.032178500799211286,-0.05975335928338579,0.00403150624337481,-0.09062986546168668,-0.02378725343640224,0.06934617626659528,0.09403282165475323,0.0090428637874625,-0.05058550729664977,-0.018430718155952798,-0.06042740953538936,-0.018049004959944537,0.012357052421897951,-0.07675156692098381,0.0012688709981178172,0.08168171439239354,-0.03943853915164079,0.08740881728758605,0.006344806141116077,-0.006783349811224979,0.07305970858356246,0.049148056080628146,-0.00869663573151061,-0.03277486650184586,-0.03222776481235828,-0.019780025758187558,-0.06581901302544489,0.061575928845600626,0.018347239468035494,0.025838829296901147,-0.081204453732878,-0.10654550063106163,0.0011127769303651406,0.04154736139172386,-0.13321194536505515,-0.039421936899040076,0.06880761593096126,0.07979372032744028,0.023246537069720213,0.021221937018521597,-0.028221667454745747,-0.043173682511410585,0.005254535331082442,-0.09436761936927274,0.0028562542973189927,-0.054236838143277726,-0.0512126535536055,-0.027026951342746897,-0.044864480011085714,0.03507690464915456,0.07517063146523922,0.11706769888379735,-0.0888121750419956,0.08429703704147751,-0.04186808597536508,-0.11497635064200061,-0.014485901042613937,0.026055964607973974,-0.05768187752451708,0.015448405917743864,0.015806192636654726,-0.002031091238078675,-0.020537437693690683,-0.049117101227368024,-0.01414843175750236,0.04761515784803284,-0.07830761774904871,-0.04255744484983055,0.028460624470191098,0.031096186243460115,0.059252837844653086,-0.008230514017660007,0.05379487466666627,-0.01703191487582006,-0.05361284776776123,-0.03444682114850046,-0.0037921084768237526,0.014437136676673117,-0.011452215293404126,-0.08975148994627356,-0.07069530653446453,0.026571906028651036,0.06442263200508146,0.039081152915842875,0.0381730644495648,-0.031020984559476703,-0.051867303252190584,-0.1453816530876704,-0.11639844286586153,0.018699844106925826,-0.009391770291285314,-0.02478215583785735,-0.006841889352662606,0.0029051514130956266,-0.049721422673949724,0.0192730827227807,0.0009707012291911907,-0.03647734568778226,0.0172927544477085,-0.08294767222708496,-0.0389150440528081,-0.010702442518813382,-0.006955403762262792,0.025421899260778008,0.03205765130732191,-0.028149894228870462,0.04154866399866849,-0.009684967076018014,0.013599816452305298,-0.07618540254784771,0.010644117237085063,-0.019245467829700158,-0.03137439935479957,-0.04325111953610767,0.06456192292864801,0.10371093285867382,0.08813873943488451,-0.03995254494350224,-0.028658867329059604,-0.05408478194618005,0.07240793929660472,0.057737523611146285,-0.04950096957159082,-0.0016175136565436045,-0.00418581029788242,-0.04125379210665771,-0.004322563615790906,0.0002865928670966592,0.005494859731520826,-0.01138580048708093,-0.05103295445622181,-0.10125075841809764,-0.021085766187526906,0.0025925013335063632,-0.06179296725818808,-0.044764418927131226,0.022332286558480966,-0.029643813614065293,-0.098666915454164,0.047412105610485394,-0.03789662503229003,0.012342558617061856,-0.0010827032306968225,-0.10515577501834947,-0.0644820612437582,-0.01996070813394136,-0.0908154262087428,-0.004787243125381768,-0.052910532392383476,-0.055687524336665586,-0.017874090059541253,-0.0760873303731679,0.03659826741002162,0.030283083836392215,-0.010442818604977205,-0.02589238975558408,-0.04133268454946656,-0.07198226651840145,-0.07614540497768214,-0.01577789927545845,-0.06881811178254285,0.050723661309794305,0.04595133887862101,-0.006034536556971323,-0.08693515214387512,-0.020683729592839168,0.04657121415547651,0.022394505098730092,0.026284203987436253,-0.0699840435924665,0.050637813273918114,0.011772142245075676,-0.002850346134722584,0.042756732015002935,-0.020301824272661445,-0.02890269491918478,-0.025330348931403648,-0.0016205353097096642,-0.0837060033014964,-0.02773624748183899,0.023182534200549783,-0.03555496257858852,-0.06507822315920908,-0.09687076212845519,0.030672739832348347,-0.09312636086340967,-0.016491221324709076,-0.07031900138655779,0.016167794630314824,0.023218242031303776,0.02545221474918405,0.0880869906379155,-0.09371489664101829,-0.05783868358379003,0.027071746120247788,-0.015112847478023338,0.029842817023074224,-0.005004491282032262,-0.02428590212295853,0.02810149213304201,-0.012195387649605633,0.07680153511115019,0.033349839092533744,0.007682229880996027,0.04377376245634986,-0.03508076178439672,0.031751897702263984,-0.10701138878173846,0.03282647752360803,0.007904725983951144,-0.006485096398197115,0.02921627276841057,0.022116484599505045,-0.04181036770950763,0.09740206760092629,-0.01807671784215214,-0.056011296491197717,-0.028560739284716096,0.023479523394976217,-0.023333930613577702,0.02220490049974046,-0.059330342493402265,-0.08213032205176483,0.025212873072958615,-0.03045009424939299,0.05999022419057424,-0.12264164166831709,0.009057902079974544,-0.008291610996872997,-0.036488211071625976,0.009266117504948016,0.03488627860051162,-0.04161305900601565,0.015011920214502376,0.06331006708948662,0.04395829777635993,0.015141414232918088,0.010403112751493243,0.009902873694105536,-0.015037175478839388,-0.0011060844712422987,0.04751699357066588,-0.01719353940192947,-0.018200260080159014,0.06357566531003199,-0.03199793961715881,-0.039589467195321026,-0.017486848933566602,0.0838922933008036,-0.012788304956066901,-0.0016552951618002466,0.030541086805187218,0.0067944067698563065,-0.08112820487427422,-0.03372820162192208,-0.04961387990592716,0.0478783029853426,0.029962635010345993,-0.00021870784311247605,-0.08702312213437713,0.01248367957691545,0.06982667672643503,0.06399810842326326,-0.1444898813696722,0.06482477060568848,-0.018258099949385403,-0.011071638398703032,0.01917143629628459,0.007261922668114514,0.016654792665371655,0.004336697420791915,-0.0019646080794031846,-0.06593123556946243,-0.035146846175522446,0.019352349162313903,-0.004915143147583771,-0.0010405259233288913,0.028492780904851772,-0.03546576106702327,0.035730179347857854,0.015393274874160992,0.006613079585295572,-0.03365648479833267,-0.025168011591164177,-0.06936587549793147,0.051000726453731375,-0.07137452914230122,0.11376542895435221,0.042529584278736175,0.021848899298393558,-0.011232728626786712,-0.0035617328622992005,-0.013521238697714476,-0.04247824524568267,0.013005489313922931,-0.042243703600185686,0.030519214328064422,0.011089560711953633,0.038545863311598504,0.04015579228674638,0.04204724036675652,-0.0701017687032961,0.02358579166329622,0.03729137944038843,-0.0012424458123012606,-0.087398641563708,0.053756496257587175,-0.057732646864191446,-0.0321790115457746,-0.06778040330979666,-0.03648008153580402,0.025632352485290187,-0.05716105827183107,-0.003701739565721059,0.06323988516067314,0.03675557184980944,-0.06079626940976048,0.040726466104049314,-0.005779218413877338,-0.09180947238276023,0.09035294299837666,0.04775495385671652,0.004562339372669327,-0.03849868898398627,-0.10417119078796248,0.06163816961455252,0.007634388423434175,0.029606290186981105,0.04648311824401631,-0.07329814226660274,0.002155051746425046,0.002917473692416338,0.01661795202195467,-0.08798330512713917,0.04734940021230799,-0.013973095738638997,0.06910268441780852,0.020596247324729373,-0.07338165056389005,-0.07204636661142849,0.044370172017644774,0.04411683640020172,0.007154689375444468,0.05888022498768948,0.046801336933420826,0.026886713309591217,0.04230714593063505,0.06007091731341722,0.054989804435880994,-0.0805638117742379,0.07424265667473245,0.06241605306526869,-0.005363435465997254,-0.07271133209287751,0.004167273994052043,-0.0007175953877444968,0.016058383652927482,-0.032549655375307344,0.03391838217244745,0.015985340877522708,0.095301203902102,0.07467119872002086,-0.11115063852992671,-0.054446367106524264,0.0062122968779118395,0.08546929646311446,0.040684395010861116,0.049236839331553754,0.008989658425223927,-0.036659521742324015,-0.05476717300876497,-0.019453043097602013,0.04243872735342906,0.004680486528453395,0.032400096954523935,-0.014337191461114758,0.03404445115433574,0.004980119359609568,0.028817197548684767,0.04702168646015699,0.05023410884875185,0.05897995798875269,-0.09499211026260265,-0.028639588635128093,-0.09953564321785502,-0.07131916366164165,0.010347517353745075,-0.043528305536567814,-0.04188034699359339};l2w5.load(weight2w5);
tansor< 5,5,16,float >  l2w6; float weight2w6[]={0.10576860026750168,-0.009825580716427315,-0.006391598709678425,-0.005341149924019506,-0.0526984943388726,0.06903224049079475,-0.023097050061057927,0.05561956395075141,0.043434221920819575,-0.004955534155076803,-0.020867176515019917,-0.04131923048031324,0.016642394616084816,0.08751420545150765,-0.027043009231771782,0.0850500429876851,-0.03412221044940481,-0.005570145138505276,-0.00873536972916145,0.060022547359640493,-0.014987845199734494,-0.03179834332314174,0.013856849656386911,-0.02316856222513923,-0.022988825355853768,-0.012635865342172769,0.05834082869545916,0.04395922210655226,0.02227350606033299,-0.0005741797761315438,-0.0127789164066471,0.01848942818338931,-0.0200093869328353,-0.03357810613373102,-0.05482844463401064,0.04546585684167352,0.05047152827901,0.0018405449482225792,-0.042537930613806715,0.0025896477890111754,0.02455361870822677,-0.03307383038519477,-0.017769821707826934,0.016717988369857335,0.04103674197791459,0.05366837498259617,0.004634931383369764,-0.12619277852278404,-0.03850452614851309,0.06981639976686205,-0.029053269046483508,-0.06464279617709688,0.014707917651167185,-0.07509306271130958,-0.010987878760064946,0.006108238988197963,-0.008714701419932601,-0.009164799734559454,-0.058505050935589394,-0.032316713207589505,-0.025482956689545002,-0.006790298335281266,0.04696305876752637,-0.00850599873097144,-0.08293682196339157,0.036787947375284256,-0.05310081538391997,0.02259713263241068,-0.031159345605274412,0.019749817913315655,-0.01952096253532626,-0.005176268827026812,-0.03267689448647507,-0.0395154984945972,-0.00655546937008951,0.016524463823234217,0.002020806846912644,-0.050312121172752314,-0.07994386762068406,0.011616953011318504,-0.005010755939559119,-0.005254028003901161,0.025487975558789223,0.08174607140735828,-0.017369308211596567,-0.01917933444870895,0.03240611190954275,0.04614451993385666,-0.017783274724120016,0.05578425639890571,-0.023938336736485835,-0.0003302326785405627,-0.013669504336176695,0.04190148094709189,-0.032040893963486715,0.015750493742404028,-0.06451872192975343,0.0361899581502959,-0.0662857410874386,0.06475333515394599,0.005845690673124575,-0.017016059101023953,-0.0493578942796702,0.006249652669860593,-0.04532246486404824,-0.035548716052656575,0.004968361788508698,-0.02193641900767495,0.0046283787694252725,-0.034435144653940326,0.03583574181933106,0.02498487424325029,0.0552350185072714,-0.10248627734391468,0.02671002001823474,-0.006846993348917681,-0.031281713339130074,0.05181661211813557,0.017043153248600614,-0.06581928119142115,-0.025600202534469547,0.08705415592031579,0.10838800761876896,0.03967041675582698,-0.025159786663736788,0.05176166466510395,0.025816191801291397,0.06925216328863253,-0.049224109669576556,0.0036069486975217986,0.01712057062290368,0.06126251835127202,0.009594456046059886,-0.027344563266117883,0.0066356623662490784,-0.02485673855473425,-0.04136235521739884,0.07729585670305937,-0.09265131018952794,0.0645902218514522,0.09586134438576692,-0.01808483756420815,-0.032440452866683886,-0.010003552168217737,-0.08508815364801432,-0.05975980419272132,0.019618709600953733,-0.01329437328662855,0.0005262929065496852,0.012628525124960712,-0.0021731029462546997,0.010272959577313575,0.036809560192065445,0.010743741303383082,0.0607436025801342,0.06991447067684062,0.012273079774724712,0.013217439737713794,-0.008244469806038131,-0.04507925866062832,0.07886549643582472,-0.03931350788448204,-0.017416098355146032,-0.004721621775628462,-0.0730820132886838,-0.05627166035259672,-0.02259218040606677,0.024182270756636183,-0.055152233974498206,-0.037312934527380215,-0.050208202608958176,-0.008617991360915645,-0.024283142795152163,-0.03359803555706121,-0.007848157208984675,-0.04329697736386314,-0.025505842013466656,-0.013241132589175418,-0.02912053991521913,0.09713920029553814,-0.03788501150664331,0.05609299337945871,0.010910945611098195,0.00268486304267358,-0.010455034773738556,0.025505656832946352,-0.009428459446826345,-0.02708218054129298,-0.09707971374112874,0.10541463890019177,-0.1505253123308533,0.06326978138855487,-0.028099986775925807,0.06379624297083528,0.004593449403864502,0.026406219956268896,-0.0004587815905426315,-0.03013919217311231,-0.010157039628363548,-0.006982517847063213,0.005706254410203384,-0.043427406021807016,-0.036487122946913315,-0.06255045592942217,0.039512080691994286,-0.026850024131873252,-0.11673219193844675,-0.007509061123445643,0.04293042821566921,-0.034378219099981094,-0.04035274383593517,-0.0651422159750191,-0.08112547119868446,0.04308654293969083,-0.028904297052091778,0.01120537220536284,0.012754808594364456,-0.020569389682798173,-0.019573560663485784,-0.04560739381253093,0.08198300496437108,0.04327777612765384,0.03204118709796123,-0.0911275482513225,-0.04470115623426463,0.03143756646613232,0.025551803482276904,-0.09189674939079581,-0.06573814958248897,-0.03464951882087785,0.08536532540842519,0.03722162158521236,-0.011103175426332086,0.008827816675391667,-0.04495933457685678,-0.11748838672805755,0.009787456273862405,-0.08391588261897452,-0.1145898710860829,-0.0038679901348564385,-0.028322271692833346,-0.050069429937914994,-0.009802940475687175,0.043102137391137746,0.020017710088996332,-0.060189102995856655,-0.03800760322868169,0.10284730961572322,0.06350050548270392,0.013595527835704831,0.05365317770860481,-0.014161138269139738,0.020425105211208935,-0.0252010235756204,0.06555512728784102,0.042048795383699274,0.0618162269173931,-0.13539623437939657,-0.09070151203353244,-0.08517700025999617,0.09002434903136916,0.039833495338560614,-0.04920324655378334,0.026775584802392883,0.02530010446673606,0.0031249274688335636,-0.048470663107972635,-0.0057681350304180905,-0.10202083572054768,0.05816652056556707,-0.0424366897059924,0.011483554503840926,0.03400161559977929,-0.0663049205849813,-0.09394011516959569,-0.0525293670512586,0.03713488373534859,0.023358063742332544,0.024678620184468977,0.00750068283212839,-0.08672264450946951,-0.0029507888949147055,0.02718584097135304,-0.0379449644865477,-0.057272388490178204,-0.09157835454145091,-0.03845561955975534,-0.002281111008019406,-0.06277506219555722,-0.04039666512572287,0.01123580756313421,0.02155277706316572,-0.07042345071495644,0.08663354742357432,-0.022287863642870512,-0.032342852974743354,-0.023493017601884537,0.0010553950123416032,-0.02049324091276971,-0.030532628008118193,0.01628917890977068,-0.043216010915340365,0.014072195466579503,0.006601869745826636,0.030611331216640877,-0.08382251033479597,0.03193036185730279,0.059999520092328625,-0.04972286320580717,-0.0431791925074001,0.04848808931956057,0.06809628623243538,0.0005319873764342928,0.002680686279701701,-0.08811023063153141,-0.07959518102259186,0.04441005569431633,-0.00919984202628719,0.045649504762087706,-0.006084552310066607,0.018497382591602364,0.04570210420604887,-0.06619343439601295,-0.04909179232246597,-0.03213325021670452,0.004939218537286236,-0.015459668051572086,-0.009107618453489997,0.06652890411653378,-0.059491190385518415,-0.01446354127792078,0.00013314427068474607,-0.01749933886210564,-0.03746737035272495,0.0023084280968721027,0.04284317059145297,-0.04367645927603622,0.01120164137277572,0.005168703089154318,0.04777522290676697,0.018852980734314278,0.04248410041472863,0.06320411095180377,-0.03143316779531278,-0.019376689683529277,0.07841533507698709,0.06809958459803817,0.0303944167844503,-0.03649893448470494,0.011745604131726085,-0.05591126882087538,-0.07819606400411093,-0.026734259745254795,0.06292407508755758,-0.013783580297169553,-0.05725387139180342,0.03128586249925958,-0.030975368047621344,-0.045679176944807665,-0.00040581933178191485,0.04446608208624495,-0.007687443252053761,-0.04590044187300524,-0.1105208355712196,-0.01667605981729774,-0.011030475262264142,0.018581631314090966,-0.018232286790091232,-0.07022901822971785,-0.00941986753617833,0.03219349098007624,0.03528462637694748,0.06561924869604953,0.0007166503610238592,-0.02991801938828073,-0.06310940568719844,-0.007780897669915254,-0.03299609296701279,-0.03522905033580798,0.006680945891914095,0.026823169983180094,0.015108667428789949,-0.00718956766250193,-0.07059691362850462,0.00888261948873052,-0.0738186986771159,-0.036480042769610796,-0.009960457608511528,0.0018301313611904975,-0.00011977434028779491,-0.05426166130463993,0.011590158267302463,-0.006636341746557316,-0.013780340819068787,-0.047495642367856014,0.10091654708785658,0.02226383623249639,-0.007216141708942102,-0.03230104814300477,0.02990737375950879};l2w6.load(weight2w6);
tansor< 5,5,16,float >  l2w7; float weight2w7[]={-0.06906039541953599,-0.03791507855128131,-0.03358343257550806,0.06627139023880056,-0.0047788294415854705,0.06885818276827158,-0.0464266768648311,0.0332239125744003,-0.03115010096882371,-0.04688161409209484,-0.06266186708194597,-0.0430029576272357,-0.04878821588447963,0.047339354578958937,-0.014983514534856093,0.052590418624298294,-0.0028230171821554827,0.07199788716933148,-0.06591726742696782,0.024089423949667503,0.11086863606945771,0.011985220828596344,-0.0036602307215040314,0.09110602419128426,-0.08151063659953886,0.051654466741694216,0.048036938705147456,0.032613125316105926,0.05893510760796957,-0.0652363756099312,0.034698259207235876,-0.038369928850085125,0.030262497437911748,-0.049924685877584966,-0.05023014544377963,0.039110130451329904,-0.06817964517898363,0.058295743878996706,-0.033570555475103514,-0.012014736314007122,0.04819140647789069,0.04853708742602727,0.02827092161184507,0.03288365678217481,-0.04831805400146321,-0.023581107936119224,-0.07462552250566352,-0.02934340094832496,0.034382550583881316,0.07320840395814157,0.038040264461338305,0.03810946354152986,0.013137272807281768,0.07504836868170897,0.038351936003708044,-0.07980087167798547,-0.08425680686606253,-0.05066734890794499,0.10208571096910747,-0.05953979888069486,0.0068557734280808875,-0.05334230976090604,0.01585187839727687,0.06778843605592984,-0.009950434488791694,-0.02206797071431796,-0.07994668948482336,-0.003554036891745201,-0.016519817593730432,-0.062338186622788117,0.008824836002701357,0.017386740371912592,-0.06586422610531477,0.03588781913880018,-0.0048609023355573435,0.10496178972397904,0.00004673041364030504,0.042992840659499175,0.0031493417818964932,-0.019933085505783783,-0.057174859129415445,-0.011284654885118019,-0.043917115947568246,-0.02564751378375402,0.038443017639530744,-0.02610959322162419,0.04501202781072793,-0.04849073943593822,0.07790669193258927,0.0024589334366460517,0.04256036840908007,-0.07066800724962677,0.024147614017044974,0.039578333666940455,-0.026139808469992275,0.04715050635963871,-0.11013408608447606,0.0636424032690502,0.10199936906080512,-0.0377352549299546,-0.11043055749029008,-0.08165267067051275,0.01734893844497681,0.09367133199423296,0.024009294668288123,-0.04015170775074278,0.024017439357295545,-0.0024423541563094557,-0.04516769103417406,-0.011364689090980441,0.13334147436392832,-0.061182676724128304,-0.04497620510785584,0.01889146178194406,-0.019359056716423184,0.04888613246011367,0.0016271880258417416,0.0464179694524563,-0.03653493819676364,0.039544849778012967,-0.04980882204913601,-0.0012150239992882992,-0.0014000151024233215,0.021783716864392386,-0.008818255015434297,-0.07484872808697471,-0.1253158914002747,0.04781092813966052,0.0901688233954216,-0.04960132533824088,-0.033761236437412155,-0.018469329886544716,0.04779372758635254,0.030272521588784816,-0.03791425419083712,0.029284751158816166,0.02214294790648123,-0.04317565418297321,-0.0009512298870040932,0.09580867466477405,0.0480378252749896,0.04289891837268976,-0.06696075880459101,-0.0015802202112773658,-0.07511327365635756,-0.03252293997005173,0.04499638348782837,-0.024326678740196797,-0.009515332241556745,-0.03256091920372592,-0.0007165959123366379,0.03086896169855351,-0.07806634692841798,-0.060504955661617316,-0.01493705568767139,-0.05822572459754165,0.02553448653312111,0.07304928458513468,-0.01913101661172065,-0.05365055794431065,0.0026162797517794625,-0.03993015065041232,0.03491810826943954,0.008061803771901022,-0.059087598736070744,-0.034898299192093585,-0.05223657842999357,0.03338081917351632,-0.0000910807833927506,0.03620835149924165,0.0008355386330352836,0.016435745264509843,-0.07309907186696182,-0.028024079522226786,0.02307186124715308,-0.06528764665024392,-0.030068894512641275,-0.04558266676887312,-0.02577944497543963,-0.02072068767703997,0.016293797591693422,-0.04608083082434089,-0.06206679953110336,-0.07870021863982532,0.03188621591839726,-0.04732552279821403,0.020600077326743144,-0.08202635479996945,-0.016064955383818358,-0.059137905186256036,0.08440335532937153,0.036930521629908564,-0.054694922887929334,-0.006827045116973923,0.04755755851514843,0.018192007885333948,-0.05015432026762137,-0.0837493754564149,-0.04686150844216467,-0.1305279214156953,0.013772454555264496,-0.07064418398177186,0.051945595915608024,-0.0797073505476625,-0.015960311062624452,-0.07885148059855142,-0.01918381418003103,0.008347074222767167,-0.04036786924728161,-0.07822352984754627,-0.0223006986564155,0.04424199010924168,-0.089945711331674,-0.024446398492406027,0.016339833999519694,-0.027669215281056963,-0.028154482000677657,0.023427950748489287,0.01635127587768003,0.030860724723947908,-0.011359768519444702,-0.038798285511545266,0.009556802501456707,-0.011289216970423366,-0.015323831805888375,-0.06150625402554421,-0.06762097061141538,0.08700700697507391,-0.019910933822735986,0.05266813553423296,-0.039860400131326156,-0.009681605983290697,0.02366377361988296,0.027769036395252373,0.042079019050355736,0.007412103250816661,-0.06496324508951243,-0.03023118674598148,-0.08884131379350384,0.02345982112667409,-0.05243197152866965,-0.09793213092275435,-0.03968447995543675,-0.029695483342014457,-0.030773167261320934,0.022887770607461826,0.04356478082349812,0.048423168192011666,-0.053920777020233734,-0.014834341788993706,-0.07173887890794871,-0.0019076959025193714,0.010594723689041618,-0.1337743014374144,-0.010362469739725922,-0.07429386995101077,-0.04148920923620277,-0.0018215900952364265,0.021585401398862555,-0.06645167604505035,-0.03361935001688091,-0.022651114025515978,0.011609030002798695,0.018726031765627888,0.04623790827493042,0.1053692163531775,0.022878122043194227,0.067905631250782,-0.06582715942542586,-0.01574994399523513,-0.026212238996478846,0.03734890973113534,-0.01682938393427368,-0.03797263572923445,-0.019213700190976558,-0.005168197299063755,-0.008853492941143393,-0.01927008724314445,-0.04343936643487781,0.07428795349403755,0.07230506200772839,0.01743279016027487,0.022177097343663608,-0.040104452421796964,-0.023579245998954012,0.08485958935462416,-0.08793758803121325,-0.03511937903201242,-0.07537907303748462,0.017397082055486044,0.04400411418488605,0.03216006333281579,-0.003530074442845498,-0.0032416106472400005,0.007442350545246741,-0.035775159942677465,0.0168094107284119,0.020935873483687757,0.08752960448807184,-0.06243839945347775,-0.068283296632502,-0.12390169580459343,0.05047553740931978,0.003499097346569385,-0.09880871803375395,-0.07781522892757639,-0.025760500659803114,-0.0925342218629289,-0.06417708198705317,0.02714485433390515,0.012175799539925359,-0.02334946651997818,-0.002400466305279908,0.02471377397989225,-0.04481766436103966,0.06029975107290065,0.002523048408570879,0.03177881957432621,0.00689715457466619,0.07068112212567673,0.041567028216513265,0.00852233138734182,0.05478669682413493,-0.08656758306085949,-0.030601896630529993,-0.009079966825802975,-0.04372161071005913,0.006438399538484172,0.015832694643151665,0.07816106972173506,-0.068320153767419,-0.04926993064376634,0.023666923435497506,0.006616269247629199,-0.07926414414215822,-0.04527281535297178,0.01631037716864091,-0.041526289752645766,-0.004663362507023477,-0.010525080271841849,0.018559088658056343,-0.007595897648229504,0.05432815617532374,0.03938536961377656,0.012921087969361315,-0.09185904503739187,0.0378828344315802,-0.06601503215236416,0.08808598126832479,-0.05378058193204069,-0.030928508691150464,-0.025682540930832273,0.0041728139664074645,-0.05239906061018986,0.03191758783249158,0.03952278415767416,0.026568512823311782,-0.06617511145965738,0.1085692504426351,0.005737817382846241,-0.029792537049212104,0.004058793835839042,0.05643090382075398,0.03661907673116271,-0.007751057400147146,-0.0033535939141728275,-0.09573005418197332,-0.06689274662490739,-0.04655652664116268,-0.015520011322672384,0.04930755398916197,0.0007130576167382021,-0.07043869838522157,-0.028566082289438,0.007040595654811223,0.027318218191502493,0.068236518646334,-0.030342881345699638,0.010739847775076606,0.011562780787665934,-0.0007180116603942469,0.020014104286028265,0.03127004122793031,0.10196656252933343,-0.05775043875029239,-0.005908468002298215,-0.04669184804276146,-0.023716898766038597,-0.0894248916522812,-0.027792435310638432,-0.14012148725544482,0.008671673805249282,0.014533443082480856,-0.0908593725980569,-0.047405349410429905,0.04919586510308044,0.0002869237628395542,-0.13500238027932404,0.0027042372512387437,-0.0979059914913631};l2w7.load(weight2w7);
tansor< 5,5,16,float >  l2w8; float weight2w8[]={-0.022009866341489156,-0.050926414985150124,0.059291985097006665,0.07266679556218916,0.04935615945939322,-0.10444468657899221,-0.0679449166655995,0.07262218713822827,-0.04967785406235099,0.0058185269324674774,0.007400220773514363,0.030396173017382126,-0.017629691069948907,-0.052698200980887185,0.002549634663031913,-0.058461302159177594,0.020545109707553563,-0.08935859233379065,-0.011293908272999769,-0.0703595417085934,-0.026181511471757773,0.011670536997175013,-0.06861428855289473,-0.029392727200589837,-0.0013175206546733253,-0.006862530311647276,0.12095649198076107,0.01758693372909481,-0.062490497205408405,-0.04071776213607025,-0.05804742360070136,0.02160858164888491,-0.03353697284129516,0.0267055215398128,-0.03662679606418623,-0.02005603392849885,-0.09325954546920158,-0.009765698395429047,-0.08862907227651853,0.0018444597584829714,-0.012186387752250135,0.01945835472935162,0.08343207618803596,0.11019470004542203,-0.07169354641020018,0.03008858630122092,-0.09862046406542764,0.16770586714739052,-0.010356688327896255,-0.04833103192137935,-0.11762137161251755,-0.07714633085826461,-0.028338460000825925,0.0175565312006035,0.005556860454497444,0.01157002449829247,-0.03975137187992648,0.019502446500313013,0.007491054341093429,-0.03630562835111277,-0.0392813618742378,0.048919611246258314,0.023110110876424783,-0.04728517540269294,-0.014099797063750545,-0.010172287145273214,0.09856653390483092,-0.0670855349743637,-0.023098311825795685,-0.030863185352011113,-0.08800065586352306,0.12371373288379432,0.04694176974308759,0.014761146567381622,0.03677295568441836,-0.029628261561324115,0.04765475091345246,-0.009812483174437616,-0.04893300906509009,-0.049559022487066326,-0.012915367671296812,-0.004727187070751993,0.003764064937632099,-0.059925237077675386,-0.027849899059432328,0.03560147035787044,0.02482588138742724,0.06988403045740729,-0.03670710492279025,0.019351798213618817,-0.033289598658837946,-0.035207344029282286,-0.03959878944465622,0.01695546665114486,-0.0499476222701952,-0.002812625753609766,-0.03223897124509826,0.02063876761507631,-0.047027525529855556,0.04143331201182815,0.06162527641332061,0.0451081981129704,-0.0295023537685947,0.04309397827844989,-0.06157006017292483,-0.08171678721396547,-0.06797188511126752,0.10989540288161401,0.007860432183014639,0.06711428803298239,0.03279295831261488,0.035304368978624726,0.056737703131418994,-0.06712174621240803,-0.07695810477215174,-0.013842646260539038,-0.033096352160886966,0.033749217770922935,-0.04905031443085881,0.00040968574737562365,0.028062029348976763,-0.016877925344244992,-0.016281134396678845,-0.009606491174733233,0.009982745796195628,0.01959819137652603,-0.013214659347966914,-0.05226015869118439,0.04065574855864624,0.07122412449858394,-0.0015330621163671548,0.05805828402428702,-0.06874474860893959,-0.01398951445215138,-0.007111296132038611,0.06974192201616979,-0.04037934541295385,-0.04317673919622189,-0.04929613182937828,-0.06420278493166542,0.0449100178479869,-0.051916058671810664,-0.08757286156330235,-0.10462469188462567,-0.040899226052440556,0.0025184016603409776,-0.021547152145003128,-0.06366692478606902,-0.042263131815459404,0.030564625644984383,-0.06739834379492005,-0.04616915534263799,0.11380287798576663,0.016182373899295537,0.05489722557835057,0.010284183727725446,0.07403811113244721,-0.011057081912503704,-0.007416906725879404,0.043985124389685916,0.0008249852045424679,-0.07320678534153277,0.0384827301197704,0.004593365611900796,-0.015971267023423455,-0.06014430741049581,-0.019355890618116576,-0.030637310033736223,0.0022802026404011868,0.06856255337518978,-0.03745041640022464,0.04926010618236743,0.029418993612090445,-0.10657078963207267,-0.018399150012772834,-0.12811389041249058,0.004986963508594365,-0.05370479219305029,-0.031838266618922924,0.05018643990537487,-0.00046010658637760376,0.0006150871398367252,-0.07248809561909589,0.012476632735979046,-0.10797396806895991,-0.04721117915041417,0.05809544800987028,-0.0725671813289975,-0.022725789679242606,0.03267565099960537,-0.0033003934743084146,-0.008847166251453846,-0.025051370114753647,0.00019446237272112036,0.10769837472172164,-0.026586201351711195,-0.0349687810726647,-0.08177924357127306,-0.015251912358758274,0.06109076413115374,-0.07166088720059369,0.023531123314860042,-0.11258966893263857,0.01227910535137104,0.018738127393184763,-0.0021935755077030867,0.017228139788292463,0.06606762768815895,0.04136297556053581,-0.03240594028367148,0.069450809202125,0.05609024712217288,0.01921832470477284,0.05798950151045694,-0.04832716016875082,0.06350094381627877,-0.00085966113984245,-0.007798269525362847,-0.011683960034288432,0.004703129073006489,-0.03522777644656095,-0.009497811307961785,-0.02789257438083333,0.02014250349912564,0.0329606504109332,-0.05213411547877016,0.005787800705256025,0.08475699158308599,-0.02861101707471493,-0.07136823872704558,-0.04584687279189288,-0.08749392668252043,-0.010679596879409909,0.033090268030075004,0.03781210541622822,0.02610141346294346,-0.004941094624847351,-0.0252026104302742,0.029730394651414156,-0.06796764459620226,-0.08867251073228138,0.031750322589586,-0.008356655342315913,-0.012549725752759824,0.009743906314512444,0.03336641531788131,-0.03756257091142395,-0.05225613841733661,0.05376092621696802,-0.029914787446058452,0.03877675778861243,-0.06308596586837703,-0.030499741062917574,-0.008474010571600564,0.07904255687613053,-0.023358914164356225,-0.043754466475318846,0.06362559793685757,0.009166464129580998,0.03269357794626222,0.016945197196204933,-0.08882700204078818,-0.04929353899910757,-0.08642131665802892,-0.0257640896174963,0.10502512769707696,0.028592620493015343,-0.037885156327337056,0.006676984482235492,0.018464404159198408,-0.005496606544017652,-0.023376736831172695,0.08065412737521584,-0.07674911915885554,-0.010710605862504018,0.053562949528881354,-0.037248195172199614,0.027256570006087385,-0.04050790617706802,-0.057933211523989864,0.004199616976734176,0.007348553359505295,-0.1372731144785992,0.04968974527700773,0.040546404297719475,-0.013498707040043438,0.13794755394111005,-0.010140542722651504,0.02080432191788139,-0.006933848243972491,0.02365863535423563,0.0773640383109564,-0.01842768089922289,0.00795336844958515,0.029417500170240085,0.05589079102965165,0.006836156275126681,-0.039635314699686244,-0.022099923274373684,0.004860107877857674,-0.05228957876425839,-0.06449758310915621,-0.023045271099860955,-0.0007012688105530882,-0.04114932469081195,-0.01086243552438691,-0.022561936641126625,0.05460327188631889,-0.09937070883802358,-0.020476621724179904,-0.049082179077629136,0.013231102020387814,-0.06701711696694519,-0.024800468871868958,0.07124085504057978,-0.02994587911419409,-0.009334702270505403,-0.006512841264859424,0.006582116739800462,0.009768102594508365,-0.07196283558256858,0.001695940839669115,0.018224432338650304,-0.04744187938011432,-0.07755187744707946,-0.025260504239546636,0.07837917620187317,0.020692368140438778,-0.036960511973475704,-0.018892588339755757,0.01502215660743902,0.049953349038010034,0.020966173634894426,0.015708451109791712,-0.061553567919151356,0.04848467884150406,0.059439969380775295,0.013918006582240319,0.02103557302280082,-0.029000431807109473,-0.012659716838743602,-0.005416412920310207,-0.09064153930540639,-0.03813983679714917,-0.05964767114469897,0.005246148944450639,0.028038016939317702,-0.017803974203733402,0.09302151673252358,-0.0730815203372867,-0.009324787607547054,0.0037764061990545497,-0.07518455827161173,0.08119902508894239,-0.04303142606877733,-0.026749080314518538,-0.027585226729197096,0.017512299031442222,-0.024703633697654107,0.01086942805179122,-0.007906079972960015,-0.026489625863184842,-0.08205471456827129,-0.04895917160881983,-0.051700783822620215,-0.008236274481009512,-0.062110281686538996,-0.0035975485633061915,-0.06060397780429504,0.01820109409628079,0.02694607186786107,-0.03324535677350421,-0.0029353637836857733,-0.026685612634586377,0.013412317937477563,-0.007355065807403291,0.015745767521919637,0.05881285438862351,0.049059695810879246,-0.04525250885646009,0.03317349323554161,-0.0272147848934323,0.025370360413118586,0.05694199644211869,0.006627191205897419,-0.009840707454359006,-0.02356454288959159,0.02949008745269561,-0.03946401984240468,0.0027401369456031433,-0.002230270915978103,-0.008528297237014927,-0.00019477594164666776,-0.09729688305197488,-0.03751587263201025,-0.12673977274363585,0.01760573429433552,-0.08974232239497744,-0.04879003337759315,0.022043202864296493};l2w8.load(weight2w8);
