tansor< 5,5,3,float >  l1w1; float weight1w1[]={0.48780712755749284,-0.2888179633043431,-0.5358903574691901,-0.15097397096736637,-0.46284580335628656,-0.3726372015549319,-0.27106195436095964,-0.2564429583441041,-0.23732710905112023,0.18475937695759928,-0.06351136124918455,0.6185989643346473,0.1184644413128933,0.4268813715663501,0.5631663671107471,0.06192211065801682,-0.08099372224728403,0.05351959576764214,-0.3491814993128705,-0.19370955216846636,0.24915435908786437,-0.28025135140901486,0.1054831658002695,0.285192526470861,-0.38650186225530914,0.2289737262212308,0.39119551334324204,-0.023317191448749754,-0.06409099991955447,0.3230809031157693,-0.06545849433874651,-0.5211860654888225,0.08103084282164638,0.18513160518206404,-0.019805892092257776,0.4577641361101884,0.12965336485959963,-0.008941316100131444,0.826568131614217,-0.4105455483638214,0.1273183126806011,0.40947713532779495,-0.456344755888728,-0.23803833548441622,0.05464390741764448,0.19588021891077176,-0.3223244163941862,0.05464890842385443,0.27678686635257405,-0.2994052645395564,0.22691689321949457,0.3968545486672163,0.04627495468178888,0.8193237012604166,0.33099431298679627,0.12001246424109711,0.2978199296436496,-0.029966747587229614,-0.14416057403165633,-0.1639457868668527,0.18730774494931043,-0.2557715959575713,0.16354295193492918,-0.18339162502446377,-0.47195886071303206,-0.08590457292432113,-0.12633555516591372,-0.16570006986050126,0.05992772456086624,0.16509160830811453,0.02466166896795454,-0.06763339062309169,0.057143801412699355,-0.17145923972707616,-0.07558595506764099};l1w1.load_zxy(weight1w1);
tansor< 5,5,3,float >  l1w2; float weight1w2[]={0.02202712792268142,0.04329444057625501,-0.17137689305343004,-0.20865094237465365,0.2473852000558124,-0.01805300495549739,-0.3741575877938511,-0.2258092540207241,0.2867527616435186,0.06298385888853723,0.008402674411559606,0.042407617052312885,0.5017226070683569,0.00953949712034592,-0.2544224640578831,-0.41172979396958004,0.29795584196586344,-0.244819037266505,-0.5530529242702765,0.18202650789547548,0.442275087433848,-0.1448072958015942,0.18517410930487618,0.6560715462784452,0.3451930164845303,0.17386825830726427,0.07139281507426341,0.45801072991231273,-0.3665258295737561,-0.9626739820725368,-0.5475473869064049,0.33234598125620596,0.26686166001427203,-0.46378191780471045,0.4537238775616793,0.7635624454281035,0.13931847601164482,0.10361470016471233,0.5800084192631925,0.2566187950440815,-0.5846769606900544,-0.6428933313231553,0.605262845685886,-0.2725288170773744,-1.0543865976559876,-0.59730824065669,0.40970524782333606,0.6783394301672492,-0.17235014906231805,0.30126792903978034,0.7679062735285136,-0.15587033069064374,-0.3067824560151107,-0.08558963904621295,0.13398436526495114,-0.483911479915113,-0.6502741710686718,0.8620590976648123,-0.16197634859288024,-0.6519277088248413,-0.5018019040377995,0.5052352306979575,0.6070626555242042,-0.44022504378572025,0.1053773625928086,0.2746150248096821,0.09458497205866347,-0.5211173175274222,-0.21767136121954125,0.3955606953037587,0.041022502137523086,-0.2693998359241387,0.4082672708836291,-0.13360833566970337,-0.3100255384141398};l1w2.load_zxy(weight1w2);
tansor< 5,5,3,float >  l1w3; float weight1w3[]={-0.03647977095455567,-0.037615037582739895,0.22398483634349284,0.2393333788433923,-0.1818843925950911,0.03396717957708018,-0.07084847929100702,-0.13574950060099214,0.33478645763302955,-0.3117153278522894,-0.0036860870684710394,0.5253875196649289,-0.5680374570569717,0.27694939920746237,0.6205673163700032,0.7674358532163047,-0.6531962634286372,-0.5285265399245512,1.1234557576867341,-0.8165780334935175,-0.7529260388639536,0.957776440781604,-0.7287472924381412,-0.7385846236542365,0.48114816559022533,-0.4096776704837994,-0.3345697948239894,0.1340324197359743,-0.29412718600638804,-0.1847455676283242,0.5232001210669037,-0.4220444421471194,-0.19518773327032238,0.8326287369682588,-0.7472557455116307,-0.3325740928704255,0.9183045183260709,-0.7883867174731398,-0.455717358679664,0.5897826344482743,-0.3874912355193401,-0.26843585579807494,0.15307937801012522,-0.30130344416490895,0.10324909342399918,-0.12442504572671838,-0.25386059132560745,0.06517281915083109,0.051847001980073866,-0.25619449798614274,0.154794087624441,0.0016711339847075618,-0.16256868807567518,0.19274655373989938,0.039380486632250494,-0.21687703014467116,0.2589970821721458,-0.31531239174748965,0.024304447922001107,0.20993688971012747,-0.5901563168969914,0.2769167456060291,0.4306033716199752,-0.6402566418833363,0.4415414573553866,0.6149596822311947,-0.6966116724738283,0.30177452334094773,0.6494298491284161,-0.6009660602036034,0.2270762325908015,0.49697472845446306,-0.5754682040980125,0.020349410317019243,0.4523137651900122};l1w3.load_zxy(weight1w3);
tansor< 5,5,3,float >  l1w4; float weight1w4[]={0.7046603140146964,-0.25466906327145433,0.05206902912382918,-0.24718706519591777,-0.7885766000044999,-0.19418173103407557,-0.27430561054460767,0.03545925402080316,-0.07182975296206204,0.11739505896631956,0.3600904127669961,0.1272732205158649,-0.15747355914071534,0.35781686801004503,0.10178423237693217,-0.06095875399923124,-1.077020717046163,-1.0275844357443797,0.28560958524501817,-0.4677826260875275,-0.07575566498141756,0.5519857873355788,1.157984105159099,1.164830907058067,-0.35039667814062775,0.09894910187108001,-0.10295511277737145,-0.2406113995989846,0.2431475411791538,-0.23793976827090074,-0.20990027286242613,-1.3546030873613144,-0.9318285672294175,0.6875796443073848,0.15572972696136772,0.4113071350677999,0.43872484242250714,0.7702666370946203,0.7357227724869644,-0.3338218115382864,-0.16393023912750637,-0.09102273356874035,-0.13803814011955776,0.23434491236757712,-0.35546598398022217,0.2446174483208207,-0.39127713833424127,-0.19618469623408244,0.2747388368992302,-0.13907414791532868,0.1872164723718368,-0.19841682383916526,-0.010363408369253011,0.17260806144969332,-0.009942443689788095,0.3404630202049458,0.26654959331219336,-0.37463667667412126,0.20786664625814572,-0.28574113773937343,0.25106474945215496,0.03381165577561847,-0.057505042082569104,-0.24623392157469334,-0.07053042625138112,0.16899431870037157,-0.5574516649333794,0.26105952682331596,0.21271952512986148,-0.08001111971046353,0.5144616995530122,0.00960762148191702,-0.17785331289298728,0.21568786791947256,-0.07947855734000207};l1w4.load_zxy(weight1w4);
tansor< 5,5,3,float >  l1w5; float weight1w5[]={-0.4358098516029894,0.3171608426872557,-0.14679882491188076,-0.3497934994811424,0.9241689543543847,-0.6231997234441858,-0.786850373279294,0.6884377882128345,-1.2624936848639474,-0.3920621744817855,0.6638431020925153,-0.46567777963077683,0.2369135425023918,-0.11572029146718275,0.4917946899241496,-0.18910448925733195,0.1875824874329177,0.008478307115126357,-0.05524410923835193,1.2618324737758022,-0.29049600924461677,-0.00534617627417977,1.5712740918925294,-0.3311143683078066,-0.45416504537303803,0.5641842735868112,-0.7107420139596475,-0.2703427251331674,-0.07422444050391613,0.04360467878749261,-0.09606727928459245,0.1720731365767729,0.29174518506766267,-0.992712453629471,0.09275753499533339,-1.3055657659076942,0.11857447481205548,1.1268512280165364,-0.398700770273746,-0.06223894369509855,0.5656123788692394,-0.43435908243114785,-0.10677608238347192,-0.009256258536457175,-0.0007991267366391388,0.22751855403186316,-0.06847703610886868,0.7460937189889008,-0.17613689260406803,-0.11976828190543236,0.06103034078941753,-0.1395357102176988,0.3410341341299041,0.030445534364064324,-0.5742026987614869,0.06826667687924305,-0.3183864581998191,0.21124026771714968,-0.13186121676483625,0.19514082589925044,0.2858087135857252,-0.8427095141392311,0.2535257242840425,0.3005015300471243,-0.1970267027673267,0.34103169660519234,-0.1817982392324002,-0.3969480746007322,0.27893885551229813,0.06106770293102907,-0.06635673978172701,0.008561106963115106,0.21659710160574178,-0.247773139056506,0.4098863552136231};l1w5.load_zxy(weight1w5);
tansor< 5,5,3,float >  l1w6; float weight1w6[]={-0.17669210495308163,0.24086052755463733,0.017527824591238472,0.20873598183347095,-0.3370151770281542,0.2036182248249599,0.11703280868931443,-0.4471723512912547,0.1258139194154845,0.3572853440672504,-0.014412089583452132,0.05167789513578146,-0.19281469627473596,0.10593643103811333,0.013724111991187596,-0.1766418586402461,0.13654997201788846,-0.20255026281279515,0.2253266960101244,-0.19845721179285306,0.44018405638982755,-0.4216704951051963,-0.7254337350867195,-0.23801579484365346,0.5688723762996056,0.3216270687641099,0.3455099127688315,-0.44941173387339983,-0.1685054800348213,-0.40844554224187785,-0.22345753554160516,0.498925864735498,0.04486459517504745,0.23611762105752235,0.26361793908125886,0.3401295791546262,-0.7675376094480939,-1.3886782419720665,-0.682958818454549,1.2451554356909809,1.1486396566694113,1.142757445847485,-0.47062804913968553,-0.02728508530306406,-0.6233597294701084,0.2197952600763357,0.39857880937276735,-0.13008191995089147,0.03772084899520323,0.04443416059322799,0.4627591154857852,-0.9024253810219196,-1.4425462861273894,-0.9012363848454445,1.5989066190548094,1.6178446502426764,1.0188434641063013,-0.8571922153915368,-0.35985913799636526,-0.9098207962405327,-0.29745088970613487,0.3486575982431928,0.21734217604928155,0.12307512818256523,-0.09409354170475097,0.10264618753617145,-0.5265177943317854,-1.0079088545368602,-0.510589427613908,0.9846586682852192,0.9751102933918963,0.7801292218879082,-0.2720044936135902,-0.22859234206820622,-0.5469450505288206};l1w6.load_zxy(weight1w6);
tansor< 5,5,3,float >  l1w7; float weight1w7[]={0.41194468453442995,0.3868524242698954,-0.1641814284754666,0.3921344728781499,0.3031584693003181,0.13179972529544778,0.6442804216373451,0.601102993309478,0.3869749004663427,0.27222305789093143,-0.12756717328463218,0.03390628685394361,0.4398290737196298,-0.020745553447549633,-0.2292825367536468,0.2248949271707612,-0.14891892335508086,-0.16128751404037278,-0.15750157202253917,-0.06170653771832797,0.037393160336801685,-0.21516624995802439,0.01673309049221413,0.31321331055503904,-0.31663557825211774,-0.03499304398907133,0.3328639943440772,0.2013261893873236,0.3716454147792266,0.27777126243698874,-0.20473147143415715,-0.5097136496883907,-0.4708624092968873,-0.48315917528092117,-0.2945226245434437,-0.3906993828841191,-0.28424323519536354,0.10299531193642683,0.2437616030050848,-1.009669208717986,-0.54827502109379,-0.029881858050470726,-0.7255196308098204,-0.2952975687759021,0.027576137447414394,0.26621441915588134,0.019327280057502293,-0.17429023911304964,-0.12450052710806261,0.013710467997807263,0.013979543228087414,-0.0632029537895766,0.37749609343252916,0.5141632778086375,-0.2852227794448835,0.20830342007674252,0.33511367637245365,-0.08880956610373898,-0.11941180138370212,0.011914022291200654,0.08606638084757207,0.03724497551792813,-0.06382026940522471,-0.04240295123184235,-0.29602132310252494,-0.25891863256044184,0.07037601780441669,0.12285033146770079,0.2386307448072658,-0.20028869594227336,-0.058954084810013775,0.11566744393610032,-0.29418115414742085,0.1349106618301764,0.11068191163670621};l1w7.load_zxy(weight1w7);
tansor< 5,5,3,float >  l1w8; float weight1w8[]={0.0673139063610243,0.01601269209086844,0.053818796215001095,0.01114388433702035,0.024308367317395267,-0.07142839613896067,0.7366550960482258,0.4805760394800448,0.37176766666117794,-0.33214312382555744,-0.002995648639626824,-0.49591745066425247,-0.6995261015111175,0.47859001573816395,0.10290069017925943,-0.2342573893756548,-0.3918976730303616,-0.2766662860272986,-0.4953502993207515,-0.9531115047580836,-0.2654356624785313,0.07179499003790202,-0.1080197299794484,0.2050977894126113,1.463596282231357,1.474874119570588,1.3764210093352487,-0.6146540582572616,-0.4659090531075662,-0.7612232397369556,0.5497566352417607,0.3533097893551908,0.22026066593430124,0.12156412992655548,-0.019624300966950416,0.18813189429289687,-1.9532489339261327,-2.161631568692482,-1.4437281828444866,0.3490047017540438,0.0814506971547576,0.35379364655265555,0.875599214161452,0.7809842408406888,0.6440872907090908,-0.046218163509795906,-0.04132461549356793,-0.4257998758290786,1.077486461196827,1.0119332362257856,0.8204326438098724,0.16425714988037032,0.14684219723319233,0.21305855771118823,-1.2126029852168383,-1.2930118970675546,-0.879825243620423,0.21374371769925238,-0.05626348746601119,0.29430597932512575,-0.23335138340691883,0.18142812052738438,0.11835994590884694,-0.14360687946790263,-0.2800474174371167,-0.575258396482291,0.7348624248618635,0.7130798522059157,0.4626383037768095,-0.12448632497268995,-0.4343444068621931,-0.06598739121300626,0.13042981413657234,-0.2948130138326111,-0.028235047555758286};l1w8.load_zxy(weight1w8);
tansor< 5,5,3,float >  l1w9; float weight1w9[]={-0.14675078572339295,-0.04528511108705761,-0.4449390774721379,-0.4402187075020922,-0.2117609661534824,-0.4870505448431132,-0.07571687658378815,-0.026161073601585517,-0.10855711813024894,0.13828839479748992,0.23438510591252087,-0.021777995413383967,0.16011968632167234,0.13922633763907769,-0.04385519710841187,-0.25860506161047775,-0.007449678970776856,-0.3175430866052149,-0.1301162388723136,-0.18347601165712604,-0.5448424928271876,-0.15147937323458746,-0.18629013601359473,-0.1984051425537518,0.2115620003371108,0.10395171703541124,0.25139243672638606,0.20657737031616852,0.20940940416263454,0.14732977408158798,0.09012435971183189,0.08298320233683268,0.1474425382308989,0.3253368175423378,0.26147682106625414,0.18778090931416433,-0.0037621902261931847,-0.16098467729184973,-0.1596665030338724,-0.15404387383259335,-0.5005708180249138,-0.001847201669353813,-0.00820264345598852,-0.009403553312631839,0.25154855473228127,0.29474679550492494,0.22123325128096222,0.2660021834332259,0.222033638707148,0.2834454556862237,0.6023537950137364,0.3704357115466097,0.19258054936128982,0.4666258989521425,-0.3184106579065095,-0.4913991911141948,-0.17433854132567195,-0.46998564979253654,-0.577872247997567,-0.16961467272830852,0.049101034495999146,0.15680789612944646,0.25566027203048125,-0.06543330121482781,-0.022884562896702217,0.3284621798694334,-0.38988599463094276,-0.3084297012404421,0.20082026140843126,-0.48553814202069234,-0.47678668036495797,0.42846483876456287,-0.3107466038473209,-0.2645727399776211,0.5955532068095377};l1w9.load_zxy(weight1w9);
tansor< 5,5,3,float >  l1w10; float weight1w10[]={0.0900664067333291,0.3482899268901159,-0.09124468631667573,0.31119865917327727,0.4048770122833309,0.08167358298349588,0.1130769108538176,0.09832021624296688,-0.10620775756698941,-0.2894992188212531,-0.42897619288704014,-0.08078252330060341,-0.14522387031119421,-0.15150302446253092,0.054731569321356775,0.04734572679428153,0.015771287097083968,-0.24218757418732892,0.08748304541428795,0.2937556393006465,-0.03923275139727355,0.35553915057107216,0.24702051451189308,0.24061251616502008,0.00574909689950784,-0.15524539578056024,-0.1161423482141887,-0.30963120948008804,-0.4546455669016577,0.1791006786652694,0.1989873800710585,0.08347039230999677,-0.4822193081519006,0.1287414749676473,-0.029873681846234998,-0.14139292791743235,0.22561236196437487,0.16594208478835898,0.27175675137615957,-0.06649208277699002,-0.1532579711560234,0.33430147628943,-0.47390309366473704,-0.5052199580527318,0.2641126444311317,0.15765126210248218,0.19977984770859528,-0.45731894073883517,0.22702803822828366,0.11264576934699659,-0.33888798003623805,0.23723859937674055,0.10328400215779976,-0.08604560935491289,0.01344103029849347,0.11216251926060516,0.5192121866480177,-0.7320029368453581,-0.3751278882385175,0.3230689619854557,0.1522980417557595,0.11988889941740938,-0.475305649333673,0.11241712209322324,0.05504978924550159,-0.34892962558609036,0.2899967782598608,0.06572241750768802,-0.09977727174316592,-0.004207388393727634,0.18011226524322405,0.21962894136741884,-0.5954835352163479,-0.1398740720170591,0.5496664338268177};l1w10.load_zxy(weight1w10);
tansor< 5,5,3,float >  l1w11; float weight1w11[]={-0.06853768383571256,0.06917711443011217,-0.4057195493886628,-0.22601778506997006,0.01861303659854645,-0.34755190243434386,-0.02280649058909892,0.12001773899383096,-0.2760285965343964,0.8144654092899594,-0.05969618096912559,-0.44478269750023397,0.5720519079432917,0.002627557829308365,-0.6039729342771293,-0.20577344303383968,0.0968697925674996,0.3337713076140284,-0.29901320636764167,0.46223614724464795,0.7199351730793838,-0.12802963794661562,-0.1338874665605224,0.25337739051434927,0.278444463247902,0.1365382950619293,0.1916865449724245,0.30623945598309577,0.061517308555890375,-0.4884580475556932,-0.579718116048094,0.12472853741328292,0.23154510827323405,-0.6522472038366344,0.10606705292505254,0.3505380036953195,-0.9571828148448263,0.0522826774920533,0.5182649959504809,-0.17724013356322815,0.18747609311334398,0.09183958711827822,0.3822816060899002,0.04655841305350662,-0.2860681125816011,-0.48140113445665267,0.11480597128462806,-0.03508491444769289,-0.5911697480230628,0.059588026531848554,0.7144556231579751,-0.7183147560055001,0.004213185098075322,0.30009588110860386,-0.2726441027243869,0.0282152049335647,0.2575127990509173,0.19526996875535949,0.22005845466812712,-0.2413066496908795,0.16818136042586396,-0.08738814528552392,0.19279213951383792,-0.4874268351295624,-0.1377239310655226,0.5060122039483321,-0.40852402518819825,-0.4117765289132205,0.5811822337255153,-0.1442478864650083,-0.1696184263245259,0.13811644563866013,0.3156261249328038,0.055118558275563466,-0.04387065849086241};l1w11.load_zxy(weight1w11);
tansor< 5,5,3,float >  l1w12; float weight1w12[]={-0.2738198010726945,0.030657913125872988,0.3663324612908889,0.08840196745515126,-0.04940560295838658,-0.3150900780449767,0.5503290186859289,0.176689035792468,-0.24200128560589912,0.6874052485393176,0.09412985364540395,-0.019524756428202474,-0.02625013569572053,-0.08869280608198435,0.18125861744990282,-0.09432299222238072,0.09971860043439358,-0.2441491040975559,0.35911858274206027,-0.24263126815893227,-0.6029767238708289,0.9079382874383172,0.4618162976685446,-0.036392592771629054,0.07415632069049057,-0.06451306798422933,-0.08602869803946679,-0.43833394366363554,-0.14047852385173287,-0.0030247629332761415,0.23189766726068817,-0.5001987744811576,-0.6505495692890393,0.9158187193029023,0.2308652555357616,0.04849329859248311,0.7336782944997505,0.2775197462451447,0.302102421591136,-0.7579516113346769,-0.8323071365392405,-0.2961662440857714,-0.30369637539086464,-0.32826835493007117,0.33023908830051674,0.47062693778258197,-0.14561535107447543,-0.08806009845124813,0.5131245306897078,0.4285897137641293,0.5807904668823952,-0.6572990260247751,-0.5234211293820277,-0.3154779806709408,-0.9304909188823762,-0.7561829799508087,-0.21726348395038833,-0.048888675657560235,0.10523895855220207,0.5578981605827359,0.23133030059620463,-0.060648692564203806,-0.15156177947131821,-0.27198737931788186,-0.3407798796201733,-0.06768900155745063,-0.8908665568454155,-0.19209312489214533,-0.14125850268250092,-0.01211546160696225,0.32808636864281965,0.6592872662047395,-0.060863431467232644,0.26974317148018284,0.44029168049312095};l1w12.load_zxy(weight1w12);
tansor< 5,5,3,float >  l1w13; float weight1w13[]={0.017307643112609235,0.007505883027795286,-0.0542176715942804,-0.13563119947195995,-0.2089636982594807,-0.39594991238999183,-0.8722357678631812,-0.8985878574396077,-1.2760999680142222,0.2630351432983907,0.2833321430927391,-0.28885149277416083,0.3057639331023675,-0.052148832522264175,-0.013177021508016213,-0.036578992723336354,0.12783503038157334,0.01292473962660749,-0.1577925508552522,0.18728324804585678,-0.18658766819630607,0.9551847810953635,1.4282595275086583,1.0897447366715751,0.9371702729576348,1.212067978982053,1.179060789509334,-0.3704049761827594,-0.5111639752813752,0.007327576822565595,-0.12813980453405205,0.3041463456240783,0.048743379871727666,0.22130378851031418,0.5175026574521867,0.16388315556071123,0.2930122897030128,0.5315131307434643,0.4929746925123023,-1.2364695029557577,-1.1002337567029923,-0.8140385372496373,-0.2700319407724064,-0.397639959999919,-0.05112695749647094,0.03623323040556846,-0.10062085121502544,-0.005445027497390078,-0.10586943703722719,-0.05978998631086098,0.045144913001962536,-0.7607161044156926,-0.8574592992785438,-0.5090031988139327,-0.18482413692581784,-0.3458097066577491,-0.11084515075612353,0.5401242702427472,0.35872354032434234,0.6345688717668505,0.17158119024732996,0.011813044475124155,0.019599680903838703,0.2584163024904183,-0.046317612304558824,-0.009212251723667695,0.15565989718387166,-0.21474336346080175,0.05567597728686567,0.4293404425136627,0.26891903901502573,0.28124659378853195,-0.06297757177367079,-0.361568522581273,-0.28716385381021065};l1w13.load_zxy(weight1w13);
tansor< 5,5,3,float >  l1w14; float weight1w14[]={0.12878160427824617,0.11443443967310074,-0.06149812242610411,-0.2748269756522958,0.0028773798635129437,0.30401679945317034,-0.12943786731965967,-0.17035934900048863,0.21006025076867724,-0.04058387408689466,0.07591066038242004,0.22374286762123177,0.10155184442747543,-0.06595149578403238,0.27254659177910523,-0.226290975694157,-0.012860663736700565,0.29056191371495366,-0.03381856331746161,0.1116130181104392,0.5580072444974774,-0.5475812542006951,0.0741705873143832,0.252785648069482,-0.507978456614477,0.013829848262589426,0.05216151743585238,-0.17909998064381485,-0.20897365240154295,-0.17142521576732997,-0.30892169575287487,0.0601192495159872,0.36421321495249953,-0.6850573216432081,-0.33424709389243873,-0.11727448233255344,-0.8793833346240847,-0.5341976879426684,-0.4077184604658407,-0.4334700889231684,-0.17440420902340298,0.19247946260837975,0.048765171972145,0.09533144940962321,-0.05536642646557357,-0.29131857360355995,-0.1851597500973518,-0.05426155197717219,-0.20075097142011403,-0.12655670955579992,-0.28313208603709844,0.2035991997743132,0.1662856756594589,0.2580747624011845,0.29770349646198224,0.3962534210341722,0.2902329521894519,0.33106081835931866,0.1277753416850791,-0.24253969061480796,0.37893680863291845,-0.12955498032220833,-0.09562195069624446,0.9375852644948972,0.18093989437372734,-0.2588362140181895,0.8692117838339445,0.3321747712464474,-0.42774358528316087,0.7046645851852973,0.10353413599338909,-0.5136483007572088,0.6801901705653735,-0.02049363258976996,-0.38184721009804734};l1w14.load_zxy(weight1w14);
tansor< 5,5,3,float >  l1w15; float weight1w15[]={-0.5303660962684041,-0.3672392555769285,0.24264519005860313,-0.3215770159690965,-0.6537254694915117,0.06758111011617751,0.41873965687216574,-0.022586904962255648,0.5044742831127058,0.22579645744346857,-0.41052573844969403,-0.18676824945754694,0.16930341703733934,-0.014927156950535703,0.0553513395357918,0.1108838701624046,0.1922812878074269,0.3951616061729794,-0.4165004076141397,-0.6874040402944208,0.019629551558934834,0.24466321283571124,-0.0637940658851802,-0.1168864080530085,0.6433514208596228,0.062050515721088224,0.4472138912533697,0.5324207636164912,0.10892618577237657,0.17066771593174695,0.19586313594942675,-0.1691869220932614,0.022254525227244602,-0.24590237082839833,-0.16334450052163296,-0.33385794902149246,-0.4179697507130962,-0.5028965637488363,-0.5707439310630387,-0.2225119670324,-0.35388542893440694,-0.30329248120631896,-0.24294239526336514,-0.647462535803854,-0.10144303976554803,0.07925771663567197,0.3792888494855882,0.15928434854486695,0.18342228816210804,0.035372958074479204,-0.011180162837513547,-0.0405004058730279,-0.1595035458727342,-0.32633844624627767,-0.18921656757721578,-0.26599060111947653,-0.4522027107100558,-0.28293031162986676,-0.4521005270842184,-0.20741513288306898,0.17582482717824474,0.17957557432622173,-0.09952829820035042,-0.034704171533771214,0.02160031060140275,-0.09353367071994094,-0.2760435796150383,-0.0597390572434851,-0.3596516673493784,0.1570451510946012,-0.023092822512791912,0.18932767307120069,0.24877886944167263,0.022614623905948476,-0.15370421197910883};l1w15.load_zxy(weight1w15);
tansor< 5,5,3,float >  l1w16; float weight1w16[]={-0.2861240814410368,-0.05749542429776552,0.12134777716966176,-0.4625507871928035,-0.3265750656163895,-0.25271948630285235,-0.38236359935058056,-0.18301117991692875,-0.2922051586797871,-0.02085658702799539,0.05820694451411926,-0.22473212961658945,-0.13921654698251124,-0.03857434398165702,0.08195414758098274,0.4525916203635148,0.25203949703690454,0.4344480809279917,0.4333666271243906,0.3503747617423032,0.45797566883536633,-0.37413213288175534,-0.16763029075988892,-0.35804959018257243,-0.3288307421744776,-0.34082880637401103,-0.6743578495351558,-0.23114812239904473,0.025968483443600043,-0.19958643071608528,0.29189472168705516,-0.18849085039718785,-0.016047407658478563,0.5157618093096564,0.4060480301638422,0.4256569145938395,0.5987788774697339,0.3987476830218213,0.2995907917994057,0.020836364109679074,-0.1564543981349766,-0.35461316518013497,0.015092127120776282,-0.12702902171068697,-0.7252011059226793,0.07800766671410382,-0.12361774845965576,-0.04234146564732529,-0.10100331341168321,0.011941276456707105,0.010993581369207653,0.2727171776233509,0.07051400868266834,0.3820695379637294,0.4646915962191683,0.15310827956186163,0.3465990626719463,0.3936749839244748,0.2313449472059379,-0.09618309795943894,-0.30912476132315875,-0.2280926003828448,-0.0325066558072813,-0.3356232527446794,-0.08843083494430012,0.17605475627118677,-0.22603788904889147,-0.1713424429739865,0.13804639064896781,0.011705894334822577,-0.12723660975320075,0.09666440543046743,0.12768498827475477,0.00368343566436643,0.027710770894516724};l1w16.load_zxy(weight1w16);
tansor< 1,1,16,float > l1b; float biases1[]={-0.33820854068734874,-0.1370066893816896,-0.5937688876330416,-0.21398312468952163,-0.22612057082786718,-0.16789337797151196,-0.38549292362904186,-0.24899343299655827,-0.41503699459341015,-0.1283159159245526,0.03430957223998789,-0.2773205239857795,-0.2353408058638072,-0.19267692927089136,-1.3621419573854052,-0.2976399359123632};l1b.load_zxy(biases1);
tansor<5,5,3,float > l1[] = { l1w1, l1w2, l1w3, l1w4, l1w5, l1w6, l1w7, l1w8, l1w9, l1w10, l1w11, l1w12, l1w13, l1w14, l1w15, l1w16 };
tansor< 5,5,16,float >  l2w1; float weight2w1[]={0.19251015449906403,0.10726649707655006,0.06301445615747354,0.029276339778658428,0.18283527798559557,0.06349809030063726,0.18933038226532764,-0.11015233313495143,-0.1394845872585987,0.06788622350827368,0.14666958527815213,0.21284362823594388,0.17281887181023137,0.05136496322119399,-0.24622105194283206,-0.09133231011136048,0.002848334148154034,0.3071077297149881,0.10612746844326071,0.2590814091467954,0.026715482042917623,0.1292757674925673,-0.103502001816336,-0.025048239829910165,0.04676774761493609,0.025295103228520334,0.06380832902284435,-0.11316597503691112,-0.17039365224986766,0.20228299710962444,0.04739840027104743,-0.18554377768989863,-0.1478297704552265,0.24065404701374415,0.06366623419227802,-0.009817021835057895,0.09635373078043903,0.06956829952820263,-0.12679028990116123,-0.19666781064225064,0.21247697501381574,-0.014195617264232147,0.01858109975108067,0.3685339035527495,0.018452964863343992,-0.05752137906931173,0.3209052264140854,-0.2738988233254042,0.03442498311563513,0.07565506559735674,0.09136402872519063,0.014912247315557299,0.13234143670565043,0.14486263905309268,-0.3059308255798664,-0.2184102705487436,-0.04034255921852951,-0.015787227780214963,0.18559132577448822,0.3299300196754125,-0.11099314347700223,-0.0157154280997946,0.13759523829713066,-0.17645535907570242,-0.03936270111153045,-0.17543193625585304,-0.08817228958436922,0.05203942835753003,0.09004910255107425,0.021186929926640268,-0.09456742211688493,-0.12300606513706663,-0.2674893143452855,-0.09963479260100894,0.07160754122339708,-0.1387367313955183,-0.1485474101791335,-0.07285165805810541,0.0816678145728756,-0.1192485229809805,-0.15088235284401105,0.20711216944907293,0.15305078710950193,0.05617299966971638,0.2708206910959453,-0.12118220265535438,0.10135740654783205,-0.14053538107301317,0.11807755106745196,-0.07352749133081914,-0.20651318101677507,0.14429698506731953,0.30105304874032646,0.16876081928774933,0.30667030887686575,-0.26685583137140606,-0.25278077225022255,0.11239468278856418,0.0675100403616843,-0.09597096483002236,-0.029134120991719636,-0.20399182227967003,-0.1729400804333215,-0.5292754810079936,0.12809241506639962,-0.08361207318995573,-0.18711414898154657,0.5415390713618418,0.08682157170168775,-0.06557622816220499,0.3151169349488437,-0.4824966410979807,-0.16780292569179273,-0.183175520678241,-0.11575072797902766,-0.12040759201152665,-0.12638923271222668,0.03200753993427445,-0.18077974516592277,-0.40807099067610014,-0.08011046583291974,0.03446951990934382,-0.20786107893046565,0.37338548086112844,0.0012399649828180573,0.25704004079702164,-0.036270581026142834,-0.3064728213258868,0.02302324034403387,-0.007344747305824169,-0.12628940045827078,0.4945551463808334,-0.18029279795083686,-0.13748165316431482,-0.09940508937004845,-0.11436135390205411,-0.1458307056306474,0.030538674286772215,0.17749465891997648,-0.24795442167208126,-0.03902493023878077,0.04995515429428185,-0.19949569172774217,-0.06528529037800941,0.09422426123388594,-0.06341555521209839,-0.11555308225873098,-0.08172757050539944,0.06775779504908507,-0.03920776536374098,0.2064155468418986,-0.17272410728355736,-0.14237978538411783,-0.016910545012630167,0.16449424895464604,-0.17989199889794372,-0.16145692095039857,-0.3554907139289272,-0.16231433505152656,-0.04200292603470177,-0.12062460488310371,0.11037946457968471,0.1137951813514548,-0.001836699411037485,0.2937184544626269,-0.267244022484259,0.09073015090602919,-0.23769742194482152,0.25386273123305997,0.10731771695408729,-0.3148205732605754,0.24035663602846993,0.35818648221117083,0.5932692390823273,0.06304203505147629,-0.23931588598020706,-0.188754094152172,-0.035309097400154435,-0.06108345516043153,0.14715228305421277,-0.23353810536133635,-0.2639521361487398,-0.14664594724548444,-0.8004189341404143,0.08783782355431888,-0.028133126478042246,-0.16845297646574747,0.435111101895395,0.2919656363676559,0.41628398074980466,-0.13594042464336786,-0.4699664883011031,0.15962096191433717,0.09128734503989684,-0.0427061169620723,0.6973310472901608,-0.2619954234418816,-0.18490687302437286,-0.07872752292049326,-0.4943093784286439,-0.05833467006254106,-0.04181518579572646,0.1798347763155023,-0.031864242690284934,0.04375609787536557,-0.09389281713899712,-0.22490696808822738,-0.37562504313044826,0.03490681924769127,0.15374497372101367,0.02983562947495692,-0.09283698546922421,-0.04078456430992775,0.0006857550691873861,0.03408758439559549,-0.25954462288620717,-0.07674511519177958,0.02273419429598599,0.0538948437436837,0.20130995776319133,-0.19844311530759515,-0.2621157314339471,-0.24128048192314966,-0.34261207923972675,0.0714668099821449,0.12166592826143434,-0.1695476919740745,-0.03522257757550231,0.12692044931209123,0.08125530781637076,0.18391874135423117,-0.01361646627061819,-0.14299860374468895,0.09814780460741424,-0.05898389514373538,0.2364262487542356,-0.20084856206039367,-0.2675206388944556,-0.17628088476151835,-0.24182643115440375,-0.1950402942682522,-0.014078834019773815,-0.25431541635934873,0.06218363782620426,-0.29426864949253173,0.045134821004488984,-0.08684600483889336,0.0006321132117581706,0.16611037331068856,-0.17901941275129432,-0.13895226551999015,0.09601153003934564,0.2834086966881335,-0.17476851354388492,-0.2632972864233244,-0.024070402121630686,0.10200594281678392,-0.11890037996107505,-0.04981039742621337,0.333822377713011,-0.3086406775737561,-0.1985348528383688,0.06327022316201261,-0.11438549211714506,-0.1350881771603225,-0.09310041684532372,-0.0790310257346015,-0.2087985790263963,0.1262232544572064,-0.13730922053352856,-0.043515735602951376,-0.1685656960628799,0.13786596413752403,0.22595242693551068,0.055027435474581374,-0.18631072011766553,-0.09992017703299809,-0.1547628595399472,0.0023727440897587312,-0.07541624590259959,-0.35310587583933634,-0.05420106470899852,0.06136884352663914,0.07484059142740843,0.14969253710905933,-0.032154741999187095,0.02547622783231034,-0.22979906245001935,0.18942710628122533,0.10217370857168236,0.07016606745606851,-0.26347502777645426,0.010106386238146817,0.051969708795804835,0.02378326583433236,-0.12156106167246108,-0.017385591551077578,-0.028188065238453967,0.08666198089322659,0.15124688495495167,-0.39543464047996446,0.09418536798209014,-0.060414170158898696,-0.2500252112434789,0.261655510370842,-0.001918558162859435,0.04564412019166777,0.00711608194739956,-0.04876939579265167,-0.05596596235005694,-0.10665338246796434,0.020161100876991023,-0.1165913409109085,-0.04158356173919215,-0.005378176706530607,0.08421955192742701,-0.32331074661538034,-0.203024656700174,-0.07134670874822295,-0.15219627247076387,-0.18739925184104272,-0.06457417799892982,-0.05398910414930483,0.28019709799453896,0.07094724804324487,-0.09263469525162649,-0.11584997134443567,0.1030325180112339,0.34223641542998395,-0.05890963997885653,0.1260252152728965,-0.2079066234684026,-0.012808027267864374,-0.2085734319980549,0.29683485770344054,-0.039170444435564604,0.13624704892174028,-0.14224320244796015,-0.009979666011413988,-0.0029553891262473165,0.08859000615736469,-0.08247881492100924,-0.007309817653533657,0.442812310534671,0.1086125099591207,-0.1085975972674021,0.04447697395058298,-0.2966365004245482,-0.1583082591359803,0.008877352878222527,0.1837020332509289,0.1496151850525863,0.4096956157130748,-0.051118356506833114,0.13334704650357526,-0.1811145126209087,0.07819956762875818,0.05674403296886057,0.1505861870710968,0.20822852318559246,-0.0026211036780544807,-0.12074213571327791,0.015556600614739942,-0.027154311275590138,0.023785526748486947,-0.039335209871660504,-0.12647172997385894,0.17009079746173877,0.1035179437227106,-0.028678784155909815,-0.06468083771897756,-0.096575170283738,0.07257674483632845,-0.008501182308113555,0.07281272273481909,0.07284185915442506,-0.07998468237096978,-0.0636651728781333,0.010827297923394825,-0.03681062028050531,0.011112551679807669,0.012615251606741892,0.01522146139431515,-0.16277648519198576,-0.03857711772600737,0.061293364605480995,-0.0075492034967994705,-0.03959091766707683,-0.0489351993078696,0.04477297745026719,-0.1320083448382043,0.035992811599056034,-0.017270578203771838,-0.09616786991093443,-0.16841427984987575,0.1895611280392777,0.06436332476888254,-0.022554854552368414,0.05179079727692517,-0.03779484379717905};l2w1.load_zxy(weight2w1);
tansor< 5,5,16,float >  l2w2; float weight2w2[]={0.1324153094220784,0.3693092312071244,0.24123952714683952,-0.03082846656861436,0.03478703971463396,0.1373946284055833,-0.03943040157142602,0.23593579708096693,0.07218409212906425,0.27097659306062016,-0.20709426800797825,-0.02795869601709165,0.05181359940152012,-0.1554153204100967,0.07430413733255013,-0.0495284030268357,-0.015672876562825698,-0.1157160373507134,0.4775476460011302,-0.40365977693653105,-0.07810629325689745,0.048599985579971486,0.0746999780902166,0.04695027221765072,-0.10003762047355395,0.1566913375767724,-0.07084701328458834,-0.155602983955709,0.07591255094919595,-0.1575000495312961,-0.05019918032256684,0.08473774048740337,0.011022699900797591,0.053065840072042895,0.47121601988126044,-0.48399582592431084,0.01727811668193446,-0.09297007025307234,-0.010825450376090583,0.06119137547546725,-0.22031916243584504,-0.1059312357036309,-0.02792290968945911,-0.023292916826740694,0.01861653794461075,-0.0271248084922287,-0.0429498842481623,-0.0283073824785994,-0.03737521150573592,-0.1867205661964629,0.2927054706823438,-0.18246633202808588,-0.05011922224542909,-0.19320971746593318,-0.02190773402929801,-0.019577921820146872,-0.17655709388208307,-0.18818872375898177,0.11652760475656901,-0.040595882381112454,-0.012091635589544885,-0.024050193134924826,0.110175358442632,-0.11669803418835638,0.22145926350889572,0.01128128727287733,0.28263284495113555,0.06681047667629612,-0.13726759900476554,0.005743958481380595,0.045910259505191696,0.09367574172627371,-0.3213613759825912,-0.29784421031719394,-0.045678782117305604,0.2674982249209755,-0.022561821827200765,0.12814200397839884,0.11183052588625605,-0.05933031900093968,-0.1011742803774824,0.45130870204167123,-0.13023614849679255,-0.06187510461312914,-0.16777599862660939,0.14691087584197499,-0.17479168915640445,-0.08143264349858714,0.16449620528779446,0.36847365347529554,-0.1927984511911944,-0.032694477712180155,0.02222111594112409,-0.06490655260598414,0.11955271228733433,-0.10460815338857699,-0.19220335148590556,0.09476993732207056,-0.048462029662041724,-0.37645952390361276,0.02842512026692499,0.1358780756858222,0.3486648872743071,-0.09807963560175313,-0.04458380254545712,0.07968657237776085,-0.13043482121433622,-0.0843001542898378,0.1646220488846918,-0.022017990042500685,0.059244747259554094,-0.14315153140677622,-0.23337630574332738,-0.02180540146210604,0.10316841787863146,-0.3217247596846462,0.13318029351613697,0.15907801563402804,0.4951294746567351,0.011773554436378479,0.07859347452521645,-0.05037473148458506,-0.10282399839727026,0.10254385137091596,0.11375689586365453,-0.024260750682599707,0.20931686923448015,0.04101604059973513,-0.3979319478303781,-0.13210726869527398,0.08764056553789377,-0.21378962183485226,0.050886858368717015,-0.24877628849712985,0.29722308987865975,-0.026084371315600423,-0.10414745570912334,-0.293016827496082,-0.08610317640615169,-0.009019824346939606,0.22924183687339675,-0.017573024873087074,0.09114540867697231,0.07385832110061699,-0.1621507768968324,-0.21873046408699515,0.21046087969216715,-0.1047965969902505,-0.015960717043247256,-0.16793443374862335,0.22195175329494948,-0.15852935732870124,-0.18396429145106732,-0.3065234333179938,0.10517710780418353,-0.001940723063846341,0.05368546496204497,0.20285329124837068,-0.0466554784412686,0.19886687328918268,-0.044519662829188386,0.05931599786307982,-0.37972032102327646,-0.004393503344114084,-0.07574038265960614,-0.06703769816043038,-0.04120436165236697,-0.1254715931187872,-0.028643729791925494,0.33645538716749596,0.14534109509350057,-0.12015973628438308,0.08624511419360276,0.2182982561659963,-0.1580520601448496,0.22655532037824333,-0.1744378451411003,0.21549169661165737,-0.19079894005668344,-0.32769509106910444,-0.060731330817918976,-0.09637922247809647,-0.2761819862605602,-0.4231495059418828,-0.022483703445632247,-0.05135290189025836,-0.03153794423550472,-0.06809098093816462,-0.007218486609649036,0.019639771582774093,-0.037944867928962206,-0.1992591099529532,-0.1695075654575336,0.2156201802679787,-0.05426398091162361,-0.1816771412133217,0.2274987471922584,0.04247401789055316,-0.08707721078934566,-0.20607051469722498,-0.005651848298841567,-0.02550219700893606,-0.07706104265219677,0.03582009253410694,-0.06589802510373925,-0.03215299679449203,0.15959367949475364,-0.025180543965412097,-0.25538729239917735,-0.04069826509222521,-0.03992377760037246,0.18023055949006392,0.10616790573845482,-0.24269780431043464,0.10186817028859317,0.0073553762577982145,0.022307328184269115,-0.17555815740194702,-0.16329217362178,-0.03576594944647557,-0.1341199336910805,-0.045268176204475825,0.2646389199486672,0.03941024090633509,-0.08807164101538006,-0.3212102294668157,-0.030482805082516135,0.13131963104245736,-0.11526781047871859,-0.09249130844037523,0.30725299505834636,0.07801902551122934,-0.22207179982656636,-0.15194257089523597,0.1877644944305925,0.07297216546405094,-0.0674794349797604,0.2170507912665528,0.046910315923638424,-0.10270516202287878,0.08726179795220064,-0.10724287779794175,0.1153538879510013,-0.02842884989390956,-0.10396413730700697,-0.11737582940033173,0.09704018171102405,0.1686955587876659,-0.05551290368950721,0.057144884839507144,0.1672528166576155,-0.06934494153218351,0.32496509630927245,0.23827917411870853,-0.08680429447488082,0.2418120452466841,-0.08619083386928243,0.011872570631175892,0.04139104833148989,-0.2055217887969498,-0.1349622632276927,-0.14612339788050285,-0.2602645829475592,-0.21306796266861894,-0.060404633471793624,-0.07217034087897851,-0.034427926283014165,-0.1128494300658339,0.026490724596103604,0.09628482133138624,-0.13178041257296802,-0.023365025422087862,-0.1772415934459172,0.014274247882686228,0.034824223917612515,-0.3181428519282788,-0.010169692498350664,-0.29311420240886427,-0.27681614309666575,-0.25111166630481246,0.04336798623781651,-0.08454172372437704,0.00566234177475246,-0.15930588291380895,-0.14077523335196765,-0.06085419515673803,-0.20020750829739173,-0.10787805262839653,-0.1872756741449867,-0.0801215746718732,-0.05133633970336559,-0.19849564998893127,0.09097890521447548,-0.05837779367151502,0.016339569888186894,-0.09843083862292377,-0.006334033277152506,-0.14957853017422856,0.030592532243251577,-0.15661643533921937,-0.2532695107166709,-0.029120985048597132,-0.1210697900817389,-0.0631548816565568,-0.00853185423331052,-0.33058176872379663,-0.16109379171133204,-0.07164034262282529,-0.09327364067987272,-0.09540544847152888,0.020276251969361597,0.1099086083483072,-0.06241004521035446,-0.28606065654976676,0.20526153151824766,-0.18361004226352562,-0.132133508976243,-0.11845474051003653,-0.1531797161804055,-0.0011796242167379635,0.006467187626597946,-0.3662633296982326,0.06491217401160852,0.019748028401913552,-0.09919049621901085,-0.2903659478182078,0.20826383094584894,0.16360138773777508,-0.04699432453628298,-0.09402288896551662,0.042990733908775,-0.01948908841523126,0.14842965167162214,0.1492549453380783,-0.029747073141758746,0.036971148358283794,0.0678481592625888,-0.3315529829148224,0.05184643808213971,-0.1824451133656506,-0.08284022492035499,-0.19935154523137405,0.050526872639529756,-0.0013398499483916323,0.03466746607581361,-0.07484996124871313,0.0651223831108142,-0.12603432801724804,-0.10455469134170894,-0.06404082463370428,-0.17197965897971082,-0.061109924796072926,0.08288338134703405,-0.3183492922729247,-0.018886979675023327,-0.13176823736943447,0.015932752158330662,-0.12274694480960313,-0.02194888533997588,-0.0062738403422992915,0.07318841885583484,-0.07234350256060096,0.07595221291258186,-0.15109667124569284,-0.1863508976946122,0.043267195506869756,-0.1906325401994453,0.026330892368584338,-0.04863068114369581,-0.13348638764736934,-0.03843942152829423,-0.036163227617093056,0.10192869275465953,-0.08816370696794269,-0.18782733366179122,-0.13386011175708015,0.21828838122759536,-0.22976375063843651,0.16372216779516918,-0.2786561909838733,-0.18816431580271384,0.06540409801101567,-0.15606180160609254,-0.01462958416003903,0.20203271452334984,0.037818497423874,-0.04914769328371726,-0.09014999783920631,0.01869861081053689,-0.08010673410774972,-0.055329972372398055,-0.15649321815870976,0.22463026950747453,-0.24379168351261493,0.2765242971781518,-0.3457320783032132,-0.1020482888102443,0.08517098765938205,-0.12037090536534407,-0.14346123971685573};l2w2.load_zxy(weight2w2);
tansor< 5,5,16,float >  l2w3; float weight2w3[]={0.1802887618833902,-0.1355379525611337,0.20171241811874416,-0.047795119211575865,0.11003257566865988,-0.02475392659150145,-0.11652615629114163,-0.07128918432750873,-0.12468448655360985,-0.2955920319531622,-0.10017597104471399,0.16629277885426672,-0.06808525066065095,0.11497975679698015,0.020591572289932757,-0.04258455511959646,-0.10581125016249308,-0.31614215997348355,0.14942001143332723,-0.13773601021000548,0.16506285197028248,-0.13337306128358448,-0.06184020188735024,-0.20472581935451462,-0.33032239288296494,-0.21315644568555334,-0.0003931962972855634,-0.21651465552600185,0.08972245306329855,0.14686867692066793,-0.24005812832225312,0.0597891114842568,-0.21554143923233476,-0.09201104570151035,0.13491153552129917,-0.20344863026742532,0.19934435021507962,-0.20332583483336658,-0.10453784869863478,0.03259594235412072,-0.16476843676482583,0.02424088635968982,-0.04247497325016584,-0.33361078398143473,0.15412128009217274,-0.18007285985530397,-0.1338937731211511,0.013749096565620633,0.07255488611996366,0.24685072584001605,0.009555116667459661,-0.03507037597139128,0.004802254926817111,0.09465238829997419,-0.08433130048975444,0.18896557102848335,-0.23373658140963194,0.04614953207440235,-0.04248363065545062,0.12350863657567604,0.004357824060709014,-0.03630702476276548,0.17356968623077024,0.012624922733338964,0.0038901865864059263,0.21079124359116597,0.0022527812391599255,0.022014461039246903,0.05659393767055265,0.2084038491095579,0.2485376597028637,-0.23036914727238314,-0.19145834592675295,-0.09034825233115226,0.06192826130636872,0.012252183789635284,-0.0051284095347136245,-0.10616900277770733,0.3353765308032179,0.0021790026966942494,0.267704148997318,0.2678927379524184,0.13470695756874726,-0.008295961735491414,-0.1999452095932148,-0.1168103512649715,-0.08180679285659528,0.020695301936949833,0.12122917286791729,-0.02110496294423756,-0.25670368940060817,0.24325777736486107,0.00769231590043641,0.12953994141828154,0.08724291477187744,0.14307642457250103,-0.13915411762509147,-0.022742054799779504,-0.04762464047220946,-0.07716985848799066,-0.05624862861777758,0.021349945124595218,0.19928156899230964,0.2536232931719928,-0.24376942581783714,-0.4006859593808963,-0.024907945674145292,0.4406020200933542,0.10812510146591243,0.42802012892582875,0.1747089256660848,-0.10362799999739969,-0.4231519260195374,-0.009088540547148657,0.05781797554154402,-0.1586409811925036,0.2798514887436442,-0.09613814610265395,-0.07975357462217035,0.1404746765912399,-0.09069848144133959,-0.006124971282433506,-0.19476974247931558,-0.08225956463918833,0.16241944630561264,-0.0044989167655770735,-0.2749051236779125,0.041583123542994205,-0.17354371624548107,-0.11746909359876016,0.13976888111915098,-0.11415854189054113,0.22293091504349172,-0.16850278160853063,-0.29888285398318626,0.04581551552133896,-0.17684547237746337,0.34563437740474573,-0.2556609875783678,-0.15069490788721557,-0.08045840248821465,-0.08627895419882062,-0.34639069055658805,0.025489748028739476,-0.14106661028684106,0.1142676645396182,0.18884351964796983,0.11419692175882834,0.1684874465485402,-0.044186220067802456,-0.20417644943169808,-0.3027566114880117,0.06082090710810876,-0.013317460897927158,-0.14049730384468126,-0.2658295425612644,0.10733465312110263,0.04300797004636257,0.2740727047620162,-0.2607707772952587,0.0632892580381502,0.13993518484251619,-0.06634265779422316,0.0043372943259979415,-0.3649157969376459,-0.06967326879707303,0.04407615786431521,0.11124092794326047,0.010014491918099232,0.24340719667091648,-0.13631159760291348,0.2543181796491259,-0.22901193728382907,-0.0027745606646686033,0.10459391418014444,-0.016928532822289007,-0.3160917186222449,-0.16400577125906787,-0.30138522491726655,-0.03697596654633659,-0.6746342598925088,-0.018034052783982693,0.42705717684371836,0.04459713073832563,0.011941568662860984,0.013320765929948691,0.12498191714383407,0.598025374242556,0.14565471738302982,0.11574840495629068,0.3988140375409418,0.11092716180220864,-0.12898722689007855,0.012148109284591826,-0.38716696511935245,-0.009656765417305032,0.18322571452735026,0.15779744410288593,-0.030771565590259852,0.6423048624277203,-0.08013889420875941,-0.05275642846871877,0.0448442642464466,0.0399569746315819,-0.03331242451525641,-0.09097578692743866,0.4296506161479562,0.17555910772150055,-0.2556038468251957,-0.17605163206013819,0.11488939015590736,0.35237799704469813,0.2647500059261522,-0.045782190091538125,-0.1510239419553699,0.004872689152295117,-0.07462613559580597,0.018478290089623532,-0.11038116690208188,-0.06989792608581162,-0.3133757267548794,-0.4157813410887201,-0.19767613962026892,-0.2325354141814135,-0.13752356960614315,-0.14419438011356964,0.11902880390361964,0.06744612967946227,0.46235493944216316,-0.04346079549100647,-0.27040198027647505,-0.1631673122261563,-0.04025904033828665,0.0917678178756792,-0.21220723696999685,-0.3471112855628315,0.08677351911818676,0.020842392932256665,-0.3464712471919348,-0.051165187798067925,-0.013554572738820608,0.12822048436288092,0.1890218492001062,-0.09865796009517791,-0.25199821151834717,0.15545026951553206,-0.17933240232760966,0.29316616096760956,0.17896868477629507,-0.1819667797972293,0.08227306459889713,0.10630103494041768,0.20600271947338808,-0.1781612118967239,-0.2388215402617886,-0.11685112035327334,-0.5149725142067448,-0.1564060013238677,-0.27067901298715974,-0.07437422374676834,-0.5223562480535162,0.2147784319735766,-0.3846578426786694,0.2938733157127758,-0.12606889944307537,0.21524167114347395,-0.09169785005297669,0.07365147552173569,-0.19853882703846445,-0.15304623973586132,-0.36556612552536405,-0.0066929597808888415,-0.19720179460418275,0.02549189935552978,-0.6350326687816732,-0.2461753396107576,-0.4572948763533307,0.0010971740432125776,-0.31701606323002574,0.018183385327450736,0.3390196895407443,0.1224691076429771,0.1035393702813388,-0.1802623207482139,-0.2843493759700257,-0.19467418853821486,0.34748777898400485,0.03446445997913733,-0.13777181906222738,-0.13708987139887294,-0.18334304364023135,0.03175035132783243,-0.21685902202320295,0.0716813672543024,-0.13923745325437073,-0.09798759704263482,-0.1542469085607435,-0.16331344105348597,0.044756939776004624,0.1707846155595393,-0.12245288634110327,-0.028353403850987446,0.434768759459728,-0.1270659169311618,-0.13039035237958738,-0.13992863729978508,0.3606703323043161,-0.003366295391051761,0.1403732861180789,0.06515828065071863,-0.19865585656888365,-0.17179466811356164,0.06423426764862214,-0.02664196138191598,-0.12976718223648098,0.009955110476031549,0.31685376891030265,0.07276357854169373,-0.3400548226699268,0.018598271677156993,-0.05335355609031875,0.019534102406588358,-0.050524726054067694,0.2058149460363395,0.23827873429748914,-0.010752817078300593,0.04694435679908392,0.2181966685966134,-0.03136431768161995,-0.14625967912284213,0.3022554843438425,-0.1202812692246212,0.0869478351853258,0.24611684093447908,0.051468142320683176,0.11364818475030053,-0.24816201119382086,0.3965397753765092,-0.14739114375658674,-0.010071383834855492,-0.14832201416852225,0.00160056343581531,-0.4371776640535361,0.1713186431413278,0.04347600981514358,-0.13923307639173854,-0.10760502511464544,-0.01398124555428446,-0.2260446611405622,-0.05945823572443969,-0.3022169196715615,-0.08079771406020561,-0.21668550646471316,0.08300517711093305,-0.41431466546129775,0.18365488939721014,-0.6904310673198724,0.19465732382311,-0.42523300892118704,-0.019853281588510307,0.19429079684955508,0.16403660198304654,-0.2656871526402879,0.2131376449503433,-0.37086810580685076,0.0047353725320789354,-0.14425807699456683,-0.2561391716319003,0.034001668566749896,-0.031737244393224666,-0.26856362566074965,0.2128304136441071,-0.29916362724175305,0.013057249127077467,-0.049466976560462055,0.025653386892470407,-0.05883620209912991,-0.16275375176801837,0.04906208210257742,-0.12262133208579055,-0.10981751072694992,0.0277406829536168,0.5464756736331589,-0.049228179137140005,0.32738908772892555,-0.05243320387429231,0.20573176304873594,-0.08362719061946751,0.2109213994858553,-0.04838696691715399,0.06846354191611734,0.07627864037204792,-0.1982567032552661,0.003079420937132596,0.13268104599315222,0.04473975907302851,0.15087425105324465,-0.13713769203618106,-0.20451870879631656,0.15347198572306936};l2w3.load_zxy(weight2w3);
tansor< 5,5,16,float >  l2w4; float weight2w4[]={-0.0050020763300989285,0.08618268707588153,0.24579920104884828,-0.09881579268538423,0.331285613198387,0.13670223295633616,0.17029535987903746,-0.017227999886008385,0.04413936597778234,0.04685946085859577,-0.04506188531564051,0.2256843832411249,0.0036706998569165797,-0.016661154060047388,-0.1268852417770721,0.11844442271948483,-0.24050034553544686,-0.16478649532925668,0.26793516507889276,0.07473409005716561,-0.034217103570050846,0.12757117868352733,-0.08574624991427934,0.16537637030358204,-0.07765849917458414,0.20206389309822861,-0.1739806813529814,-0.020569749264465708,0.07309685838317491,0.06919608915842064,-0.5275513567566369,-0.15197349732741763,-0.1308134076542959,0.20031998776156826,-0.25670244219666943,-0.2870336820029682,-0.49092674716804957,-0.0068606079449740455,0.004156403797474323,0.18743376820311491,0.2860812761850323,-0.021253207037029067,0.13671513903170218,-0.3933751787496254,-0.08426835420833002,-0.1005128061664832,-0.07184624936291541,-0.06387965098288748,-0.055510433988163854,0.3692612029166863,-0.1119172925981089,-0.1576082576201696,-0.07507578056133131,0.14187572606199875,0.22683411615751337,0.18886531083860944,-0.014606518298608599,-0.11708247349327845,0.4436863310192294,-0.18293508004039663,0.04929495027808315,0.08818106609409605,0.12283822658552336,0.17943982747205442,0.040979163957242375,-0.003985840644247371,0.43570668486649844,0.031293524041805645,0.2395500037057364,0.0073487056961616705,0.08953452707366558,0.04240949684222587,-0.06384030533044427,0.008010703261671406,0.06284744630438399,0.05306146233058741,0.044684496984468636,0.07699721778490103,-0.0365940552692752,0.09053822686509326,-0.031678205162029474,0.1123247499456458,-0.19022836032891277,-0.31924782038017646,-0.18952474586781118,0.15574750229832,0.12279432610043077,0.05281675758179549,0.3106913221256401,0.15184930182831183,-0.22259972116731644,0.260653026392742,-0.090532339037768,-0.021137231007003102,0.3842328411990828,0.016112603650015125,-0.3134673103961495,-0.1329760607841855,-0.14433088041018766,0.04526996674319337,0.30131447543976614,0.44679753018301177,-0.14451294766410028,0.04144728442943561,-0.03759812655788135,0.09899471760286681,-0.034838125152181154,0.26786678946649445,0.06883080149062638,-0.28045713841356484,-0.1135990492220354,0.051503598394478114,-0.4463226642787589,0.0028493432746313665,-0.04534917230002004,0.4684500452151342,0.028038666477085035,0.44449536997654054,-0.3096856458971495,0.41511388125414717,-0.045822729259737106,-0.005048427705942855,-0.09072304945102555,0.362377587922305,-0.06741078818118668,-0.14468527723545446,-0.6283772275651062,-0.4789689660171961,-0.06301792667063419,0.18552000910934593,-0.033454648070899165,-0.07326733387015837,-0.12265305692719036,0.18338323483638508,-0.16997196638671336,0.18015320051202693,0.0713558973496346,0.031812838499301506,0.011626094542274694,0.12333226440169849,-0.1269812469266031,0.03444533805323844,0.2042754640317396,-0.21394263234715763,-0.09400687877424838,0.03854233942199469,0.011587777362198426,0.00861244516615838,-0.04637655313459759,0.13458796190283695,-0.009638905159939214,0.106116753370475,-0.09049605509288287,-0.09027709381104965,-0.11153904550864606,0.05780736219322949,0.037041525704897424,0.179620474195801,-0.06922776583853768,-0.08657893304999963,0.12733113149451322,-0.02181523982541932,-0.18031636132087392,0.1104069561019273,0.040509736339914136,-0.3520435583524291,0.21559457049153752,0.22389530383911596,-0.08032645654513476,0.1450637072968231,0.04669383056993367,-0.16760769490511818,-0.1633800892650274,-0.27866871099834223,-0.05410576587155437,0.2346229822043564,-0.0559962993629151,0.013821102973529875,-0.12813650101776092,-0.08795004243711113,-0.4582367807747696,-0.510772084550373,-0.013248263430610948,0.3628954672505363,0.11644353877755402,0.1123121963576445,-0.06336080809057473,-0.06898797149478664,-0.06208573394401232,-0.02418333215194478,0.617208852769539,0.40103387384327815,0.017808432984575642,-0.14045925068402584,-0.09713294963804414,0.1865791850540477,-0.01845374473713275,-0.28815439921024705,-0.05710225171122815,0.23086822536438661,-0.22564723315888324,-0.08953126221918445,-0.2115075111789976,-0.024831989516076732,0.13419593276282385,0.3889502652519795,-0.04622041351988064,-0.025141410022816002,0.18380039989037877,0.15536190219755536,-0.1178817347174749,0.48669548875516583,-0.26531706302497904,-0.21555881664945148,-0.10702202300229118,-0.003961458023181893,0.05145167709380917,-0.06640485002817188,-0.22989519479500936,0.05747701335243562,0.009494980197210604,0.32430556473261457,0.0778340850843829,-0.40538466855910943,0.12392512314571821,-0.11036460979249274,-0.12750332016828553,-0.011478567953910895,-0.29102821946492735,0.012337752915489629,-0.05860233302489852,-0.254334566033569,0.07480348314843653,-0.08915987491620116,-0.07714846532791851,-0.0008780562743818728,0.04907720695558499,-0.13643308564196704,-0.012979381459622585,-0.13719752001753946,0.11739012912630085,-0.15811311198351194,0.1400038664909381,-0.09019804294079918,0.23762007548000788,-0.2879440537232157,0.06015151398057507,-0.2719641396104969,-0.02328388284901946,-0.25314091252616966,0.0802390537302287,-0.17744180063186285,-0.10608615441554899,0.1445816107501195,-0.10073779296792104,0.09272440402935543,0.09090949995962429,-0.35744396362085723,0.0561523449271305,-0.4154181651065528,0.09725715630618535,-0.8569425648051788,-0.0059902290100218875,-0.5160017133463867,0.05351238534825641,-0.3195927050144897,0.10214932538038242,-0.24361988023511807,-0.12403241944189633,0.03890683881156657,-0.020246932700464827,0.17151037156643661,0.27512203100857757,-0.36689107603677396,0.04555385023511724,-0.5110861000716379,-0.1085502827548388,-0.6699003129343452,-0.040956821748106255,-0.3290838730699305,0.2093485324439379,-0.03484018777508997,-0.08951878717689363,-0.15266711169991226,0.05591897638416549,-0.03269441876087644,0.08262579779094523,0.3033262273166196,0.20810198642285554,-0.29903166015660193,0.026043507135459148,-0.4277031320318683,-0.11910948489357392,-0.5044203697956031,0.16297722138475104,-0.1572281275484669,0.043380111585097164,-0.07989321779584208,-0.017373466078690322,-0.034496195902472715,-0.02915499042673362,-0.046555015349644395,0.019979395132727753,0.06990238159684257,-0.03043904168669491,-0.04140451013352559,0.04241102654514442,-0.25266446645861806,0.17802239806360676,-0.15805275626926402,0.06709532675602921,-0.058712598512055986,0.09521408746682779,0.01818516659398303,-0.08248931518967426,0.049684356824844206,-0.15590198144640421,-0.1965754113644677,0.17065874246540474,-0.0001893841572897789,0.22593911734351937,-0.16882444350504694,0.014010526988017125,0.0037958329930602008,-0.08786260068590258,0.3994997228659415,0.14963247612645078,0.19723949834754267,-0.0036315369464959587,-0.18159920371963173,0.19275933392800412,-0.05278418256965761,0.13723343712815544,0.17325652345231626,0.050302622539961844,0.14856595169139997,0.06691904739396394,-0.2708216890153001,-0.024054557052550492,0.06510667940676952,-0.01731539986168085,-0.30297755708707125,0.029415669975498514,-0.20601590205916878,0.1052281622722831,-0.20716673522448295,0.20406692643904792,-0.24983537752861884,-0.2413995659743465,0.09858846660452243,-0.12448803952968104,0.03415044883532994,0.07732600265355949,-0.21906047195215064,0.14882205578787422,-0.5433558306958649,0.10126940107945383,-0.25846868189505456,0.14035936290428427,-0.20522586476349314,-0.02404480055255098,-0.3143437535170306,0.07799390523538728,-0.16171925671033505,0.06183546686412002,0.11525864139244017,-0.20852619691125318,0.05105673503996934,-0.07457622657045565,-0.20155449228201983,0.08963088963772065,-0.4758935781754524,0.0739844707074326,-0.05563498649170374,0.011316295645657053,-0.2696357339096527,-0.13816061834510032,-0.28967184516520134,-0.02898668999632239,-0.20916761342901344,-0.01704211762381472,0.18090943821345373,-0.12000013384913372,0.012069668016305667,-0.027694187749085206,-0.08390888102663754,0.14953519875325824,-0.5470529059976745,0.19190135130375907,0.05247568075196025,0.06306906081422375,-0.3046446970552836,-0.046951728306251404,-0.0304091488614897,-0.06764313909843214,0.07756657353685616,-0.12032250956391037,0.0059865832757909545,-0.0961643805479746,0.2341426926067769};l2w4.load_zxy(weight2w4);
tansor< 5,5,16,float >  l2w5; float weight2w5[]={0.1130841105905958,-0.09293155198704732,0.19351691911335694,0.10417797754311973,0.10650438292466043,-0.26531689031356537,0.09353320614472846,-0.007322573692138772,-0.016178359767985134,-0.240588276392622,-0.07019107043146793,-0.17906692422836795,0.20863166816461728,0.5422555839433135,0.22399187282399433,0.08414083148573781,0.0987232735448236,-0.36228777662844297,0.1219436586587128,-0.13473715178732887,0.15340206536517376,-0.4230619365724864,0.09469390525005089,-0.1108379505841342,-0.18232957732481753,-0.38645154077579286,-0.11661732644241106,-0.09974738490953126,0.16306036233361385,0.525477652217997,0.2761239711311713,0.1344040731837899,0.23242734534320358,0.0017993560586881036,0.20170101195003765,-0.3244596562608152,0.2142817028794974,0.058176504000310936,0.032138299582455135,-0.04042860147399029,0.05138214806589685,0.021328489984094694,0.15430442756917706,-0.11229672922448643,0.15501352409184493,0.011551377266939637,-0.04482256722128904,0.2944335149182048,0.061234384278242106,0.05400235487966855,0.18225072653615842,-0.25698351063848124,0.08694680213869066,-0.1851064041831226,-0.00948084172639671,-0.04073507643068474,-0.03377851942201329,-0.2098204591402511,0.04027427838352886,-0.21688251155609065,0.008954025593420983,-0.2528796516636206,-0.21887731529668128,0.2069843978724229,0.15965067158912563,0.09970397675316368,0.08411973348863076,-0.0003703983669992212,-0.08575206451860128,0.055914427903019294,0.19350223518401696,-0.04198233140598615,0.03274355565262399,-0.06584807680999982,-0.12610183713418005,-0.171365529581322,0.03349385706076401,-0.08417292823729831,0.1238867570620069,-0.17921554655081248,0.2846837215182953,0.2276695917981716,0.08906662548791476,0.010142996505881406,0.006381597055248329,-0.27140183508701193,-0.10631185727700723,-0.3567291145126325,-0.19539838589643616,-0.258562969489539,-0.0261747019405191,-0.09926100143506793,0.208004937222725,0.32367695191603457,-0.07017856131624337,-0.3897680030125248,-0.04886613396983532,-0.27506230617523914,0.06868589921164849,-0.13576264833589052,0.11266882938143816,-0.40210777309111595,-0.060829283408725995,-0.19934992007892768,-0.10793889800829735,-0.3161061262591035,0.10422507410534534,-0.29007485835572394,0.197773962838653,0.21508518636626406,-0.07578005188029456,-0.30260340646525685,0.033394156813537204,-0.022396381861162752,0.035574639469510214,-0.162535484066492,0.19108906392048997,-0.20613406159268707,0.112774180652973,0.017636644647064097,0.13940466142231334,-0.02498347355609864,0.10980466010647848,-0.19395934750685218,0.08105077850002035,0.05087874943828457,0.1250053937963067,-0.10839060918290591,-0.08730506524752252,-0.1968268144249126,-0.043823827537825114,-0.3902113575281235,0.10427223328482349,-0.33828801578365875,0.12405258758144005,0.0774592758368692,-0.02550961610074252,0.15422798523485715,0.136626390862647,-0.39958058439130484,-0.31145857701407936,0.02554946888096759,-0.17994768901990332,0.12896572314246668,-0.05703369858780333,0.1144787456319934,-0.07179186650514283,-0.11804631977429882,-0.13546953554497013,-0.24109762963344034,0.08844958704463134,0.24469051910876172,0.17460654913303333,0.0434840723138139,-0.059569554852531785,-0.3887937362620652,-0.1354850125544907,-0.2840996982284507,0.07224910049766727,0.1066065944691108,0.14431671109798674,0.45313469538118906,-0.1043100049467608,0.06046116882651098,-0.1491169772538633,-0.0694934279709929,0.08544320330689968,-0.3518076487684618,-0.03227384784498906,-0.07772235167039439,-0.19713172322149872,-0.012689141741993691,0.049342756020390156,0.06820177273063815,-0.171094448346862,-0.1900310492883621,-0.05455758149360709,-0.1504034864263958,-0.043766057501372684,0.39547502551048075,-0.18068692634323302,-0.0707986580761347,-0.07771554563571113,-0.2626412042455022,-0.0794822868014043,-0.272400818350325,-0.04688783965168573,-0.15921389260389654,0.07960106773692417,0.11384284444149856,-0.07171334815701864,0.06134822234340709,0.16680842402445542,0.0485021639809657,0.028171445431021565,0.1430605081281108,-0.07615093754743672,-0.040321315373854125,0.011631866784222494,0.04432731202540318,0.2135338900930036,0.22243937555538093,-0.005603256839680026,-0.07487901716214608,0.003429516442368172,0.08003956023621095,-0.14017585531382923,0.5088813451065303,-0.05753753742797198,0.018206531098046028,0.0412722492445936,-0.11530282363061777,-0.10417514825095033,-0.18315553699429848,0.046893889107192555,0.06104781922865129,0.16934095949111924,0.16849985061315037,0.05644938485917877,-0.030446938339562996,-0.33169366344925877,-0.04791780956695697,-0.003757600799013711,0.1911002775205503,0.002758112549109822,0.12854629733233905,-0.22167188770736757,-0.09471454711293133,-0.14544782319241803,-0.0896284920767929,-0.04741469963937002,0.11316166025728822,-0.03370098674360241,0.4041306222613759,-0.031602746547478265,-0.047774825760555015,-0.37535011877327845,-0.27500619093006345,0.11432819202007408,0.07929075874002768,-0.22563091737052565,0.2257423918117562,-0.23973646402816495,0.13822601472879367,-0.135841682438596,-0.016223675270236257,-0.2508399726068326,-0.11020742541099489,-0.09934803360359852,0.0553250497907818,-0.227986028628428,0.3574978878834656,0.07988670123152017,-0.042961675380754315,-0.09091844332964658,-0.035919202361332156,-0.20045700110566367,-0.2937423472036962,-0.3110915454624213,0.24019586200285986,-0.3043150012239524,-0.08617477462128846,-0.15629550997418193,-0.06201808269684135,-0.2829114872207309,-0.20753159885859723,-0.18051003393611426,0.24686298144298943,-0.2766184543826912,0.11271135539002371,0.15469466956529604,0.062202604651805216,-0.09506287237366105,0.05744625325110772,-0.1035279161625069,-0.03004107521422007,-0.20905350440969248,-0.07026870321783976,0.02020782759510046,0.17304235717935865,-0.3910073226356283,0.2695098138212558,-0.25827129545235095,0.2937666985010414,-0.449043230108625,-0.051275200546579865,0.08017500514379904,0.07678419401027656,-0.09233165027652904,-0.031048189364764476,-0.05742931591552241,0.28131354478904,-0.28896512592180745,-0.06975240521040592,-0.07951388843445804,-0.022654448078636414,-0.35923294510410847,0.14918179524154015,-0.208905614649446,0.10935737076255016,-0.3407499074956748,-0.30558173876841127,-0.009156694219204061,-0.1720118867937407,-0.053863003490424756,0.05555003392699618,-0.12293699993905248,0.004111332614157576,-0.1581078821938684,0.010013101309254004,-0.17417965932706359,-0.039942034320192984,-0.32559604588374513,0.3463236088372634,-0.16806082642256154,0.250514737715235,-0.24098477868291718,-0.05265120678673707,-0.020087009697872058,-0.19402272203412932,-0.3463636903566059,0.1347019241869459,-0.27600028136849597,0.2421760087048875,-0.1708254800650948,0.15867175011732168,-0.0801783915778632,0.026766487706748367,0.01624379508070672,0.15057791961455966,0.006510855315570394,0.30918900774914576,-0.2924856354072179,-0.16337960736566387,0.05292353695514258,-0.15382042483515782,-0.15487777611202325,-0.13494915811277525,-0.2519578341507488,0.03262646505735123,-0.2835686572730365,0.13928716386580509,0.05533981016763218,0.1380919636842017,-0.18032587062617006,-0.16776935263796627,0.11641767675712916,0.37825165689799295,0.021015532904347097,0.4717472114401824,-0.019160958960297035,0.179451434001491,-0.16401069131070892,-0.025824415395451602,-0.17246921824624295,0.009435378010183638,-0.14892962429215872,0.09331669997027708,-0.029987939301866166,0.15410427280448,-0.15314564491739105,0.050706178747881435,0.02667658068874384,0.29183540714359574,-0.13695871084101224,0.12003420344671034,-0.13882623023364057,0.12164920799409237,-0.1723948039042673,-0.030603107087352182,-0.058673642371041786,0.14221630495772436,-0.17054598261058548,0.1631103364134475,-0.08746185363980273,0.05788068170500257,-0.06233826110747073,-0.0286324013213822,-0.04244385418938171,0.14244506138716542,-0.13901876847067232,-0.35878895549992956,-0.14944048268480467,0.09347318764787561,-0.09545091738351853,0.10842300339034035,0.022677098714615627,0.23906393686457048,0.14163276729089302,-0.024501118730301724,-0.13642494139055633,0.14324465156942748,0.018723942696878593,0.07409129584653815,-0.05223353999605569,0.06166565179827619,-0.4286764610866902,-0.2006816590764902,-0.07792500186030406,-0.22527316892170496};l2w5.load_zxy(weight2w5);
tansor< 5,5,16,float >  l2w6; float weight2w6[]={0.17709195856082524,0.1513375019742188,0.1881275758770559,0.05060248823106611,-0.19186876422046825,-0.19330473697663367,0.174854769386151,-0.09471506725724775,0.011128661533021061,-0.18778624311648584,0.3215561005816393,0.21099429312889595,0.021752026385163832,-0.14011645494201033,0.16841809942616412,-0.3730888677626139,-0.2978420101626221,0.038207689434258923,-0.10039092646962222,0.35401902561553494,-0.2688207743319012,-0.19105369953874524,-0.12297107761673463,0.07390900182143267,-0.043764083837800394,0.1507236805540324,-0.05298256426906393,-0.1659662232332206,-0.4146919809465593,-0.04623859038364982,-0.0949481426253958,0.08131435204643331,-0.07323817336012813,-0.027599961762152524,0.010418033429941602,0.08534345920100112,-0.16092952145766717,-0.12945081121307864,-0.35059185276371796,0.18138709958411584,0.24130120003528854,0.15783686698960264,-0.3954727333385938,-0.15209258951548335,-0.12793182427730498,0.04475204844656374,0.2914267116543544,0.15007612051472372,0.13877715511403768,0.2681595414232768,0.06175736438495101,-0.09886430314919432,0.15186465579904704,0.045163806076044026,-0.04656860327711057,0.050281432264739245,-0.09960659198106679,0.021627681138508065,-0.0025022575664990603,0.1395922921879048,0.14741504406833297,0.3679806807966638,-0.1558672070861376,-0.1788071093919445,0.22022397281204434,-0.00013132715358723075,0.1418520555797938,-0.07485825525863435,0.30146742921511266,0.12647580853875168,0.10183318106567282,0.0693171026956106,-0.02830108913585936,0.3158748566018793,0.12052287137590896,-0.19737226325004678,0.17881283949513305,0.33352951222284477,-0.13321149987100037,-0.03617356258284374,0.03767094622148648,0.18958122520412263,-0.0036324903563577393,0.11049069106307696,-0.21968447227275523,-0.09672464798845638,0.2757046880294201,-0.18287897907508943,-0.06495654605915305,-0.2360238879762499,0.20876313078188452,0.10086695114716246,-0.2664348802692416,-0.09748710375378777,0.26692890451188,-0.41170180828919606,-0.08787637440433711,-0.0034537762379697025,-0.16831941178667753,0.37308582406209717,-0.3347399727338925,0.01870038539968353,-0.055629318991512265,-0.17228429715284424,-0.22899536285191321,-0.035583140820659546,0.11718360764729972,-0.18966453334276928,-0.6695020748435278,-0.3826657875526463,-0.08204498571320316,-0.2878068767151053,-0.16753758167826246,-0.10337379253907705,-0.21220174989618124,0.1562897517257862,-0.4160147322286427,-0.07238149270967602,-0.11339979479600691,-0.17593046381958,0.13479470669266314,0.12121151015309219,-0.28116143862958487,-0.13677932740962592,-0.4624265870650893,-0.5184749839360353,-0.26425195672460455,0.21287444440383935,-0.0523241372718171,0.011543526250080871,-0.11899811605280251,-0.17292595530583668,-0.26367451180968965,-0.12765876088687228,0.05651132161933998,0.11444981835067324,0.24461371304485433,0.048830306825314064,-0.041260281846793825,0.04484290896102181,-0.10208078830477617,-0.2356544142598872,0.1404336123387054,0.2117556804316615,0.23151638312861805,-0.13240630019845182,0.008437638309156758,-0.17280595166840418,0.0243787905609905,-0.24728745856057702,0.07461620345629233,0.022722984974861676,0.10984415317422523,-0.06355757121908769,0.3132908135829885,-0.027571370427292078,0.07268332267575568,0.3370529523143605,-0.26181615960101046,0.1018558692863583,0.003058732152729012,0.04168753799357155,0.10586811881073385,-0.025997887515664682,0.07394094617756117,-0.0039766760438400975,0.17786011441389918,-0.09058680143235118,-0.03168146932621586,0.010548663659405681,0.09136210154352828,0.16010359491580695,-0.1725515094537154,0.3939734761566176,0.4061755302520996,-0.11936502998535346,0.0013985806784366668,0.14812869792034047,0.06935191185834715,0.24680692642867538,-0.3624637973653621,-0.027936228943318486,-0.2856025832353876,-0.09062717486173663,-0.10386222855769286,-0.2094360316613514,0.1410339059446146,-0.11472536428552518,-0.44751399486001514,-0.38232169786184456,0.24199551400877653,-0.420346403926739,0.1058093620285034,-0.0660794572141765,0.018427264144002357,0.159690884167908,-0.41381236581305186,-0.08607184429958616,-0.13831651642432236,-0.33562795613889174,-0.17655440693431648,0.13197208038196567,-0.25785307500453275,-0.17878224476909851,-0.4593079415977039,-0.5442103864012926,-0.3120637228305991,-0.05831946759882918,-0.040929233732381484,-0.1746847236678904,-0.16106163917153743,0.07242227019790111,-0.4504842417707402,-0.005230451742398948,-0.1694307168818256,-0.1987809275219799,0.1071494127326757,0.1731476691704893,-0.15316203031637837,-0.05000043009320955,-0.18086570990224463,-0.34163852108750636,-0.07055263455492859,0.391008588264362,0.19753440316243814,-0.2592350513834328,0.015071926143735766,-0.2588543345123129,-0.2456624831815931,-0.025760506033252323,-0.05418392184112708,0.12938121608374806,0.1714872554408294,0.06977210158041432,0.0558290218618886,0.015454992720376417,0.07059217958185714,0.022630059214358574,0.038091189761330045,0.10973752940792378,0.02730229822047064,0.007572681797753052,-0.08473324171462088,-0.06017562134075924,0.15245181068685265,0.05373693256859235,-0.042778140646022554,-0.09066905497115771,0.16267939908819812,-0.07036938002133639,-0.07782984560279345,0.26461743746354943,-0.10595264917307323,0.11193783001113969,0.09750487600635903,-0.15767115482812813,-0.17849569735208795,0.10935383767256587,-0.06649906060743829,-0.006360455734490013,-0.32858812662697695,-0.07209533490015911,-0.2558598505569034,-0.012690806995780736,-0.022961096867508954,-0.02161909810763848,0.06051877555285984,-0.2246083374922754,-0.27445280376369297,-0.2831588140064512,0.023878956403786254,-0.18448159140860343,0.015469766450290506,-0.041812911008781886,0.01871250504556699,0.014757005889787326,-0.3509207209763142,-0.0556006252946216,0.027303801828737925,0.04455147748305124,-0.12708917905442638,-0.19441756482373435,-0.14732811986584718,-0.0990331314537007,-0.3468832124333482,-0.4245482667087271,-0.2774958056619589,-0.2381656266644252,-0.07519748569533936,-0.007884204936870315,0.04759241735060249,0.11884956064131803,-0.35497965252122743,-0.026618671181316295,-0.1887192698181594,-0.1776439875395165,-0.11580730613920982,0.02449337929723192,-0.18110911444446895,0.06536462912592475,-0.21180165834066417,-0.285657874401607,-0.23117248697616977,-0.1455600157836364,0.002627861888625453,-0.17370029418997765,-0.018686742075962583,-0.17818876185397092,-0.12655752350387334,-0.082228646110353,-0.11150737349648303,-0.023889703770993517,0.11381453262313852,-0.08525532596142801,-0.21102550562718578,0.21762018588297968,0.09445380964004799,0.0716931255168312,0.10422284463450233,-0.09074517129434635,0.12426188220841439,0.15698304534032087,0.16707270985131278,-0.12446966073104805,0.2635907702287221,0.10113813404578816,-0.06333160823007346,-0.08807395560530218,0.07009226096526035,0.13897625820141918,0.03434644504195164,0.13174716542906859,0.041126915025343234,0.07656333641178936,0.23756835412774713,-0.08000666481938158,-0.01619444912545188,0.21896269802584856,0.3049714883567588,0.0981720809837465,-0.15757680965274334,-0.08444073939160494,-0.11629856716658922,0.08104299460084148,0.037889977378031764,0.30713336052127194,0.019115263354987467,-0.20815817592563918,-0.1644555778649425,-0.1318698837143607,0.09638594958053023,-0.05197332679575261,0.04484720308100717,-0.004626016099718195,0.1804985684554337,0.0819142654949628,-0.043246814888583944,0.15886921048081895,0.2068783221384164,0.16607223092182755,-0.044538394706555004,0.004027295419557748,-0.04269535664352339,0.09873179571247304,-0.050509394815289516,-0.08762666096346225,-0.14487037793834573,0.17553561435164625,0.1077810989470549,0.08859112515811775,0.07317751681607569,-0.06341833421051161,-0.20528616878510117,-0.17219708573576062,0.05923896796449561,0.009135297149896847,0.10725388944732012,-0.08121303273742296,-0.15298921335620516,-0.10318273309176676,0.09476766903170279,0.12922347268216772,-0.13658749394692257,-0.0020536218788011528,0.17814488510003096,0.20510474492993627,0.2176107109307923,-0.263073271103465,-0.042802000672542174,-0.10956952536110723,0.10900660497246875,0.05804152854924371,0.32406566652560964,0.1035465290255064,-0.09229422138138176,-0.0451694420764313,0.13261540019445922,0.07324091401180845,0.08975442819578934,0.2309921816397628};l2w6.load_zxy(weight2w6);
tansor< 5,5,16,float >  l2w7; float weight2w7[]={-0.03514303762643827,-0.17118312069492564,-0.02889302059968984,0.07500788149935779,0.04173345829894885,0.14047215146121603,0.3146121722253888,-0.24440387735861233,-0.03967718988994775,-0.3764771565344201,-0.01584685699289845,-0.1321031046118899,-0.0742013167757502,-0.0736751213926175,0.09779894169032763,0.04701456540226728,0.17215368441280646,-0.2854700232035551,0.29769692888285304,-0.2236605453444614,0.18505023299082096,0.3275892268342927,0.26796079324993355,-0.3281584314773372,-0.0082664621881142,-0.23844926035947306,0.02765446285282643,-0.14802152310547922,0.03571063725074885,0.08029241477093235,-0.052109982312945315,-0.047744587063984816,0.10452563206504582,0.27878008649542774,0.10179463954971019,-0.03641261717193135,0.08460542616959277,0.22283294057896738,0.24440972601450275,0.03013826958983443,0.13784226777889616,0.3454527128789358,0.09424755115257613,-0.17475697333345128,-0.21380594260532979,-0.13992258118740292,-0.08913634458491317,-0.061283200997492716,-0.09705083271702503,0.11568177019225469,-0.2015600941115398,0.14358575756724715,0.03518568824343568,0.28949071362051554,-0.2641273454075146,0.037343840343435755,0.043450992739314694,0.2591428884906898,0.004595269970239642,0.06777795052752245,-0.20729707908807152,-0.2769348952227908,-0.08787285723535022,-0.30195945638158184,0.03391742182618711,-0.08571501909130456,-0.24035367776100544,0.20108201634029532,-0.02094011050555188,0.017554867889753894,-0.1701797699445317,0.06729172923171302,-0.039948461900400654,-0.12511895318433608,-0.00857605431818849,0.5431554547921916,0.009236529573111921,0.02193629594512071,0.3772684448389352,-0.24639660377821307,0.02061200332423966,0.04720984350633002,-0.011004666898944044,0.05418960072868798,-0.030314078025375904,0.2682119288766752,0.09291111807197755,-0.1387370442564583,-0.15292537120544497,-0.07185579067783833,-0.032843828764555404,-0.22659471775554718,-0.07214546418191684,0.07979009709039478,-0.15487671642535716,0.05835856004652544,0.08053822779337291,-0.12906166781401254,0.07751085083640265,-0.17890987605378547,-0.027357960266121226,0.20438724447714535,0.16840192439121032,-0.2881349123089986,0.12194871330100279,-0.12939633385680493,0.016896385483527367,-0.30029443897205316,0.12952007350727598,0.14721690753304115,-0.15522272438778123,0.16669554881390772,-0.10293611350606006,0.04297989597495785,0.17998104496548062,0.08465958822529301,0.10479861543935294,0.2760549531788036,-0.05366095504771722,-0.16362843149553294,0.10978440827586834,0.288631760908927,0.12160648514803106,-0.33611603423406006,-0.20899251298428495,-0.04448577656559369,-0.1673037231591284,-0.207447503517801,-0.06492474796542924,0.13320785636933957,-0.08116287462646313,0.1722016414011519,-0.25536474103200907,0.20262106805141517,-0.22712370310246624,-0.33354129039575725,-0.20084742353316654,0.15971871550748165,0.012292323721747047,-0.2692766771411003,-0.5535137403828694,-0.508989230447231,-0.13297988099106864,-0.49355504021226343,-0.12101987582741218,0.052867717443588,-0.10488000420106863,0.35441510644636076,-0.09676438725712945,0.18984353640052073,-0.231364217791575,-0.012242488376249435,0.055917321016901,0.19653881830863576,-0.08031876814793908,0.021458477301939213,-0.2841617078146322,-0.15409294824918723,0.054705113395133086,-0.13161186931767016,0.07655123209108405,-0.129729915307716,0.04012823278053415,0.086191856451233,0.023521464377913706,0.16098979929148013,0.08918685151590935,-0.08196723422069428,-0.14893806145554497,0.12135384965275106,-0.027138285532790938,-0.4125954800045525,0.05952486467988762,-0.05688924461094983,-0.2187144426290182,-0.034094566852060894,0.06338836440682077,-0.3137464893806818,0.40210679498034857,-0.0738617058875537,0.15927878127219253,0.23911374658323048,0.0028555088845880674,-0.2343531297284416,-0.06947874160763816,0.05858233432097833,-0.030918040565626182,-0.3561930507034669,0.02087410283598348,0.18116927165090357,0.08142916632406219,-0.07308991235192464,-0.07699991408202213,0.09135359484722441,0.33774426743075525,-0.14271243307029147,0.04993991759811511,0.2516331001459631,-0.1285270818455933,-0.07878261832753178,-0.23915574287801458,0.20335392805024666,-0.2255747149209577,-0.5074128979260664,-0.17054394960480018,-0.05418055283903084,-0.09300158557183075,-0.1968102861169821,-0.05060825919557466,0.22042742421561065,0.007427699892707572,0.12860190594814375,-0.2193630222928883,0.28017409618256894,-0.33307417137359047,-0.22157249444411026,-0.34407584774760064,0.21476948098094242,-0.04249660697535541,-0.1777819016214375,-0.5907886885295827,-0.4301857970071253,-0.2450857933721275,-0.36387783863815315,-0.18121931680458037,0.335749975786911,0.13841883975827185,0.31963619684265465,-0.12839621822627217,0.15845598879635223,-0.48245065687755934,0.08210000140089209,-0.10786147248334345,0.19290252433763236,-0.23206690067368152,-0.044142132497067776,-0.213545451597228,0.0643115687144255,0.2782368878055766,-0.327474448736876,-0.10164396113389121,-0.22482426551843862,-0.011685932732203126,0.02967993402368027,0.12583624710035518,-0.10479247050598779,-0.021130575481918303,0.1158360958116064,-0.02367747539817757,-0.08463997201608844,-0.026778459293152798,0.050590592321194214,0.008699419000779217,0.1588034226746613,-0.1322061739906806,0.17699603560780053,-0.0634859047454977,-0.0875502409632924,0.3663079981535844,-0.3082544240491278,0.006306377486026163,-0.18119205704854663,0.10968529307300931,0.2392956554047493,-0.06721166822320421,-0.06153444514867988,0.1889004169663378,-0.019286204634055542,0.18284060648659692,0.3979114305523441,-0.16109240401884037,0.029304524637573305,-0.2586840263684834,-0.06648493724877033,0.31666427263605124,-0.24137348242459553,0.14674781797059608,-0.20382187256125328,-0.1438981187693891,0.044521379272553493,-0.09081105433642331,0.01743592059494351,-0.030115923053822245,0.03525306815955404,0.16720363014522036,0.16188561934465723,-0.23192846903708886,-0.1192071162816982,-0.2716339962719123,0.23368285355475382,-0.03827022948410928,0.11338329753001371,-0.1843948686899057,-0.01624258889932481,-0.25848549858479025,0.1709736544339916,0.16317949633754608,0.10127048120337771,0.019199390080532917,0.0705462260375011,-0.20646587060791668,-0.12422591368272354,-0.318336561189016,-0.09912096053472892,-0.30501096247862636,0.1279407969453927,-0.11614451139526658,0.3429553434647901,-0.3174938156949397,0.023658898768517678,-0.16312886831443513,0.009520574503935881,-0.3022027358951207,-0.08497178037033001,-0.10884393441413112,0.1770014506989885,0.06615429932265121,0.03169783912003824,0.1469798377730531,0.1230730819029351,0.06874014919840543,0.09168795938794115,-0.1623590982901102,-0.22870225733964913,0.21348323927823584,0.11913513560615614,0.15013865141421925,0.10158369142677345,0.17855562115622328,-0.20397311781835895,0.07317501715752052,0.06844829095051755,-0.011530278795924569,0.10512314111530699,0.48181496936401663,0.07813782372603607,0.07875399285653281,-0.06532705154303062,0.029244274594922334,-0.3782901159410692,0.07999090584800025,-0.037980289721958334,0.4794360552112226,0.1359090190264184,0.018402041216817832,-0.2310292822348735,0.23294400169478752,0.015227210927556701,0.10973604411116215,0.05467311934612135,0.3006226171387264,0.05111261989678076,0.07924024549044556,-0.3510913155918485,-0.06083169183508624,-0.29909203552389113,0.000024725888164297775,-0.15811618984603595,0.3479308630792297,0.19889369074835786,0.004724132360544189,-0.1884319749100756,0.09093181061517933,-0.031322847981140746,0.24850618389123152,0.10402091420793624,-0.030013188770273074,0.07828053896270465,-0.031198935609984622,-0.1709760715753622,-0.05843195810233233,-0.3039233347720656,-0.03083280149960761,-0.16507205919546278,-0.04398803318304974,0.1611158158592731,0.03527363697604315,-0.250983357106132,-0.015110805886849793,-0.030027576439525097,0.20999737823554046,-0.11048453471550987,-0.08098752808576284,-0.010641914397426431,0.13726536605573397,-0.02104341617752651,0.11493536932143603,0.12234151236005969,0.007203899339291815,-0.1817714471082468,-0.10259680178341565,-0.0023869594381488116,-0.11325551316125046,-0.146040299866394,-0.15578070342159306,0.23989496583307166,0.12509006061996292,0.10916495071136997,0.06996024652416472,-0.06992839015810848};l2w7.load_zxy(weight2w7);
tansor< 5,5,16,float >  l2w8; float weight2w8[]={0.09123982173991571,0.3681227330569734,-0.04436042389377709,0.13976342526635502,0.19641540129436608,-0.13259708174115045,-0.3036015613310223,-0.014524072086277888,0.3570057061799188,0.4627780551202629,-0.22851855317253547,0.25818453598833957,0.04356252024134711,0.2426928361623971,-0.1821479062049049,0.043805215380429,0.06828899412224419,-0.008010961372162603,-0.17937825455044715,0.23934078994086688,-0.23001152548722947,-0.2104199690214033,0.038071334459083395,-0.08045189709210177,0.029104709586635212,0.07927968527372832,-0.13300780671625795,0.08370381418855731,0.09208895537027834,0.10598305293664868,0.003327323466049325,-0.05358535169464988,-0.04513637180695371,-0.036336378567109494,-0.056114642646069975,-0.20104875714518758,-0.026672291853116217,-0.23657583563853524,-0.033365613993778485,0.14611988503843829,0.007552467225523997,0.09152556966226058,0.4146295847818275,0.06212911027765373,-0.031341798162913936,0.016474485676201123,0.045046937731452234,0.06282540647297385,-0.06950076337239179,0.056515549055448235,0.2829923408657581,0.03199050864032684,0.04248507685591022,-0.1610061981328107,0.15090710367603197,0.225681461505602,0.2822755143951193,0.10831227310647631,0.16754678420243171,-0.19117671475459994,-0.1710987249532675,0.07193809412922467,0.12849546788256622,0.09869434108705212,0.22964396970516848,0.03916975610443816,0.1687032906601091,0.22507752200310158,-0.17134629010608243,-0.13320420215405437,-0.12846999848542937,0.1250209325683792,0.1970985738592748,0.08191226140221614,0.39571761104472625,-0.20349568630647955,0.11329762862686399,0.32404692598995544,-0.09915207085332699,0.18255612703890553,0.3100283209799899,0.24305141885592466,-0.17999571409707318,0.0278917605198649,-0.09385838224195328,0.017954415352890725,-0.1742593675966041,-0.2667853356817448,0.06117962453144922,0.06743914044775433,-0.02628375643888347,-0.17301453009951936,0.09454913866318439,-0.2677805057024438,-0.055519096885371634,-0.07730826139991105,0.18696257951177445,0.18881514131176463,-0.313846863748803,-0.19638395635113404,-0.4163823345307701,-0.05970256655764997,-0.24439642586898555,-0.13453562247480433,-0.0019419185195057311,-0.17155240082956189,-0.130631645671293,0.3663350368831476,-0.11842482980092761,-0.15251084749006188,0.07076711677897775,-0.37707936343314336,-0.14624247212500077,0.06749097205781135,0.06261835537190186,0.11244249558041522,-0.06147511340110044,-0.09772138570138686,0.062301263108193776,0.33183971534607143,-0.3067105499258689,-0.12133495883011028,0.07739333105791585,0.31648425375893163,0.07650568777349497,0.35923393500128875,-0.2135945580166816,-0.031342573532376454,-0.12370188207860647,-0.11458813952875024,0.1263291836167756,-0.003647430217030439,0.16593116068676605,-0.04525341647463699,0.2403587894648295,0.277130284331174,0.026857889753336115,0.013925253036722273,0.16199022386582115,-0.3761940339656015,-0.41856428210181895,-0.33906694197938897,0.1781096587269729,0.08352573426713608,0.06285028223397887,-0.14534878158695735,0.09945821079930259,-0.08624989612121742,-0.11563501159034839,-0.11794775127997233,-0.19611711302221832,0.03265531030216503,-0.08250461853962966,0.03874393055270384,0.17423670352151127,-0.02239681078316725,-0.05229090337638411,-0.10540799104167857,0.1494241852587356,-0.1461241463336165,0.2716639739573168,-0.16251953112831902,-0.0925912463272964,-0.1161843303981189,0.042857455957081916,-0.03647548723753471,-0.12637811605610696,-0.08203383076669242,0.012430995057344262,-0.08547238764784393,0.058301860320996116,-0.24824280950188785,-0.023813796085109966,-0.26445495923368395,0.23600627222817444,0.1577634163262585,-0.02122407296057449,0.1980446306829276,-0.15737520225182203,-0.2923672023322796,-0.40117745479690736,0.1893205151230661,-0.28818018598907785,-0.3302411840274445,-0.09989362764869585,0.04353894382941433,-0.1546501971685916,0.5930160405136408,-0.02490389734360725,0.24240405487471087,0.06858065228501588,-0.35306678042245826,-0.26892579475339473,0.04678814256057938,-0.08705189751918084,0.13563827048094412,-0.27606328838597494,0.19884614732646397,0.0216319686448137,0.555683180353253,0.02810785673869297,-0.09642334291517417,-0.2490965143398132,-0.057071844998769564,-0.1074671128898685,0.24693123676134252,-0.26844580731857,-0.36211018568152087,-0.1940755814799787,-0.022146089228908233,-0.12080341968424343,0.03376314015222727,0.003300605082727862,0.0869357350857015,0.07899416161521403,0.40452415690098115,0.4206209392254847,0.19634781902123802,0.07505802368661463,-0.6362573406834169,-0.5030079357409055,-0.4155970687233248,0.2137509115767851,0.2325527329070921,0.09837442916116786,-0.14311608887176042,0.19372299342908716,-0.1792878497292909,0.07460503903579799,-0.09086722126723853,-0.2076980402875291,-0.10009764611391965,-0.0999998056738562,-0.051687987646240614,-0.043271425457803936,0.01584545535041631,0.03969469862848615,-0.0013384250727641407,0.22216523758567827,0.06681719910945377,-0.17080513418596102,-0.39296345333304883,0.07211277515599017,-0.11008892118517259,-0.08691473830367183,-0.0734444453337556,0.1408621122096895,-0.05690800653134333,-0.008052794701774356,-0.1434382283311398,-0.055952457979403514,0.04236119462681924,0.06248210964056823,0.038355211675684925,0.08736699725580475,0.0713147964772761,-0.1612838623223446,0.08738324519170648,-0.309266754448916,0.1917298119129433,-0.5738718154826197,0.1904586118397038,-0.2907317065617001,-0.15453036370786508,-0.006920829897384455,0.10104815164108588,-0.041137403248548,0.31229718845127785,-0.35197809683548187,-0.3786248705725157,-0.12745642685827974,-0.4522171089224447,-0.6623684057272495,0.15918022436951892,-0.49689248802471203,0.5177640230591272,-0.3920600855681793,0.2521914405581927,-0.42469996049423975,-0.05285130582594443,0.1130680445541107,-0.0053783586021073455,-0.07055643536016759,-0.15587404858856094,-0.6733001620706954,-0.6996374106417746,-0.3457544531257987,-0.5304032889793572,-0.23361581563403183,0.2294031995540739,-0.21383106822257053,0.015184017589426882,-0.08331948367145826,0.14086375949486923,-0.13388351505666035,-0.12438504039379451,0.16380904369263477,0.2515990667947723,0.26504739857453596,-0.2842995980488904,-0.4199161218598263,-0.34924013935635617,0.38852101888492313,-0.12101163519975762,0.07747522775643005,-0.15678521284079427,0.042349291049054646,0.12617952830949958,0.16203548269245435,-0.04744025880530426,-0.02163059312031164,-0.14335017827813917,-0.22760350334267748,0.04230333420471269,-0.18502535726761246,-0.06561409910089111,0.022252291316493335,0.34355092870107734,0.15064931962631,-0.033372958812611445,-0.06492537202617121,-0.19466048727209675,-0.012886081961552946,-0.052559054359289065,0.07048179922363412,0.09032141491114072,0.28119187118339517,0.08360139925630612,0.21262862539287428,-0.024814816245276247,-0.0559873140421337,0.021890863814199347,0.3454374185770654,0.05765938084647559,0.3093822958695836,0.1442240344271598,-0.023728148853700778,-0.007898935169587088,-0.2032263265390599,0.11790313337403024,-0.1340806088446485,0.2163799295966291,-0.22736444098555073,0.3138602046090763,0.2871170735535455,0.5822785052648549,-0.06090274097913605,-0.059066714546784325,-0.34273681801627215,-0.5474181337801156,0.04792101844375466,0.009995963450771242,-0.3735771035348886,0.04016501403745632,-0.43215949629616873,0.5374551100304503,0.0030367159697848984,-0.06236001273859458,-0.1597481213805566,0.16389469143035543,-0.17063751212074493,0.16766874562211864,-0.1374004125192626,-0.32703987120823436,-0.3104571292537322,-0.15774730806950488,-0.4460093891164912,-0.2608251285902588,0.0092020770718231,0.44792687426457145,-0.1584095025332095,0.3204418328109972,0.09934742464592339,-0.032205620480942505,-0.011775089810055442,-0.19647795283432815,0.04198161944637643,-0.08270064006214944,0.10752036683058845,0.04295266559998489,-0.1447656793682286,0.45734005734586947,0.18197572411640014,-0.3974637664996971,0.15259919763294988,-0.17517108411942153,0.2600336441507677,0.3092448290435023,0.3632800811695788,-0.24283942766214536,0.3819190347722456,-0.2000181073661796,-0.12850546359784007,-0.0782838176700559,0.09982722401841362,-0.04040027122787002,0.2481172405520149,0.23384488068796186,0.3041146378083578,0.33732941876344963};l2w8.load_zxy(weight2w8);
